5.2281,5.8495,12.208,7.3506,7.3506,7.1131,9.1839,10.56,10.56,13.32,9.2689,13.435,13.987,13.987,13.987,13.987,13.987,22.466,24.126,24.081,-0.74791,1.4483,0.74724,-2.0223,-2.0223,3.8085,7.8286,9.8247,9.8247,9.3216,8.1581,9.6095,9.4306,9.4306,9.4306,9.4306,9.4306,2.7494,3.5408,3.9486,1.2688,-0.097031,-5.2623,0.32526,0.32526,1.8088,0.70731,-3.3491,-3.3491,-3.4237,0.63924,-1.1155,-1.33,-1.33,-1.33,-1.33,-1.33,-0.3684,-3.5791,0.33521,-0.97751,-0.067827,3.5416,-1.1224,-1.1224,0.05979,0.47834,3.3,3.3,0.7558,1.1836,2.4682,2.9657,2.9657,2.9657,2.9657,2.9657,-1.422,1.6698,-0.74758,1.2761,0.9214,-7.7627,2.8317,2.8317,2.4153,-1.4044,-2.1347,-2.1347,-1.2123,3.3902,-1.1022,-0.72717,-0.72717,-0.72717,-0.72717,-0.72717,-0.3714,1.7845,2.4132,4.3628,5.0703,14.332,6.4494,6.4494,5.9194,8.9506,10.724,10.724,12.475,7.7952,13.135,13.52,13.52,13.52,13.52,13.52,22.061,23.537,23.032,-0.11477,2.5047,-3.0561,-1.3481,-1.3481,6.028,9.2605,10.072,10.072,10.925,11.225,10.337,10.478,10.478,10.478,10.478,10.478,3.3568,4.4441,5.6046,0.95501,-1.493,-5.9075,-0.754,-0.754,0.47484,-1.8735,-5.5423,-5.5423,-6.7807,-2.543,-3.0798,-3.5638,-3.5638,-3.5638,-3.5638,-3.5638,-2.23,-5.6445,-1.8723,-0.60891,0.92244,5.0104,1.0586,1.0586,0.41069,0.58863,4.237,4.237,1.4869,2.9834,3.0959,4.0807,4.0807,4.0807,4.0807,4.0807,0.11514,4.4109,0.91274,1.3143,0.53019,-11.374,2.3042,2.3042,2.1954,-2.5782,-4.3903,-4.3903,-1.203,2.7093,-2.5524,-2.4023,-2.4023,-2.4023,-2.4023,-2.4023,-1.1757,0.23678,1.9035,4.5003,5.7489,16.375,6.9895,6.9895,6.4547,10.085,12.633,12.633,14.334,9.0647,15.062,14.951,14.951,14.951,14.951,14.951,23.089,24.912,24.167,-0.013083,2.1738,-8.1073,-2.5312,-2.5312,6.9345,8.6801,7.8452,7.8452,8.9533,10.974,8.5208,9.3999,9.3999,9.3999,9.3999,9.3999,2.0256,2.5951,4.7877,0.73547,-2.494,-2.3317,0.42669,0.42669,-1.7148,-4.2068,-6.767,-6.767,-8.7004,-5.088,-4.4351,-5.3064,-5.3064,-5.3064,-5.3064,-5.3064,-2.4837,-5.2236,-2.8024,-0.64663,1.6788,2.1266,1.2838,1.2838,1.2867,0.79041,4.5934,4.5934,2.4573,4.8376,3.2697,4.7054,4.7054,4.7054,4.7054,4.7054,-0.073531,4.5974,1.3473,1.2692,-0.52475,-11.847,1.4315,1.4315,0.89179,-3.8889,-7.0291,-7.0291,-3.3729,-0.2117,-4.9768,-4.6458,-4.6458,-4.6458,-4.6458,-4.6458,-1.8226,-1.4615,0.56156,6.7563,8.2558,18.649,8.9938,8.9938,9.3613,13.679,16.181,16.181,17.506,12.569,18.459,18.616,18.616,18.616,18.616,18.616,25.934,27.853,27.34,0.29278,1.4405,-10.765,-2.6877,-2.6877,6.5015,6.1487,4.6966,4.6966,6.1952,9.4552,6.2131,6.6873,6.6873,6.6873,6.6873,6.6873,0.64772,0.833,3.3213,0.1078,-2.4007,1.7115,1.7547,1.7547,-3.0948,-4.7888,-5.9042,-5.9042,-8.1207,-6.0096,-4.5702,-4.946,-4.946,-4.946,-4.946,-4.946,-2.4638,-3.5262,-2.876,-0.21734,1.7707,-2.576,0.81675,0.81675,2.1328,0.78465,3.3702,3.3702,2.3092,5.4658,2.815,3.8051,3.8051,3.8051,3.8051,3.8051,0.061472,3.4532,1.5886,1.0482,-0.97355,-8.9187,1.4498,1.4498,-0.57711,-5.0683,-8.0717,-8.0717,-4.0817,-2.5285,-5.9172,-5.8923,-5.8923,-5.8923,-5.8923,-5.8923,-2.1232,-1.8811,-0.54862,11.379,12.646,21.682,13.164,13.164,14.195,17.951,20.001,20.001,21.215,16.84,22.411,22.466,22.466,22.466,22.466,22.466,29.701,31.345,31.207,0.55037,1.2097,-9.3179,-1.9431,-1.9431,6.2357,4.6581,3.5877,3.5877,4.6774,8.6207,5.3091,5.9984,5.9984,5.9984,5.9984,5.9984,0.70068,1.606,3.3115,-0.16771,-1.7358,2.3335,2.8119,2.8119,-3.7124,-4.095,-4.593,-4.593,-5.3004,-5.1025,-3.7611,-4.186,-4.186,-4.186,-4.186,-4.186,-1.7969,-2.2863,-1.8558,0.3819,1.5215,-5.2475,0.21446,0.21446,2.7573,0.39117,1.8679,1.8679,0.62505,4.4188,1.8348,2.7968,2.7968,2.7968,2.7968,2.7968,0.080168,2.0841,0.92682,0.48012,-0.95737,-4.6129,1.5532,1.5532,-1.6724,-4.2772,-6.5206,-6.5206,-2.3394,-2.3621,-4.4776,-4.5864,-4.5864,-4.5864,-4.5864,-4.5864,-1.2084,-0.44405,0.15552
4.8558,5.2434,5.6608,5.6608,9.8064,8.4541,8.4541,16.2,18.042,18.042,18.042,18.042,18.042,18.042,12.662,12.662,12.662,23.228,23.228,23.041,-0.62546,-0.35669,-0.17712,-0.17712,-1.4902,-2.5979,-2.5979,-8.5375,-3.7621,-3.7621,-3.7621,-3.7621,-3.7621,-3.7621,11.272,11.272,11.272,2.5712,2.5712,4.1833,1.3803,0.85149,2.2425,2.2425,0.9049,0.39102,0.39102,3.6956,-0.43308,-0.43308,-0.43308,-0.43308,-0.43308,-0.43308,-1.841,-1.841,-1.841,2.9225,2.9225,-1.4368,-1.04,-1.1737,-0.30963,-0.30963,-0.92654,-1.5092,-1.5092,-7.7076,-8.6887,-8.6887,-8.6887,-8.6887,-8.6887,-8.6887,3.5518,3.5518,3.5518,-6.2654,-6.2654,-1.5259,1.6651,2.3364,2.0642,2.0642,0.062641,6.8685,6.8685,4.6926,5.2478,5.2478,5.2478,5.2478,5.2478,5.2478,1.6797,1.6797,1.6797,3.3525,3.3525,3.3125,3.9026,4.0778,4.5238,4.5238,9.0374,7.5502,7.5502,15.21,17.463,17.463,17.463,17.463,17.463,17.463,11.54,11.54,11.54,21.542,21.542,22.147,0.14031,0.79136,1.0156,1.0156,-1.1896,-2.1188,-2.1188,-8.2815,-2.7431,-2.7431,-2.7431,-2.7431,-2.7431,-2.7431,13.654,13.654,13.654,5.0787,5.0787,5.5858,1.0389,-0.013054,2.1584,2.1584,0.57585,-0.57119,-0.57119,2.5952,-5.521,-5.521,-5.521,-5.521,-5.521,-5.521,-5.2969,-5.2969,-5.2969,0.37462,0.37462,-3.8092,-0.64828,-0.35919,-0.1843,-0.1843,-0.57446,2.3243,2.3243,-4.6763,-2.6374,-2.6374,-2.6374,-2.6374,-2.6374,-2.6374,5.9135,5.9135,5.9135,-5.6494,-5.6494,1.0867,1.7824,2.672,2.1056,2.1056,0.1587,5.0886,5.0886,4.3421,3.7802,3.7802,3.7802,3.7802,3.7802,3.7802,0.15161,0.15161,0.15161,4.5362,4.5362,2.3359,4.019,4.2547,4.7526,4.7526,9.8102,8.0236,8.0236,15.101,18.367,18.367,18.367,18.367,18.367,18.367,13.512,13.512,13.512,22.149,22.149,23.324,0.34424,0.94387,1.5818,1.5818,-2.1988,-3.5092,-3.5092,-9.2895,-5.2211,-5.2211,-5.2211,-5.2211,-5.2211,-5.2211,12.318,12.318,12.318,5.3118,5.3118,4.4037,0.72295,-0.64578,1.504,1.504,0.93795,1.4611,1.4611,3.883,-5.4122,-5.4122,-5.4122,-5.4122,-5.4122,-5.4122,-7.5178,-7.5178,-7.5178,-2.2914,-2.2914,-4.4999,-0.55744,0.40641,-0.11388,-0.11388,-1.0283,2.8026,2.8026,-3.9997,0.11374,0.11374,0.11374,0.11374,0.11374,0.11374,7.4732,7.4732,7.4732,-3.8747,-3.8747,1.9947,1.6743,2.1665,1.5818,1.5818,-0.27601,3.4732,3.4732,4.461,2.2002,2.2002,2.2002,2.2002,2.2002,2.2002,-3.3914,-3.3914,-3.3914,3.7855,3.7855,0.72711,6.255,6.5714,6.9747,6.9747,11.726,9.9844,9.9844,16.893,21.151,21.151,21.151,21.151,21.151,21.151,17.296,17.296,17.296,25.294,25.294,26.454,0.75349,1.0274,2.298,2.298,-2.0503,-3.6792,-3.6792,-9.183,-8.1744,-8.1744,-8.1744,-8.1744,-8.1744,-8.1744,9.5251,9.5251,9.5251,3.8796,3.8796,2.746,-0.0017621,-1.0892,0.50852,0.50852,0.98213,3.5943,3.5943,4.3069,-2.6798,-2.6798,-2.6798,-2.6798,-2.6798,-2.6798,-7.0551,-7.0551,-7.0551,-3.2559,-3.2559,-3.9986,0.0076517,1.1985,0.18265,0.18265,-1.1849,2.0782,2.0782,-2.4903,1.6093,1.6093,1.6093,1.6093,1.6093,1.6093,6.7745,6.7745,6.7745,-1.7844,-1.7844,2.2061,1.3671,1.5529,1.2283,1.2283,0.28449,3.0344,3.0344,4.2665,0.84591,0.84591,0.84591,0.84591,0.84591,0.84591,-5.2391,-5.2391,-5.2391,2.1036,2.1036,-0.42545,10.952,11.227,11.829,11.829,16.079,13.972,13.972,21.396,25.139,25.139,25.139,25.139,25.139,25.139,20.967,20.967,20.967,29.563,29.563,30.245,0.96442,1.0234,2.7635,2.7635,-1.6051,-2.7037,-2.7037,-9.3647,-8.645,-8.645,-8.645,-8.645,-8.645,-8.645,8.9112,8.9112,8.9112,2.882,2.882,2.6528,-0.2771,-0.76464,-0.52079,-0.52079,0.70771,5.683,5.683,5.9053,1.2602,1.2602,1.2602,1.2602,1.2602,1.2602,-5.6674,-5.6674,-5.6674,-1.7079,-1.7079,-2.3795,0.68228,1.6137,1.0684,1.0684,-0.60972,0.43943,0.43943,-1.3428,0.82417,0.82417,0.82417,0.82417,0.82417,0.82417,4.7793,4.7793,4.7793,-1.2685,-1.2685,1.158,0.6152,0.78392,0.13433,0.13433,0.26686,3.28,3.28,3.0686,1.0376,1.0376,1.0376,1.0376,1.0376,1.0376,-3.452,-3.452,-3.452,1.6891,1.6891,0.42996
5.0825,5.6403,5.9522,5.9522,7.1914,7.1914,7.1914,20.129,7.3581,17.364,17.364,17.364,17.364,17.364,13.494,24.39,25.023,24.099,24.044,24.044,-0.2186,0.78625,-0.88777,-0.88777,-6.1785,-6.1785,-6.1785,-10.206,3.263,-7.5205,-7.5205,-7.5205,-7.5205,-7.5205,7.1338,0.093742,-0.38172,1.8628,3.3438,3.3438,0.83167,0.81377,1.2289,1.2289,8.464,8.464,8.464,6.7947,2.8115,3.8556,3.8556,3.8556,3.8556,3.8556,1.2999,2.9471,2.93,-3.0435,-3.617,-3.617,-1.0272,-0.64944,-3.45,-3.45,-0.5333,-0.5333,-0.5333,-10.725,0.15781,-11,-11,-11,-11,-11,2.0817,-4.7612,-3.6275,-1.3653,1.123,1.123,1.2402,1.2201,5.1165,5.1165,3.1818,3.1818,3.1818,-0.46296,1.8976,8.0797,8.0797,8.0797,8.0797,8.0797,0.48949,-2.6479,-4.1208,2.0449,2.0852,2.0852,4.1891,4.7889,4.2743,4.2743,5.8503,5.8503,5.8503,18.326,6.2893,16.273,16.273,16.273,16.273,16.273,13.38,23.068,23.796,23.726,23.475,23.475,0.59774,1.8071,1.2789,1.2789,-5.7046,-5.7046,-5.7046,-8.4401,5.269,-6.2463,-6.2463,-6.2463,-6.2463,-6.2463,8.5832,1.6664,0.87754,2.1,4.0129,4.0129,-0.0064404,-0.12337,-1.1808,-1.1808,12.001,12.001,12.001,5.3905,1.8661,0.59272,0.59272,0.59272,0.59272,0.59272,-1.4584,1.269,1.7912,-5.1499,-5.558,-5.558,-0.44334,-0.12761,-0.80974,-0.80974,-2.8572,-2.8572,-2.8572,-10.711,-0.032621,-6.2053,-6.2053,-6.2053,-6.2053,-6.2053,3.536,-5.4761,-4.7976,1.9755,3.8869,3.8869,1.3085,1.0987,5.5177,5.5177,3.6508,3.6508,3.6508,2.1681,1.5482,7.202,7.202,7.202,7.202,7.202,-1.7125,-0.89931,-2.2982,0.35897,0.56864,0.56864,4.5087,5.2151,4.5444,4.5444,4.6706,4.6706,4.6706,17.35,6.8029,16.506,16.506,16.506,16.506,16.506,14.449,23.4,24.138,24.92,24.894,24.894,0.55667,1.943,1.3103,1.3103,-3.3516,-3.3516,-3.3516,-7.446,6.3206,-7.2556,-7.2556,-7.2556,-7.2556,-7.2556,8.127,1.6452,0.63869,0.026337,2.0511,2.0511,-0.70698,-1.1829,-2.2671,-2.2671,12.979,12.979,12.979,4.0457,-0.35475,0.46841,0.46841,0.46841,0.46841,0.46841,-3.085,-0.53708,0.63542,-4.3298,-5.1347,-5.1347,0.023806,0.40258,1.4754,1.4754,-5.7933,-5.7933,-5.7933,-10.125,0.47131,-3.7471,-3.7471,-3.7471,-3.7471,-3.7471,3.7801,-5.1283,-5.3627,2.1664,4.2855,4.2855,0.90718,0.46379,4.0767,4.0767,5.5422,5.5422,5.5422,4.6117,0.39172,6.2775,6.2775,6.2775,6.2775,6.2775,-3.3792,-0.34073,-1.2241,-0.87313,-1.243,-1.243,6.8952,7.6395,7.2275,7.2275,5.8429,5.8429,5.8429,19.006,9.7307,18.76,18.76,18.76,18.76,18.76,18.091,26.139,26.755,27.706,27.856,27.856,0.35136,1.7231,0.65344,0.65344,1.3106,1.3106,1.3106,-6.6936,6.0816,-8.1566,-8.1566,-8.1566,-8.1566,-8.1566,6.0184,0.60998,-0.20982,-1.6085,0.20504,0.20504,-1.0504,-1.6697,-2.2473,-2.2473,8.8731,8.8731,8.8731,1.458,-2.0728,1.0293,1.0293,1.0293,1.0293,1.0293,-3.3533,-1.7917,-0.55823,-2.8178,-3.3897,-3.3897,0.51427,0.81648,3.1991,3.1991,-5.0154,-5.0154,-5.0154,-6.2096,1.2683,-1.1275,-1.1275,-1.1275,-1.1275,-1.1275,3.2162,-3.5268,-4.1274,1.6431,3.2457,3.2457,0.51869,0.0020746,2.1614,2.1614,6.1408,6.1408,6.1408,4.5075,-1.0116,5.0195,5.0195,5.0195,5.0195,5.0195,-4.7103,-0.71239,-1.2237,-1.1966,-1.726,-1.726,11.493,12.304,12.065,12.065,11.344,11.344,11.344,24.08,14.642,23.78,23.78,23.78,23.78,23.78,22.176,30.124,30.753,31.226,31.32,31.32,0.23222,1.4938,-0.15968,-0.15968,4.1583,4.1583,4.1583,-7.4426,6.0297,-9.5939,-9.5939,-9.5939,-9.5939,-9.5939,5.5531,0.031656,-0.51353,-0.87531,1.0868,1.0868,-0.7526,-1.5709,-0.39159,-0.39159,3.1695,3.1695,3.1695,0.93675,-3.4357,4.046,4.046,4.046,4.046,4.046,-3.1341,-0.88669,-0.41973,-1.1912,-2.0512,-2.0512,0.81649,1.152,3.0375,3.0375,-1.1312,-1.1312,-1.1312,-1.9281,2.3358,-0.10363,-0.10363,-0.10363,-0.10363,-0.10363,2.5422,-2.5536,-2.7229,0.49441,1.8572,1.8572,0.08202,-0.54035,0.91907,0.91907,3.1155,3.1155,3.1155,1.8149,-2.2149,3.0237,3.0237,3.0237,3.0237,3.0237,-3.8591,-0.27623,-0.76194,0.10544,-0.27904,-0.27904
4.8409,6.9429,5.8857,6.5891,6.4741,6.4741,6.4741,8.9465,8.9465,8.9465,8.3887,8.3887,19.792,11.009,8.8426,18.784,18.784,20.362,22.07,24.274,-0.87236,-2.2877,0.0089442,-1.8611,-0.54385,-0.54385,-0.54385,-10.642,-10.642,-10.642,12.983,12.983,4.0476,11.637,9.0014,-3.4857,-3.4857,7.7989,3.9914,2.41,1.5311,2.0991,2.1479,1.4354,6.3584,6.3584,6.3584,13.195,13.195,13.195,-2.8166,-2.8166,-1.1982,-1.0937,-2.3629,1.0517,1.0517,-8.2001,-2.6667,2.4686,-1.1494,-2.64,-0.60064,-1.708,-1.4844,-1.4844,-1.4844,-1.0794,-1.0794,-1.0794,4.3828,4.3828,0.071024,1.1102,1.6363,-4.1486,-4.1486,-2.8045,-0.82801,-4.1805,1.6746,1.4486,1.589,2.9865,1.6699,1.6699,1.6699,5.5031,5.5031,5.5031,-1.5018,-1.5018,-5.1501,2.4493,1.5473,0.40624,0.40624,6.2742,4.1367,2.1432,3.927,5.7826,4.8358,5.3799,5.1834,5.1834,5.1834,6.9273,6.9273,6.9273,8.2708,8.2708,19.421,9.7892,8.0716,18.284,18.284,19.604,21.281,23.213,-0.14341,-1.3367,1.0632,-0.70412,1.2816,1.2816,1.2816,-9.4381,-9.4381,-9.4381,13.681,13.681,4.2088,14.205,11.231,-2.9876,-2.9876,9.7693,5.5947,4.0064,1.2106,1.6308,2.136,0.39586,7.028,7.028,7.028,17.517,17.517,17.517,-5.2319,-5.2319,-2.437,-4.8112,-6.0794,-0.75725,-0.75725,-14.64,-5.5429,0.24357,-0.76078,-2.5607,-0.77577,-0.33966,-3.7214,-3.7214,-3.7214,-4.1758,-4.1758,-4.1758,5.3128,5.3128,-0.49148,3.1869,3.8721,-2.1302,-2.1302,4.3153,2.5358,-2.5935,1.7605,2.2851,1.727,3.2301,2.3861,2.3861,2.3861,6.8322,6.8322,6.8322,-3.7234,-3.7234,-4.9283,1.5143,0.24914,-0.01448,-0.01448,3.8925,2.692,2.0057,4.0261,5.8808,5.0713,5.5359,5.0786,5.0786,5.0786,4.7606,4.7606,4.7606,10.253,10.253,20.348,11.639,9.6188,18.766,18.766,21.773,22.667,24.018,0.072533,-1.2569,1.5814,-0.88255,3.4615,3.4615,3.4615,-5.5113,-5.5113,-5.5113,11.996,11.996,2.8598,13.166,9.9904,-4.2554,-4.2554,6.5583,3.8836,3.5807,0.93884,1.2432,1.4146,0.52657,4.6064,4.6064,4.6064,18.756,18.756,18.756,-7.4568,-7.4568,-3.1457,-7.7413,-8.3062,-0.265,-0.265,-15.225,-5.6694,-0.96766,-0.7197,-2.4656,-0.81554,0.12136,-4.0206,-4.0206,-4.0206,-7.878,-7.878,-7.878,6.2169,6.2169,-1.301,5.3595,5.845,-1.9896,-1.9896,7.7916,3.5802,-2.2705,1.7103,2.5139,1.3812,2.8325,2.5618,2.5618,2.5618,9.8177,9.8177,9.8177,-6.7626,-6.7626,-4.6399,-1.9791,-2.6648,-0.055466,-0.055466,-0.069895,0.59888,1.4298,6.2084,7.9827,7.3167,7.6931,7.4683,7.4683,7.4683,5.2665,5.2665,5.2665,14.107,14.107,23.336,15.239,13.09,20.956,20.956,25.265,25.706,27.021,0.5596,-0.70897,2.216,-0.59072,5.0667,5.0667,5.0667,1.6845,1.6845,1.6845,8.6069,8.6069,0.80545,10.552,7.0168,-5.0665,-5.0665,2.5757,2.0203,2.5124,0.2035,0.035505,0.29072,0.28725,0.92102,0.92102,0.92102,12.666,12.666,12.666,-6.813,-6.813,-3.0384,-7.8956,-7.2838,0.24496,0.24496,-10.549,-4.2021,-1.9315,-0.16108,-1.1453,-0.4055,0.93097,-2.1328,-2.1328,-2.1328,-6.0994,-6.0994,-6.0994,5.0147,5.0147,-1.6131,5.7331,5.5496,-1.4508,-1.4508,6.7522,3.0925,-1.0318,1.4776,2.2628,1.0746,2.3058,1.7467,1.7467,1.7467,10.442,10.442,10.442,-8.1964,-8.1964,-4.3379,-4.1248,-4.3949,0.16393,0.16393,-1.6074,-0.3394,0.3725,10.919,12.793,12.203,12.259,13.131,13.131,13.131,11.232,11.232,11.232,17.916,17.916,27.148,19.169,16.912,24.814,24.814,28.691,29.383,31.098,0.78784,-0.76901,2.4487,-0.28814,5.3694,5.3694,5.3694,6.1257,6.1257,6.1257,7.3545,7.3545,0.1746,9.2466,6.215,-4.391,-4.391,1.7076,2.2409,2.146,-0.10608,-0.2498,-0.67787,0.64523,-2.5842,-2.5842,-2.5842,4.3941,4.3941,4.3941,-5.555,-5.555,-2.146,-6.0338,-5.4445,0.81537,0.81537,-4.8769,-2.4331,-1.0648,0.55335,0.16043,0.55924,1.4442,1.2341,1.2341,1.2341,-0.63983,-0.63983,-0.63983,3.2645,3.2645,-1.4954,3.9727,3.865,-0.84526,-0.84526,2.8096,1.801,-0.79993,0.70338,1.1868,0.0030697,1.5299,-0.95738,-0.95738,-0.95738,5.8905,5.8905,5.8905,-6.2289,-6.2289,-2.8522,-3.0039,-3.2236,0.6234,0.6234,0.44286,0.62853,0.54012
4.8382,6.6961,5.6422,5.2783,11.446,11.446,11.446,7.8483,7.8483,7.8483,7.8483,7.8483,7.8483,7.8483,7.8483,7.8483,15.138,15.138,15.138,24.249,-0.51756,-0.35723,-0.42571,-2.1039,-5.2381,-5.2381,-5.2381,4.1545,4.1545,4.1545,4.1545,4.1545,4.1545,4.1545,4.1545,4.1545,10.05,10.05,10.05,2.1396,1.2915,0.28278,0.40773,5.6496,2.3662,2.3662,2.3662,0.56399,0.56399,0.56399,0.56399,0.56399,0.56399,0.56399,0.56399,0.56399,-1.7671,-1.7671,-1.7671,2.6592,-0.95219,-0.019759,-0.96603,-1.0816,-4.4702,-4.4702,-4.4702,0.0869,0.0869,0.0869,0.0869,0.0869,0.0869,0.0869,0.0869,0.0869,2.7323,2.7323,2.7323,-4.1636,1.6706,-0.11497,3.1147,-0.24444,3.7959,3.7959,3.7959,2.9011,2.9011,2.9011,2.9011,2.9011,2.9011,2.9011,2.9011,2.9011,0.97772,0.97772,0.97772,2.0603,3.8871,6.2275,4.4044,4.1054,10.551,10.551,10.551,6.6245,6.6245,6.6245,6.6245,6.6245,6.6245,6.6245,6.6245,6.6245,14.822,14.822,14.822,22.909,0.25389,-0.10333,0.9538,-1.1438,-4.8026,-4.8026,-4.8026,6.6046,6.6046,6.6046,6.6046,6.6046,6.6046,6.6046,6.6046,6.6046,11.092,11.092,11.092,4.0814,0.92556,-0.2859,-1.1113,7.2197,1.3022,1.3022,1.3022,-1.6462,-1.6462,-1.6462,-1.6462,-1.6462,-1.6462,-1.6462,-1.6462,-1.6462,-4.4279,-4.4279,-4.4279,0.57482,-0.52497,0.6387,0.89618,-4.009,-2.1591,-2.1591,-2.1591,1.3968,1.3968,1.3968,1.3968,1.3968,1.3968,1.3968,1.3968,1.3968,4.6855,4.6855,4.6855,-3.4802,1.7603,-0.7009,3.1142,0.97124,3.5426,3.5426,3.5426,2.5578,2.5578,2.5578,2.5578,2.5578,2.5578,2.5578,2.5578,2.5578,-0.86492,-0.86492,-0.86492,2.6532,4.0238,6.5372,4.7122,3.6769,10.938,10.938,10.938,7.4666,7.4666,7.4666,7.4666,7.4666,7.4666,7.4666,7.4666,7.4666,17.173,17.173,17.173,23.608,0.43586,-0.32649,0.74181,0.89437,-5.8758,-5.8758,-5.8758,6.7622,6.7622,6.7622,6.7622,6.7622,6.7622,6.7622,6.7622,6.7622,8.9191,8.9191,8.9191,3.9508,0.60065,-0.42244,-1.4258,5.482,2.1653,2.1653,2.1653,-3.5229,-3.5229,-3.5229,-3.5229,-3.5229,-3.5229,-3.5229,-3.5229,-3.5229,-5.6623,-5.6623,-5.6623,-1.1327,-0.40634,0.52617,2.0245,-5.0621,-1.4987,-1.4987,-1.4987,2.7119,2.7119,2.7119,2.7119,2.7119,2.7119,2.7119,2.7119,2.7119,5.211,5.211,5.211,-2.7047,1.6096,-0.93758,2.0816,2.2367,2.9709,2.9709,2.9709,0.7165,0.7165,0.7165,0.7165,0.7165,0.7165,0.7165,0.7165,0.7165,-3.9466,-3.9466,-3.9466,2.1018,6.2534,8.9418,7.0939,5.8507,12.649,12.649,12.649,10.418,10.418,10.418,10.418,10.418,10.418,10.418,10.418,10.418,20.345,20.345,20.345,26.677,0.83903,-0.75492,0.51052,3.0959,-5.467,-5.467,-5.467,5.6075,5.6075,5.6075,5.6075,5.6075,5.6075,5.6075,5.6075,5.6075,6.9693,6.9693,6.9693,2.7232,-0.10428,-0.18959,-1.2229,1.3566,2.3455,2.3455,2.3455,-3.9094,-3.9094,-3.9094,-3.9094,-3.9094,-3.9094,-3.9094,-3.9094,-3.9094,-5.5343,-5.5343,-5.5343,-1.9762,0.16438,0.11711,2.6339,-3.0773,-0.4204,-0.4204,-0.4204,3.3754,3.3754,3.3754,3.3754,3.3754,3.3754,3.3754,3.3754,3.3754,4.6885,4.6885,4.6885,-1.3752,1.2846,-0.88902,1.2252,2.0357,2.9004,2.9004,2.9004,-0.81213,-0.81213,-0.81213,-0.81213,-0.81213,-0.81213,-0.81213,-0.81213,-0.81213,-4.7671,-4.7671,-4.7671,0.88557,10.933,13.295,11.603,11.582,17.178,17.178,17.178,14.742,14.742,14.742,14.742,14.742,14.742,14.742,14.742,14.742,24.087,24.087,24.087,30.788,1.0567,-0.46683,0.56427,3.2682,-5.443,-5.443,-5.443,5.3164,5.3164,5.3164,5.3164,5.3164,5.3164,5.3164,5.3164,5.3164,6.4408,6.4408,6.4408,2.2736,-0.34151,-0.12378,-0.26341,-2.0692,3.5159,3.5159,3.5159,-3.2869,-3.2869,-3.2869,-3.2869,-3.2869,-3.2869,-3.2869,-3.2869,-3.2869,-4.2641,-4.2641,-4.2641,-1.057,0.78979,0.078112,2.4748,0.42505,0.099367,0.099367,0.099367,3.0733,3.0733,3.0733,3.0733,3.0733,3.0733,3.0733,3.0733,3.0733,2.9764,2.9764,2.9764,-1.0954,0.56154,-0.71096,0.68294,-0.53934,2.1519,2.1519,2.1519,-0.98686,-0.98686,-0.98686,-0.98686,-0.98686,-0.98686,-0.98686,-0.98686,-0.98686,-2.8175,-2.8175,-2.8175,0.89663
5.2969,5.6834,6.637,6.637,6.637,8.9954,8.9954,8.9954,18.446,18.446,6.438,6.438,6.438,6.438,6.438,18.105,18.105,18.105,25.385,25.385,-0.73935,0.86226,-1.4326,-1.4326,-1.4326,-3.7889,-3.7889,-3.7889,-10.589,-10.589,1.6545,1.6545,1.6545,1.6545,1.6545,6.3795,6.3795,6.3795,0.73091,0.73091,1.0608,0.37529,0.38198,0.38198,0.38198,2.3052,2.3052,2.3052,7.7482,7.7482,1.9412,1.9412,1.9412,1.9412,1.9412,-2.85,-2.85,-2.85,3.4544,3.4544,-0.65239,-0.36313,-0.74098,-0.74098,-0.74098,-2.8796,-2.8796,-2.8796,-14.354,-14.354,2.1166,2.1166,2.1166,2.1166,2.1166,4.0525,4.0525,4.0525,-3.866,-3.866,0.78723,1.0735,3.8091,3.8091,3.8091,5.2105,5.2105,5.2105,5.4098,5.4098,2.8987,2.8987,2.8987,2.8987,2.8987,-4.4066,-4.4066,-4.4066,0.39545,0.39545,4.6117,4.8634,5.6139,5.6139,5.6139,7.8832,7.8832,7.8832,16.605,16.605,5.1861,5.1861,5.1861,5.1861,5.1861,18.344,18.344,18.344,24.258,24.258,-0.29132,1.8979,-0.55032,-0.55032,-0.55032,-3.1087,-3.1087,-3.1087,-8.3144,-8.3144,3.5396,3.5396,3.5396,3.5396,3.5396,6.0703,6.0703,6.0703,2.0793,2.0793,0.68105,-0.74556,-0.81628,-0.81628,-0.81628,1.8363,1.8363,1.8363,4.7607,4.7607,1.6113,1.6113,1.6113,1.6113,1.6113,-4.404,-4.404,-4.404,2.3075,2.3075,-0.18441,0.42569,1.7509,1.7509,1.7509,-0.60085,-0.60085,-0.60085,-11.715,-11.715,2.8747,2.8747,2.8747,2.8747,2.8747,5.5513,5.5513,5.5513,-4.0616,-4.0616,0.53269,0.8154,3.164,3.164,3.164,4.7087,4.7087,4.7087,6.8422,6.8422,2.0593,2.0593,2.0593,2.0593,2.0593,-6.6216,-6.6216,-6.6216,1.0925,1.0925,5.023,5.4212,6.0037,6.0037,6.0037,7.9934,7.9934,7.9934,15.985,15.985,5.6839,5.6839,5.6839,5.6839,5.6839,19.686,19.686,19.686,24.799,24.799,-0.52591,1.786,-1.3462,-1.3462,-1.3462,-3.6195,-3.6195,-3.6195,-7.6478,-7.6478,4.2306,4.2306,4.2306,4.2306,4.2306,4.1609,4.1609,4.1609,1.9898,1.9898,0.5212,-1.6748,0.037499,0.037499,0.037499,2.8722,2.8722,2.8722,3.0141,3.0141,0.93337,0.93337,0.93337,0.93337,0.93337,-4.1522,-4.1522,-4.1522,1.0574,1.0574,-0.26234,1.0185,2.3988,2.3988,2.3988,-0.11463,-0.11463,-0.11463,-9.154,-9.154,2.9474,2.9474,2.9474,2.9474,2.9474,4.243,4.243,4.243,-4.0957,-4.0957,0.20512,-0.010073,2.0514,2.0514,2.0514,4.0133,4.0133,4.0133,7.5717,7.5717,0.54193,0.54193,0.54193,0.54193,0.54193,-7.3387,-7.3387,-7.3387,1.1975,1.1975,7.2333,7.813,8.14,8.14,8.14,9.8437,9.8437,9.8437,18.145,18.145,8.0398,8.0398,8.0398,8.0398,8.0398,23.06,23.06,23.06,27.681,27.681,-0.4031,1.4182,-1.4746,-1.4746,-1.4746,-3.002,-3.002,-3.002,-7.6289,-7.6289,4.8041,4.8041,4.8041,4.8041,4.8041,1.7152,1.7152,1.7152,1.2126,1.2126,0.25789,-1.8226,1.1413,1.1413,1.1413,3.3035,3.3035,3.3035,1.1646,1.1646,0.40034,0.40034,0.40034,0.40034,0.40034,-3.2834,-3.2834,-3.2834,-0.23163,-0.23163,-0.2205,1.1999,2.2081,2.2081,2.2081,0.30143,0.30143,0.30143,-4.4199,-4.4199,2.3391,2.3391,2.3391,2.3391,2.3391,2.5585,2.5585,2.5585,-2.7962,-2.7962,0.21045,-0.34423,1.5822,1.5822,1.5822,3.7121,3.7121,3.7121,6.0344,6.0344,-0.016768,-0.016768,-0.016768,-0.016768,-0.016768,-7.1897,-7.1897,-7.1897,0.42904,0.42904,11.723,12.367,12.364,12.364,12.364,14.304,14.304,14.304,23.59,23.59,12.596,12.596,12.596,12.596,12.596,26.563,26.563,26.563,31.78,31.78,-0.15203,1.2205,-0.85679,-0.85679,-0.85679,-2.3408,-2.3408,-2.3408,-9.355,-9.355,6.2191,6.2191,6.2191,6.2191,6.2191,1.7518,1.7518,1.7518,1.0659,1.0659,0.20521,-1.4891,2.3742,2.3742,2.3742,4.1394,4.1394,4.1394,2.6482,2.6482,-1.2761,-1.2761,-1.2761,-1.2761,-1.2761,-2.6892,-2.6892,-2.6892,-0.075918,-0.075918,0.0053657,1.2867,1.4244,1.4244,1.4244,0.42232,0.42232,0.42232,-1.2051,-1.2051,2.5134,2.5134,2.5134,2.5134,2.5134,1.2668,1.2668,1.2668,-1.8709,-1.8709,0.017365,-0.65404,1.4892,1.4892,1.4892,2.9034,2.9034,2.9034,2.8958,2.8958,-0.50587,-0.50587,-0.50587,-0.50587,-0.50587,-4.5978,-4.5978,-4.5978,0.41384,0.41384
4.2511,5.0599,7.2193,6.2281,6.3291,7.9911,7.9911,9.2346,9.2346,9.2346,9.2346,9.2346,9.2346,9.2346,13.657,13.657,13.657,13.657,13.657,23.768,-0.3172,-0.40062,-1.5904,0.34355,-1.7486,0.75684,0.75684,-1.684,-1.684,-1.684,-1.684,-1.684,-1.684,-1.684,11.148,11.148,11.148,11.148,11.148,2.7514,1.4155,0.56566,0.97883,1.9387,3.8012,1.5886,1.5886,3.8031,3.8031,3.8031,3.8031,3.8031,3.8031,3.8031,-2.7457,-2.7457,-2.7457,-2.7457,-2.7457,2.2914,-1.0724,0.98118,-3.0002,-0.019222,0.46637,-0.78527,-0.78527,-1.5766,-1.5766,-1.5766,-1.5766,-1.5766,-1.5766,-1.5766,4.525,4.525,4.525,4.525,4.525,-4.944,2.1466,0.10621,4.5305,1.9716,2.5707,2.2303,2.2303,4.8373,4.8373,4.8373,4.8373,4.8373,4.8373,4.8373,0.50298,0.50298,0.50298,0.50298,0.50298,2.9991,3.1427,4.6543,5.7255,5.1722,4.9758,6.9052,6.9052,7.7285,7.7285,7.7285,7.7285,7.7285,7.7285,7.7285,13.28,13.28,13.28,13.28,13.28,22.588,0.70036,-0.4915,0.1769,1.5575,-0.65583,2.3932,2.3932,0.19087,0.19087,0.19087,0.19087,0.19087,0.19087,0.19087,12.364,12.364,12.364,12.364,12.364,4.517,0.96729,0.78137,-1.1556,1.8434,5.2231,0.51944,0.51944,3.7029,3.7029,3.7029,3.7029,3.7029,3.7029,3.7029,-5.6293,-5.6293,-5.6293,-5.6293,-5.6293,-0.036536,-0.60224,1.3856,-0.48149,0.16673,-0.36102,-0.10656,-0.10656,-0.83926,-0.83926,-0.83926,-0.83926,-0.83926,-0.83926,-0.83926,6.8062,6.8062,6.8062,6.8062,6.8062,-3.295,2.377,-0.90102,4.8453,1.8475,2.8064,2.1948,2.1948,4.9755,4.9755,4.9755,4.9755,4.9755,4.9755,4.9755,-1.9087,-1.9087,-1.9087,-1.9087,-1.9087,3.0228,3.1842,5.0829,6.0735,5.5122,4.736,7.5543,7.5543,7.8113,7.8113,7.8113,7.8113,7.8113,7.8113,7.8113,15.388,15.388,15.388,15.388,15.388,23.397,1.1017,-1.0398,-0.14648,2.0349,0.46116,2.4598,2.4598,1.1084,1.1084,1.1084,1.1084,1.1084,1.1084,1.1084,10.536,10.536,10.536,10.536,10.536,4.1611,0.46934,1.618,-1.7377,1.1119,5.4341,-0.48892,-0.48892,3.2984,3.2984,3.2984,3.2984,3.2984,3.2984,3.2984,-7.1782,-7.1782,-7.1782,-7.1782,-7.1782,-1.5306,-0.30899,0.35796,1.2911,0.38542,-1.6102,0.43306,0.43306,-0.60593,-0.60593,-0.60593,-0.60593,-0.60593,-0.60593,-0.60593,7.8146,7.8146,7.8146,7.8146,7.8146,-2.538,2.2148,-1.227,3.6683,1.1131,3.0586,1.1559,1.1559,4.2664,4.2664,4.2664,4.2664,4.2664,4.2664,4.2664,-5.3431,-5.3431,-5.3431,-5.3431,-5.3431,2.2433,5.4297,7.2112,8.4867,7.7202,6.5738,9.9947,9.9947,9.8167,9.8167,9.8167,9.8167,9.8167,9.8167,9.8167,19.018,19.018,19.018,19.018,19.018,26.475,1.5874,-0.69388,-0.51724,2.5977,2.5469,2.3734,2.3734,2.2465,2.2465,2.2465,2.2465,2.2465,2.2465,2.2465,7.8026,7.8026,7.8026,7.8026,7.8026,2.9283,-0.39083,1.7262,-1.7249,0.41958,3.5371,-1.1214,-1.1214,2.4015,2.4015,2.4015,2.4015,2.4015,2.4015,2.4015,-6.4291,-6.4291,-6.4291,-6.4291,-6.4291,-2.4341,0.4717,-0.69453,2.8441,0.42698,-1.4386,0.92355,0.92355,-0.12373,-0.12373,-0.12373,-0.12373,-0.12373,-0.12373,-0.12373,6.6998,6.6998,6.6998,6.6998,6.6998,-1.0122,1.7236,-0.69148,2.3033,0.8197,3.0925,0.51042,0.51042,3.7811,3.7811,3.7811,3.7811,3.7811,3.7811,3.7811,-6.7005,-6.7005,-6.7005,-6.7005,-6.7005,0.86796,10.167,11.431,13.28,12.547,11.606,14.684,14.684,14.7,14.7,14.7,14.7,14.7,14.7,14.7,22.513,22.513,22.513,22.513,22.513,30.507,1.7686,0.37637,-1.1636,3.0756,4.0241,2.4251,2.4251,3.3992,3.3992,3.3992,3.3992,3.3992,3.3992,3.3992,7.5601,7.5601,7.5601,7.5601,7.5601,2.5504,-0.63848,1.0516,-0.020034,-0.54847,0.78794,-1.3339,-1.3339,0.91539,0.91539,0.91539,0.91539,0.91539,0.91539,0.91539,-5.3104,-5.3104,-5.3104,-5.3104,-5.3104,-1.4517,1.1927,-0.81859,2.8132,1.1922,0.40158,1.4549,1.4549,1.0366,1.0366,1.0366,1.0366,1.0366,1.0366,1.0366,4.5965,4.5965,4.5965,4.5965,4.5965,-0.73097,0.81327,-0.1967,1.191,-0.22088,1.3474,-0.22773,-0.22773,2.247,2.247,2.247,2.247,2.247,2.247,2.247,-4.2485,-4.2485,-4.2485,-4.2485,-4.2485,1.0092
4.1865,8.7896,5.4855,6.3638,6.3638,6.3638,7.1395,8.1458,8.1458,8.1458,8.1458,15.804,15.804,11.304,11.304,19.023,19.023,24.547,22.96,20.221,-0.20251,-3.3032,-0.376,-1.7248,-1.7248,-1.7248,-2.9892,-3.8238,-3.8238,-3.8238,-3.8238,7.6364,7.6364,11.341,11.341,-7.7389,-7.7389,0.20899,3.6374,4.887,1.3484,2.1501,2.3736,1.238,1.238,1.238,3.8556,3.1506,3.1506,3.1506,3.1506,-2.0841,-2.0841,-1.0639,-1.0639,6.5517,6.5517,3.4119,0.68183,1.0501,-0.99819,-2.2348,-1.1493,-0.15201,-0.15201,-0.15201,0.25387,0.44666,0.44666,0.44666,0.44666,1.4525,1.4525,1.3541,1.3541,-12.385,-12.385,-6.1299,-4.8379,0.49141,2.1839,-0.54825,1.9183,4.1179,4.1179,4.1179,4.5882,4.8208,4.8208,4.8208,4.8208,-3.2761,-3.2761,2.1114,2.1114,5.7996,5.7996,-0.86125,3.5479,3.5953,3.0428,8.1989,4.4079,5.3797,5.3797,5.3797,5.7146,6.8963,6.8963,6.8963,6.8963,15.537,15.537,10.207,10.207,17.299,17.299,23.039,21.667,19.377,0.86421,-3.4109,0.5213,-1.1681,-1.1681,-1.1681,-2.0907,-3.4551,-3.4551,-3.4551,-3.4551,7.9781,7.9781,13.487,13.487,-5.4722,-5.4722,2.1922,5.7312,7.0231,0.87526,2.5016,2.4571,1.2013,1.2013,1.2013,5.4826,5.2035,5.2035,5.2035,5.2035,-3.8248,-3.8248,-4.1327,-4.1327,4.0984,4.0984,1.245,-2.4463,-1.766,-0.50562,-2.727,-1.3091,1.6904,1.6904,1.6904,0.40249,0.63966,0.63966,0.63966,0.63966,1.5942,1.5942,2.9112,2.9112,-10.305,-10.305,-6.1343,-2.4787,2.6999,2.4359,-0.18091,2.2127,3.2308,3.2308,3.2308,4.5271,4.4565,4.4565,4.4565,4.4565,-3.8614,-3.8614,1.1769,1.1769,6.8535,6.8535,0.78958,3.4949,2.2785,3.095,8.3166,4.4294,5.524,5.524,5.524,5.2239,6.5081,6.5081,6.5081,6.5081,16.896,16.896,11.946,11.946,16.845,16.845,23.378,22.678,20.548,1.2683,-3.7743,1.1784,-1.5513,-1.5513,-1.5513,-1.1898,-3.1579,-3.1579,-3.1579,-3.1579,6.3821,6.3821,12.516,12.516,-4.6077,-4.6077,2.222,4.995,6.4899,0.3435,3.0448,1.8809,2.4244,2.4244,2.4244,6.788,7.5162,7.5162,7.5162,7.5162,-4.8633,-4.8633,-6.9323,-6.9323,2.1275,2.1275,-0.61727,-4.1017,-3.0384,-0.15415,-3.9508,-1.4742,1.6392,1.6392,1.6392,-0.82072,-1.2703,-1.2703,-1.2703,-1.2703,1.2809,1.2809,4.7931,4.7931,-8.0224,-8.0224,-5.5006,-1.0062,3.2897,2.2179,0.75349,2.2434,2.3697,2.3697,2.3697,4.7667,4.8181,4.8181,4.8181,4.8181,-4.7467,-4.7467,-2.0384,-2.0384,7.2863,7.2863,1.22,2.1535,0.52682,5.3468,10.189,6.6437,7.4154,7.4154,7.4154,6.7367,7.6647,7.6647,7.6647,7.6647,20.537,20.537,15.528,15.528,19.113,19.113,26.18,25.798,23.812,1.7413,-3.0989,2.02,-0.85855,-0.85855,-0.85855,1.2294,-0.46363,-0.46363,-0.46363,-0.46363,3.4985,3.4985,10.038,10.038,-4.6058,-4.6058,1.1814,3.3107,4.9653,-0.50138,2.146,0.54963,3.1405,3.1405,3.1405,5.8143,6.9179,6.9179,6.9179,6.9179,-4.6253,-4.6253,-7.2317,-7.2317,0.14928,0.14928,-1.9168,-4.2221,-2.996,0.63571,-3.6089,-0.77143,1.0507,1.0507,1.0507,-1.069,-1.8543,-1.8543,-1.8543,-1.8543,0.98817,0.98817,5.1511,5.1511,-3.7526,-3.7526,-3.5181,0.24911,3.1558,1.6882,1.4323,1.8698,2.251,2.251,2.251,4.9184,5.4878,5.4878,5.4878,5.4878,-5.6179,-5.6179,-4.086,-4.086,5.7626,5.7626,0.44136,0.7204,-0.76469,10.087,14.636,11.568,11.656,11.656,11.656,11.367,12.01,12.01,12.01,12.01,24.165,24.165,19.621,19.621,24.299,24.299,30.293,29.788,27.672,1.9157,-2.6006,2.2639,0.44423,0.44423,0.44423,3.481,2.1617,2.1617,2.1617,2.1617,2.8147,2.8147,8.6522,8.6522,-5.7314,-5.7314,0.53369,2.7115,5.1327,-0.72692,1.3337,-0.45238,3.3094,3.3094,3.3094,3.5606,4.8103,4.8103,4.8103,4.8103,-3.4006,-3.4006,-5.5853,-5.5853,1.0024,1.0024,-1.08,-2.4879,-2.2306,1.327,-2.5041,0.40972,0.63878,0.63878,0.63878,0.051521,-0.98788,-0.98788,-0.98788,-0.98788,0.13193,0.13193,3.6411,3.6411,-0.61503,-0.61503,-2.2457,0.025753,2.1767,0.78083,1.2902,0.63897,2.0073,2.0073,2.0073,3.5233,4.6284,4.6284,4.6284,4.6284,-3.6057,-3.6057,-3.2159,-3.2159,3.0054,3.0054,0.3942,0.99083,0.047686
5.303,11.812,11.812,6.3332,6.9477,6.665,11.91,11.91,11.91,7.3997,20.487,20.487,20.487,20.487,14.294,24.515,25.569,25.569,25.569,25.551,-0.88077,-6.4379,-6.4379,-1.5492,-2.1333,-1.6699,-3.5494,-3.5494,-3.5494,8.6832,-4.8431,-4.8431,-4.8431,-4.8431,9.3265,0.97688,-0.44439,-0.44439,-0.44439,1.3445,1.4348,1.8342,1.8342,2.735,1.0648,2.165,0.59191,0.59191,0.59191,0.17216,0.61274,0.61274,0.61274,0.61274,-1.2451,0.32074,3.1777,3.1777,3.1777,2.6539,-1.1188,-2.7682,-2.7682,-1.3952,-0.071668,-0.42701,-0.30115,-0.30115,-0.30115,2.6434,-0.81091,-0.81091,-0.81091,-0.81091,2.0771,2.5413,-3.2937,-3.2937,-3.2937,-2.6439,1.0737,-3.0467,-3.0467,4.1469,4.3471,4.7658,3.0428,3.0428,3.0428,-1.0184,-6.8792,-6.8792,-6.8792,-6.8792,-0.56281,-7.9076,-3.5963,-3.5963,-3.5963,0.33357,4.4172,11.129,11.129,4.8795,5.9817,5.3175,11.287,11.287,11.287,7.2796,20.371,20.371,20.371,20.371,13.713,24.662,24.614,24.614,24.614,24.789,-0.24428,-7.1403,-7.1403,-0.25479,-1.6359,-0.6421,-3.5887,-3.5887,-3.5887,10.066,-5.6294,-5.6294,-5.6294,-5.6294,10.588,-0.059521,0.37924,0.37924,0.37924,2.3873,1.2281,2.6951,2.6951,2.866,0.88553,2.4976,0.74638,0.74638,0.74638,-2.4547,0.80897,0.80897,0.80897,0.80897,-3.7817,0.98666,2.4846,2.4846,2.4846,1.0157,-0.99234,-3.6807,-3.6807,-0.81957,2.1333,0.75824,1.7409,1.7409,1.7409,3.6203,-1.5272,-1.5272,-1.5272,-1.5272,3.2969,0.88809,-4.3486,-4.3486,-4.3486,-1.4222,1.2255,-1.9485,-1.9485,4.5519,3.4011,4.537,1.8612,1.8612,1.8612,-3.214,-6.6641,-6.6641,-6.6641,-6.6641,-1.8189,-8.239,-2.4139,-2.4139,-2.4139,-0.1431,4.6136,11.197,11.197,4.7981,6.1506,5.2848,11.826,11.826,11.826,9.1708,20.542,20.542,20.542,20.542,15.009,25.508,24.956,24.956,24.956,25.566,-0.19238,-8.1308,-8.1308,0.28659,-2.2532,-0.50131,-4.6701,-4.6701,-4.6701,8.7552,-6.9757,-6.9757,-6.9757,-6.9757,9.68,-1.5705,0.1671,0.1671,0.1671,1.8377,1.0023,4.0445,4.0445,2.8388,2.4551,3.346,2.903,2.903,2.903,-4.4452,2.4166,2.4166,2.4166,2.4166,-5.6902,1.9207,1.5888,1.5888,1.5888,0.36463,-1.1532,-5.3998,-5.3998,-0.56724,1.9551,0.74994,0.84662,0.84662,0.84662,4.2051,-4.1638,-4.1638,-4.1638,-4.1638,4.0865,-2.0673,-5.2294,-5.2294,-5.2294,-1.8389,1.2109,-0.35022,-0.35022,4.1647,2.642,3.8898,1.2021,1.2021,1.2021,-6.1334,-4.7955,-4.7955,-4.7955,-4.7955,-3.7404,-6.9293,-1.3608,-1.3608,-1.3608,-0.35024,6.8235,12.415,12.415,6.6804,7.9704,7.1119,13.347,13.347,13.347,12.721,22.255,22.255,22.255,22.255,18.774,28.226,27.614,27.614,27.614,28.442,0.19949,-7.0133,-7.0133,1.6354,-1.6455,0.73077,-3.1441,-3.1441,-3.1441,6.4187,-7.249,-7.249,-7.249,-7.249,6.8425,-2.6771,-0.54217,-0.54217,-0.54217,0.98136,0.24825,3.4181,3.4181,1.9166,3.504,3.3565,3.2877,3.2877,3.2877,-4.79,2.6001,2.6001,2.6001,2.6001,-5.4185,1.599,0.25276,0.25276,0.25276,-0.43013,-0.71242,-5.158,-5.158,0.20536,1.2486,0.6265,0.1575,0.1575,0.1575,3.53,-5.2501,-5.2501,-5.2501,-5.2501,3.5534,-3.0921,-4.099,-4.099,-4.099,-1.3388,1.0899,1.5123,1.5123,3.7251,2.5833,3.5976,1.8326,1.8326,1.8326,-7.3314,-2.5577,-2.5577,-2.5577,-2.5577,-5.1428,-5.7146,-1.3641,-1.3641,-1.3641,-0.78125,11.507,16.834,16.834,11.525,12.16,11.672,17.433,17.433,17.433,16.869,25.696,25.696,25.696,25.696,22.584,31.899,31.605,31.605,31.605,32.407,0.41303,-6.2431,-6.2431,2.3314,-0.30573,1.9533,-1.0991,-1.0991,-1.0991,5.7057,-5.9063,-5.9063,-5.9063,-5.9063,6.0922,-2.1363,-0.67331,-0.67331,-0.67331,1.1142,-0.14066,2.2725,2.2725,1.2752,3.978,2.8522,2.5597,2.5597,2.5597,-5.0443,1.4175,1.4175,1.4175,1.4175,-4.3691,0.67202,0.17282,0.17282,0.17282,-0.30404,0.0028185,-3.3314,-3.3314,1.1788,0.69449,1.0614,0.20543,0.20543,0.20543,3.1855,-4.1673,-4.1673,-4.1673,-4.1673,2.4785,-2.2624,-2.7478,-2.7478,-2.7478,-0.8559,0.42941,1.417,1.417,2.213,2.327,2.4671,1.9433,1.9433,1.9433,-6.3499,-0.67332,-0.67332,-0.67332,-0.67332,-3.7012,-3.9364,-0.91931,-0.91931,-0.91931,-0.35119
5.1943,7.0473,5.5253,6.2798,6.6019,6.0969,6.0969,6.0969,6.0969,6.0969,6.0969,6.0969,6.0969,6.0969,6.0969,6.0969,6.0969,6.0969,23.457,22.974,-0.86291,-2.2816,-1.3097,0.57376,-1.7371,1.5992,1.5992,1.5992,1.5992,1.5992,1.5992,1.5992,1.5992,1.5992,1.5992,1.5992,1.5992,1.5992,2.7279,2.5012,1.3339,2.2136,1.7119,2.0629,1.1152,2.4405,2.4405,2.4405,2.4405,2.4405,2.4405,2.4405,2.4405,2.4405,2.4405,2.4405,2.4405,2.4405,-3.4228,-2.2911,-0.98436,-2.8863,-0.17698,-0.42486,-1.3426,-0.18128,-0.18128,-0.18128,-0.18128,-0.18128,-0.18128,-0.18128,-0.18128,-0.18128,-0.18128,-0.18128,-0.18128,-0.18128,-0.40074,-1.1251,1.3353,1.7355,1.5811,1.8223,3.4585,4.8094,4.8094,4.8094,4.8094,4.8094,4.8094,4.8094,4.8094,4.8094,4.8094,4.8094,4.8094,4.8094,2.9222,3.33,4.3352,5.8924,4.6471,5.2104,5.4209,4.4655,4.4655,4.4655,4.4655,4.4655,4.4655,4.4655,4.4655,4.4655,4.4655,4.4655,4.4655,4.4655,22.803,22.346,-0.23034,-1.4127,-0.7387,1.9977,-0.58403,4.161,4.161,4.161,4.161,4.161,4.161,4.161,4.161,4.161,4.161,4.161,4.161,4.161,3.5635,3.5644,1.0217,1.931,1.7581,1.6588,-0.096332,1.4259,1.4259,1.4259,1.4259,1.4259,1.4259,1.4259,1.4259,1.4259,1.4259,1.4259,1.4259,1.4259,-5.5129,-4.5073,-0.59321,-2.9606,0.32627,-0.34233,0.56085,0.83623,0.83623,0.83623,0.83623,0.83623,0.83623,0.83623,0.83623,0.83623,0.83623,0.83623,0.83623,0.83623,2.5529,1.8611,1.3578,2.6263,1.2892,1.8495,3.3907,4.7731,4.7731,4.7731,4.7731,4.7731,4.7731,4.7731,4.7731,4.7731,4.7731,4.7731,4.7731,4.7731,1.5588,1.9106,4.4576,5.9373,4.7742,5.5785,5.6441,4.8397,4.8397,4.8397,4.8397,4.8397,4.8397,4.8397,4.8397,4.8397,4.8397,4.8397,4.8397,4.8397,24.146,23.55,-0.11803,-1.2482,-0.74099,2.5054,-0.96473,5.1332,5.1332,5.1332,5.1332,5.1332,5.1332,5.1332,5.1332,5.1332,5.1332,5.1332,5.1332,5.1332,1.579,1.9157,0.83675,1.5491,2.2302,0.69159,0.3001,0.098133,0.098133,0.098133,0.098133,0.098133,0.098133,0.098133,0.098133,0.098133,0.098133,0.098133,0.098133,0.098133,-5.1383,-4.3293,-0.63295,-3.0121,-0.18278,-0.12857,1.1391,1.8634,1.8634,1.8634,1.8634,1.8634,1.8634,1.8634,1.8634,1.8634,1.8634,1.8634,1.8634,1.8634,3.2496,2.4799,1.3249,3.0512,1.1453,1.1905,2.7163,3.2396,3.2396,3.2396,3.2396,3.2396,3.2396,3.2396,3.2396,3.2396,3.2396,3.2396,3.2396,3.2396,-0.22727,0.31481,6.6951,7.9427,6.8413,7.8937,7.762,7.35,7.35,7.35,7.35,7.35,7.35,7.35,7.35,7.35,7.35,7.35,7.35,7.35,27.051,26.323,0.2146,-0.51556,-0.018201,2.9483,-0.72077,5.5334,5.5334,5.5334,5.5334,5.5334,5.5334,5.5334,5.5334,5.5334,5.5334,5.5334,5.5334,5.5334,-0.25542,0.36546,0.23817,0.19947,1.9322,-0.30266,0.40188,-0.7703,-0.7703,-0.7703,-0.7703,-0.7703,-0.7703,-0.7703,-0.7703,-0.7703,-0.7703,-0.7703,-0.7703,-0.7703,-3.3483,-2.8532,-0.21163,-1.6202,-0.46467,0.2333,1.7379,2.492,2.492,2.492,2.492,2.492,2.492,2.492,2.492,2.492,2.492,2.492,2.492,2.492,2.5615,1.9088,1.1168,2.8744,1.2713,0.74642,2.1599,1.8549,1.8549,1.8549,1.8549,1.8549,1.8549,1.8549,1.8549,1.8549,1.8549,1.8549,1.8549,1.8549,-0.82458,-0.17431,11.32,12.777,11.426,12.733,12.267,12.207,12.207,12.207,12.207,12.207,12.207,12.207,12.207,12.207,12.207,12.207,12.207,12.207,30.584,30.011,0.49764,-0.56866,0.84229,3.192,-0.35484,6.1574,6.1574,6.1574,6.1574,6.1574,6.1574,6.1574,6.1574,6.1574,6.1574,6.1574,6.1574,6.1574,0.50845,0.97973,-0.03797,-0.2319,1.151,-1.1794,1.1147,-1.62,-1.62,-1.62,-1.62,-1.62,-1.62,-1.62,-1.62,-1.62,-1.62,-1.62,-1.62,-1.62,-1.7828,-1.626,0.39344,-0.15617,0.071125,1.0844,1.819,3.0384,3.0384,3.0384,3.0384,3.0384,3.0384,3.0384,3.0384,3.0384,3.0384,3.0384,3.0384,3.0384,1.2926,1.0476,0.53108,1.7477,0.68184,-0.29982,1.4877,0.48047,0.48047,0.48047,0.48047,0.48047,0.48047,0.48047,0.48047,0.48047,0.48047,0.48047,0.48047,0.48047,0.38573,0.67726
5.1173,5.5177,7.6872,6.2718,6.2718,6.8622,6.8622,6.8622,6.8622,6.8622,6.8622,6.8622,6.8622,6.8622,6.8622,6.8622,23.878,12.608,23.808,23.808,-0.91008,3.0682,-2.0803,-1.4498,-1.4498,1.8092,1.8092,1.8092,1.8092,1.8092,1.8092,1.8092,1.8092,1.8092,1.8092,1.8092,0.97922,10.319,3.0658,3.0658,1.7255,0.10584,1.4022,2.1103,2.1103,2.1631,2.1631,2.1631,2.1631,2.1631,2.1631,2.1631,2.1631,2.1631,2.1631,2.1631,2.4403,-0.50898,0.023218,0.023218,-1.4134,-0.66341,-2.2694,0.52229,0.52229,-0.62322,-0.62322,-0.62322,-0.62322,-0.62322,-0.62322,-0.62322,-0.62322,-0.62322,-0.62322,-0.62322,-2.0576,2.9826,-2.2408,-2.2408,1.2596,0.075433,2.4528,3.0991,3.0991,3.6581,3.6581,3.6581,3.6581,3.6581,3.6581,3.6581,3.6581,3.6581,3.6581,3.6581,-3.8874,3.5317,1.2737,1.2737,4.1157,4.8529,6.5167,5.1378,5.1378,5.3817,5.3817,5.3817,5.3817,5.3817,5.3817,5.3817,5.3817,5.3817,5.3817,5.3817,23.674,11.42,23.017,23.017,-0.15823,4.4043,-0.95128,-0.75399,-0.75399,4.2099,4.2099,4.2099,4.2099,4.2099,4.2099,4.2099,4.2099,4.2099,4.2099,4.2099,0.73648,12.747,4.1679,4.1679,1.6431,-2.2704,0.25489,2.8132,2.8132,0.93444,0.93444,0.93444,0.93444,0.93444,0.93444,0.93444,0.93444,0.93444,0.93444,0.93444,2.2999,-3.6632,-2.1336,-2.1336,-1.6265,0.17074,-1.1404,1.1891,1.1891,0.11972,0.11972,0.11972,0.11972,0.11972,0.11972,0.11972,0.11972,0.11972,0.11972,0.11972,-3.2412,5.3089,-0.15296,-0.15296,1.7564,-0.24779,2.9301,2.7714,2.7714,3.8203,3.8203,3.8203,3.8203,3.8203,3.8203,3.8203,3.8203,3.8203,3.8203,3.8203,-3.689,2.0584,0.53946,0.53946,4.1166,5.7824,6.8437,5.216,5.216,5.7999,5.7999,5.7999,5.7999,5.7999,5.7999,5.7999,5.7999,5.7999,5.7999,5.7999,24.333,13.199,23.983,23.983,0.22785,3.8106,-1.3266,-0.74704,-0.74704,5.0888,5.0888,5.0888,5.0888,5.0888,5.0888,5.0888,5.0888,5.0888,5.0888,5.0888,-0.0037766,12.058,3.1959,3.1959,1.226,-4.1806,0.15495,3.8471,3.8471,-0.83776,-0.83776,-0.83776,-0.83776,-0.83776,-0.83776,-0.83776,-0.83776,-0.83776,-0.83776,-0.83776,1.9088,-6.2014,-2.7499,-2.7499,-1.7678,1.467,-0.60678,0.57242,0.57242,1.272,1.272,1.272,1.272,1.272,1.272,1.272,1.272,1.272,1.272,1.272,-4.7064,7.1396,0.038251,0.038251,1.9964,-1.5941,2.4976,2.3192,2.3192,2.4726,2.4726,2.4726,2.4726,2.4726,2.4726,2.4726,2.4726,2.4726,2.4726,2.4726,-2.9699,-1.5467,-0.29138,-0.29138,6.3158,8.6835,8.9925,7.0397,7.0397,8.4677,8.4677,8.4677,8.4677,8.4677,8.4677,8.4677,8.4677,8.4677,8.4677,8.4677,26.922,16.783,26.908,26.908,0.80086,2.0419,-1.1575,0.62562,0.62562,5.0463,5.0463,5.0463,5.0463,5.0463,5.0463,5.0463,5.0463,5.0463,5.0463,5.0463,-0.66396,9.8429,1.8935,1.8935,0.12622,-3.9962,-0.23407,3.6175,3.6175,-1.8054,-1.8054,-1.8054,-1.8054,-1.8054,-1.8054,-1.8054,-1.8054,-1.8054,-1.8054,-1.8054,0.58287,-6.0606,-2.9488,-2.9488,-0.98733,1.7642,0.45578,0.041049,0.041049,2.1089,2.1089,2.1089,2.1089,2.1089,2.1089,2.1089,2.1089,2.1089,2.1089,2.1089,-4.0753,6.6917,0.5452,0.5452,1.7385,-2.4112,2.024,2.4328,2.4328,1.1336,1.1336,1.1336,1.1336,1.1336,1.1336,1.1336,1.1336,1.1336,1.1336,1.1336,-2.5073,-3.38,-0.92783,-0.92783,11.033,13.035,13.622,11.58,11.58,13.24,13.24,13.24,13.24,13.24,13.24,13.24,13.24,13.24,13.24,13.24,30.853,20.649,30.796,30.796,1.034,1.0586,-1.116,2.0456,2.0456,5.2476,5.2476,5.2476,5.2476,5.2476,5.2476,5.2476,5.2476,5.2476,5.2476,5.2476,-0.79353,9.4221,1.6882,1.6882,-0.47104,-2.6622,0.14378,2.5132,2.5132,-2.3527,-2.3527,-2.3527,-2.3527,-2.3527,-2.3527,-2.3527,-2.3527,-2.3527,-2.3527,-2.3527,0.42112,-4.9961,-1.7628,-1.7628,0.022915,1.2451,1.1811,0.56134,0.56134,2.8091,2.8091,2.8091,2.8091,2.8091,2.8091,2.8091,2.8091,2.8091,2.8091,2.8091,-3.0402,4.8008,0.086739,0.086739,0.90744,-2.1016,1.1987,1.5991,1.5991,-0.076043,-0.076043,-0.076043,-0.076043,-0.076043,-0.076043,-0.076043,-0.076043,-0.076043,-0.076043,-0.076043,-1.5847,-1.9106,-0.16392,-0.16392
4.9834,4.8788,5.9068,6.1691,6.4583,6.4501,6.4501,14.223,14.223,14.223,14.223,14.223,14.223,14.223,14.223,14.223,11.798,11.798,25.685,25.685,-0.83144,0.10161,-0.79591,-0.67628,2.5191,2.3648,2.3648,-0.51341,-0.51341,-0.51341,-0.51341,-0.51341,-0.51341,-0.51341,-0.51341,-0.51341,11.596,11.596,-1.01,-1.01,1.6938,0.37825,0.58907,2.9387,1.7201,2.5546,2.5546,-0.27172,-0.27172,-0.27172,-0.27172,-0.27172,-0.27172,-0.27172,-0.27172,-0.27172,-1.7882,-1.7882,2.6648,2.6648,-1.1717,-1.3736,-1.1,0.017933,-0.60778,-0.25046,-0.25046,-0.29978,-0.29978,-0.29978,-0.29978,-0.29978,-0.29978,-0.29978,-0.29978,-0.29978,3.1364,3.1364,-1.9098,-1.9098,1.35,3.9013,3.2877,2.0548,3.3863,3.1354,3.1354,-2.0788,-2.0788,-2.0788,-2.0788,-2.0788,-2.0788,-2.0788,-2.0788,-2.0788,1.499,1.499,-5.9131,-5.9131,4.0714,3.7359,4.644,4.949,5.0521,4.99,4.99,14.07,14.07,14.07,14.07,14.07,14.07,14.07,14.07,14.07,10.878,10.878,24.981,24.981,-0.030738,1.4586,0.58896,0.38929,4.994,4.9181,4.9181,-0.5349,-0.5349,-0.5349,-0.5349,-0.5349,-0.5349,-0.5349,-0.5349,-0.5349,13.695,13.695,-0.87754,-0.87754,1.3417,-1.3557,-0.89946,3.7625,0.072911,1.0449,1.0449,-1.1136,-1.1136,-1.1136,-1.1136,-1.1136,-1.1136,-1.1136,-1.1136,-1.1136,-5.2214,-5.2214,2.9697,2.9697,-0.96702,1.1053,0.7606,-0.59375,0.30081,0.38202,0.38202,0.16404,0.16404,0.16404,0.16404,0.16404,0.16404,0.16404,0.16404,0.16404,5.4248,5.4248,-4.2139,-4.2139,1.4774,3.2233,3.3337,2.2724,3.4358,3.2009,3.2009,-2.595,-2.595,-2.595,-2.595,-2.595,-2.595,-2.595,-2.595,-2.595,-0.25818,-0.25818,-4.5379,-4.5379,4.2572,4.2706,4.8835,5.0264,5.7781,5.5255,5.5255,15.104,15.104,15.104,15.104,15.104,15.104,15.104,15.104,15.104,12.749,12.749,25.253,25.253,0.23485,0.99717,0.40535,1.2263,5.4475,5.8479,5.8479,-2.2461,-2.2461,-2.2461,-2.2461,-2.2461,-2.2461,-2.2461,-2.2461,-2.2461,12.391,12.391,-1.2714,-1.2714,0.76309,-1.6432,-1.09,3.3365,-1.8222,-1.1086,-1.1086,-0.55849,-0.55849,-0.55849,-0.55849,-0.55849,-0.55849,-0.55849,-0.55849,-0.55849,-7.4704,-7.4704,2.6652,2.6652,-0.859,2.5063,1.807,-1.0941,1.5284,1.5494,1.5494,-0.66717,-0.66717,-0.66717,-0.66717,-0.66717,-0.66717,-0.66717,-0.66717,-0.66717,6.8983,6.8983,-6.18,-6.18,1.3267,1.5224,2.4089,2.0529,1.8307,1.68,1.68,-2.9825,-2.9825,-2.9825,-2.9825,-2.9825,-2.9825,-2.9825,-2.9825,-2.9825,-3.6792,-3.6792,-2.8271,-2.8271,6.537,6.8457,7.2115,7.0664,8.5121,8.3224,8.3224,17.377,17.377,17.377,17.377,17.377,17.377,17.377,17.377,17.377,16.439,16.439,27.77,27.77,0.51492,0.36064,0.2875,2.5317,5.0851,5.6559,5.6559,-3.1829,-3.1829,-3.1829,-3.1829,-3.1829,-3.1829,-3.1829,-3.1829,-3.1829,9.6381,9.6381,-1.8752,-1.8752,0.0040337,-0.90407,-0.94419,1.9133,-2.7208,-2.3693,-2.3693,-0.054258,-0.054258,-0.054258,-0.054258,-0.054258,-0.054258,-0.054258,-0.054258,-0.054258,-7.18,-7.18,1.3532,1.3532,-0.3395,2.6759,2.5156,-0.91337,2.4334,2.4129,2.4129,-1.2986,-1.2986,-1.2986,-1.2986,-1.2986,-1.2986,-1.2986,-1.2986,-1.2986,6.5008,6.5008,-5.5445,-5.5445,1.0506,0.40739,1.5644,1.9513,0.42446,0.23983,0.23983,-2.2592,-2.2592,-2.2592,-2.2592,-2.2592,-2.2592,-2.2592,-2.2592,-2.2592,-5.7101,-5.7101,-2.2462,-2.2462,11.259,11.277,11.729,12.022,13.38,13.177,13.177,21.216,21.216,21.216,21.216,21.216,21.216,21.216,21.216,21.216,20.271,20.271,31.711,31.711,0.60624,0.3318,0.4042,3.3827,4.7332,5.6294,5.6294,-2.6494,-2.6494,-2.6494,-2.6494,-2.6494,-2.6494,-2.6494,-2.6494,-2.6494,8.7657,8.7657,-1.9377,-1.9377,-0.32185,0.57325,-0.027623,0.083682,-2.6768,-3.0149,-3.0149,0.026546,0.026546,0.026546,0.026546,0.026546,0.026546,0.026546,0.026546,0.026546,-5.9013,-5.9013,0.92475,0.92475,0.36386,1.6876,2.4844,0.41449,2.7684,3.0214,3.0214,-1.2957,-1.2957,-1.2957,-1.2957,-1.2957,-1.2957,-1.2957,-1.2957,-1.2957,4.8364,4.8364,-3.8548,-3.8548,0.31551,0.27746,0.90499,0.5739,-0.65463,-0.95056,-0.95056,-1.0278,-1.0278,-1.0278,-1.0278,-1.0278,-1.0278,-1.0278,-1.0278,-1.0278,-4.3893,-4.3893,-1.5472,-1.5472
4.8551,5.0742,6.8825,5.7649,6.7144,6.7144,6.7144,6.7144,8.7398,8.7398,8.7398,8.7398,8.7398,8.7398,8.7398,8.7398,8.7398,8.7398,21.471,21.471,-0.56703,2.0881,-1.544,-0.20614,-0.20598,-0.20598,-0.20598,-0.20598,-0.3504,-0.3504,-0.3504,-0.3504,-0.3504,-0.3504,-0.3504,-0.3504,-0.3504,-0.3504,0.49395,0.49395,1.3458,1.0356,1.4561,1.8896,2.5175,2.5175,2.5175,2.5175,1.4875,1.4875,1.4875,1.4875,1.4875,1.4875,1.4875,1.4875,1.4875,1.4875,1.3464,1.3464,-1.0214,-1.6383,-4.1719,0.21144,-1.0276,-1.0276,-1.0276,-1.0276,-0.64475,-0.64475,-0.64475,-0.64475,-0.64475,-0.64475,-0.64475,-0.64475,-0.64475,-0.64475,-2.6965,-2.6965,1.6999,2.0668,5.4767,2.0689,3.8263,3.8263,3.8263,3.8263,1.4124,1.4124,1.4124,1.4124,1.4124,1.4124,1.4124,1.4124,1.4124,1.4124,4.0006,4.0006,3.7944,3.8838,5.2157,4.6464,5.2635,5.2635,5.2635,5.2635,7.8049,7.8049,7.8049,7.8049,7.8049,7.8049,7.8049,7.8049,7.8049,7.8049,20.745,20.745,0.33111,3.8616,0.60601,0.809,1.5726,1.5726,1.5726,1.5726,0.83724,0.83724,0.83724,0.83724,0.83724,0.83724,0.83724,0.83724,0.83724,0.83724,2.1854,2.1854,0.96674,-0.95144,-1.1277,2.0508,2.1136,2.1136,2.1136,2.1136,0.78195,0.78195,0.78195,0.78195,0.78195,0.78195,0.78195,0.78195,0.78195,0.78195,-0.96322,-0.96322,-0.62669,-1.0122,-1.2386,0.42319,-0.37217,-0.37217,-0.37217,-0.37217,-0.051696,-0.051696,-0.051696,-0.051696,-0.051696,-0.051696,-0.051696,-0.051696,-0.051696,-0.051696,-0.099235,-0.099235,1.9321,2.4606,5.8506,1.9669,4.111,4.111,4.111,4.111,1.3239,1.3239,1.3239,1.3239,1.3239,1.3239,1.3239,1.3239,1.3239,1.3239,2.8266,2.8266,3.9189,4.4479,5.5533,4.8621,5.4043,5.4043,5.4043,5.4043,8.663,8.663,8.663,8.663,8.663,8.663,8.663,8.663,8.663,8.663,21.519,21.519,0.52948,3.8779,0.47516,1.1253,2.3313,2.3313,2.3313,2.3313,0.27219,0.27219,0.27219,0.27219,0.27219,0.27219,0.27219,0.27219,0.27219,0.27219,1.5161,1.5161,0.63932,-2.8509,-2.1633,1.9676,1.3517,1.3517,1.3517,1.3517,0.55385,0.55385,0.55385,0.55385,0.55385,0.55385,0.55385,0.55385,0.55385,0.55385,-1.1642,-1.1642,-0.52086,0.34067,1.0766,0.15436,0.2007,0.2007,0.2007,0.2007,-0.071639,-0.071639,-0.071639,-0.071639,-0.071639,-0.071639,-0.071639,-0.071639,-0.071639,-0.071639,0.25015,0.25015,1.8114,1.4382,4.4135,1.4829,3.3282,3.3282,3.3282,3.3282,0.35673,0.35673,0.35673,0.35673,0.35673,0.35673,0.35673,0.35673,0.35673,0.35673,1.829,1.829,6.159,7.2529,8.1523,6.9966,7.4951,7.4951,7.4951,7.4951,10.89,10.89,10.89,10.89,10.89,10.89,10.89,10.89,10.89,10.89,24.241,24.241,0.93422,2.8335,-0.1096,1.9819,3.2057,3.2057,3.2057,3.2057,0.43269,0.43269,0.43269,0.43269,0.43269,0.43269,0.43269,0.43269,0.43269,0.43269,0.68597,0.68597,-0.09373,-3.2839,-2.263,1.2098,0.41181,0.41181,0.41181,0.41181,0.13811,0.13811,0.13811,0.13811,0.13811,0.13811,0.13811,0.13811,0.13811,0.13811,-0.98445,-0.98445,0.0789,1.4285,3.0648,0.092635,0.96944,0.96944,0.96944,0.96944,0.045002,0.045002,0.045002,0.045002,0.045002,0.045002,0.045002,0.045002,0.045002,0.045002,0.46217,0.46217,1.4707,0.24394,2.5304,1.3056,2.6737,2.6737,2.6737,2.6737,0.21704,0.21704,0.21704,0.21704,0.21704,0.21704,0.21704,0.21704,0.21704,0.21704,1.1471,1.1471,10.854,11.834,13.133,11.77,12.375,12.375,12.375,12.375,15.351,15.351,15.351,15.351,15.351,15.351,15.351,15.351,15.351,15.351,28.191,28.191,1.1422,2.0812,-1.1833,2.6787,3.7471,3.7471,3.7471,3.7471,0.89115,0.89115,0.89115,0.89115,0.89115,0.89115,0.89115,0.89115,0.89115,0.89115,1.1752,1.1752,-0.35149,-2.2586,-0.24894,0.19579,-0.3793,-0.3793,-0.3793,-0.3793,-0.2768,-0.2768,-0.2768,-0.2768,-0.2768,-0.2768,-0.2768,-0.2768,-0.2768,-0.2768,-0.38258,-0.38258,0.74535,1.5464,3.0777,0.77053,1.9306,1.9306,1.9306,1.9306,0.56947,0.56947,0.56947,0.56947,0.56947,0.56947,0.56947,0.56947,0.56947,0.56947,0.24686,0.24686,0.71242,-0.25954,1.0918,0.3384,1.2317,1.2317,1.2317,1.2317,-0.076669,-0.076669,-0.076669,-0.076669,-0.076669,-0.076669,-0.076669,-0.076669,-0.076669,-0.076669,1.3714,1.3714
5.3931,5.7429,5.6233,5.6233,5.6233,5.6233,17.02,17.02,17.02,17.02,17.02,17.02,17.02,17.02,17.02,17.02,23.183,23.183,26.113,26.113,-1.5771,-1.7807,-1.9467,-1.9467,-1.9467,-1.9467,-6.8754,-6.8754,-6.8754,-6.8754,-6.8754,-6.8754,-6.8754,-6.8754,-6.8754,-6.8754,2.6506,2.6506,0.1654,0.1654,1.5019,2.3326,3.3434,3.3434,3.3434,3.3434,2.4972,2.4972,2.4972,2.4972,2.4972,2.4972,2.4972,2.4972,2.4972,2.4972,0.1535,0.1535,2.5375,2.5375,-1.33,-0.51265,-0.84689,-0.84689,-0.84689,-0.84689,-5.2473,-5.2473,-5.2473,-5.2473,-5.2473,-5.2473,-5.2473,-5.2473,-5.2473,-5.2473,-5.2739,-5.2739,-1.5725,-1.5725,1.3351,1.5352,3.1694,3.1694,3.1694,3.1694,-2.3057,-2.3057,-2.3057,-2.3057,-2.3057,-2.3057,-2.3057,-2.3057,-2.3057,-2.3057,2.668,2.668,-2.659,-2.659,4.5491,4.9156,4.2406,4.2406,4.2406,4.2406,16.346,16.346,16.346,16.346,16.346,16.346,16.346,16.346,16.346,16.346,21.814,21.814,25.398,25.398,-0.99901,-1.3966,-0.59057,-0.59057,-0.59057,-0.59057,-6.8009,-6.8009,-6.8009,-6.8009,-6.8009,-6.8009,-6.8009,-6.8009,-6.8009,-6.8009,4.8222,4.8222,0.77339,0.77339,1.1569,2.6933,3.7611,3.7611,3.7611,3.7611,1.5824,1.5824,1.5824,1.5824,1.5824,1.5824,1.5824,1.5824,1.5824,1.5824,-3.3616,-3.3616,1.8367,1.8367,-0.89895,-0.28373,-0.80015,-0.80015,-0.80015,-0.80015,-4.8445,-4.8445,-4.8445,-4.8445,-4.8445,-4.8445,-4.8445,-4.8445,-4.8445,-4.8445,-3.1276,-3.1276,-1.9174,-1.9174,1.4084,1.3313,3.5662,3.5662,3.5662,3.5662,-1.3405,-1.3405,-1.3405,-1.3405,-1.3405,-1.3405,-1.3405,-1.3405,-1.3405,-1.3405,3.0398,3.0398,-2.3393,-2.3393,4.7918,4.9579,4.0971,4.0971,4.0971,4.0971,16.27,16.27,16.27,16.27,16.27,16.27,16.27,16.27,16.27,16.27,22.746,22.746,26.045,26.045,-1.1145,-1.2976,0.4285,0.4285,0.4285,0.4285,-7.64,-7.64,-7.64,-7.64,-7.64,-7.64,-7.64,-7.64,-7.64,-7.64,4.1031,4.1031,0.21507,0.21507,1.0674,3.2565,3.5324,3.5324,3.5324,3.5324,2.0661,2.0661,2.0661,2.0661,2.0661,2.0661,2.0661,2.0661,2.0661,2.0661,-5.4061,-5.4061,1.3197,1.3197,-0.8953,-0.95041,-0.96753,-0.96753,-0.96753,-0.96753,-5.2179,-5.2179,-5.2179,-5.2179,-5.2179,-5.2179,-5.2179,-5.2179,-5.2179,-5.2179,-0.95946,-0.95946,-2.7007,-2.7007,1.2897,1.4135,3.459,3.459,3.459,3.459,-0.047517,-0.047517,-0.047517,-0.047517,-0.047517,-0.047517,-0.047517,-0.047517,-0.047517,-0.047517,1.7123,1.7123,-2.0573,-2.0573,6.905,6.9774,6.0908,6.0908,6.0908,6.0908,17.757,17.757,17.757,17.757,17.757,17.757,17.757,17.757,17.757,17.757,25.866,25.866,28.834,28.834,-0.72388,-0.31042,2.0235,2.0235,2.0235,2.0235,-7.4444,-7.4444,-7.4444,-7.4444,-7.4444,-7.4444,-7.4444,-7.4444,-7.4444,-7.4444,2.0763,2.0763,-0.62483,-0.62483,0.57217,2.6046,2.0168,2.0168,2.0168,2.0168,1.7669,1.7669,1.7669,1.7669,1.7669,1.7669,1.7669,1.7669,1.7669,1.7669,-4.9926,-4.9926,0.52121,0.52121,-0.45384,-0.97611,-0.34249,-0.34249,-0.34249,-0.34249,-4.1186,-4.1186,-4.1186,-4.1186,-4.1186,-4.1186,-4.1186,-4.1186,-4.1186,-4.1186,0.24533,0.24533,-2.3775,-2.3775,1.2257,1.5121,3.1157,3.1157,3.1157,3.1157,1.1149,1.1149,1.1149,1.1149,1.1149,1.1149,1.1149,1.1149,1.1149,1.1149,0.36479,0.36479,-2.1102,-2.1102,11.571,11.608,11.079,11.079,11.079,11.079,21.88,21.88,21.88,21.88,21.88,21.88,21.88,21.88,21.88,21.88,29.775,29.775,32.602,32.602,-0.51694,0.60567,2.9049,2.9049,2.9049,2.9049,-7.0169,-7.0169,-7.0169,-7.0169,-7.0169,-7.0169,-7.0169,-7.0169,-7.0169,-7.0169,1.3727,1.3727,-0.19948,-0.19948,0.44756,1.6282,0.40866,0.40866,0.40866,0.40866,1.7768,1.7768,1.7768,1.7768,1.7768,1.7768,1.7768,1.7768,1.7768,1.7768,-2.4505,-2.4505,0.23699,0.23699,0.13038,-0.25254,1.1077,1.1077,1.1077,1.1077,-2.4353,-2.4353,-2.4353,-2.4353,-2.4353,-2.4353,-2.4353,-2.4353,-2.4353,-2.4353,-0.36028,-0.36028,-1.7135,-1.7135,0.60233,0.83127,1.4555,1.4555,1.4555,1.4555,1.1719,1.1719,1.1719,1.1719,1.1719,1.1719,1.1719,1.1719,1.1719,1.1719,0.85025,0.85025,-1.1301,-1.1301
5.2736,5.2512,5.9452,6.0846,6.0846,6.0846,7.5925,20.284,20.284,20.284,20.284,24.87,15.114,10.525,10.525,16.979,22.001,22.001,21.974,21.974,-0.72858,0.77623,0.15882,0.057835,0.057835,0.057835,10.38,-10.01,-10.01,-10.01,-10.01,-6.1823,8.4872,12.002,12.002,5.3051,0.80496,0.80496,-0.16385,-0.16385,1.2436,0.97003,2.1807,1.8011,1.8011,1.8011,-2.183,4.344,4.344,4.344,4.344,11.231,-1.1414,-1.943,-1.943,-1.5615,-0.36452,-0.36452,3.6623,3.6623,-0.90839,-0.96263,-0.74224,0.03875,0.03875,0.03875,1.2593,-5.783,-5.783,-5.783,-5.783,-16.094,0.77585,2.4271,2.4271,0.49231,-3.4757,-3.4757,-0.57539,-0.57539,1.2851,1.7535,1.7954,1.856,1.856,1.856,-1.1154,-5.2916,-5.2916,-5.2916,-5.2916,-3.8323,-0.37767,1.0106,1.0106,1.0337,3.8329,3.8329,3.3971,3.3971,4.4025,4.1681,4.8451,4.9954,4.9954,4.9954,7.0001,19.08,19.08,19.08,19.08,21.928,14.246,9.4335,9.4335,16.193,21.323,21.323,20.708,20.708,-0.10069,2.1361,1.3883,1.0987,1.0987,1.0987,12.08,-9.8035,-9.8035,-9.8035,-9.8035,-2.5481,10.067,14.328,14.328,6.3537,2.2657,2.2657,1.1657,1.1657,0.94134,-0.23163,2.031,1.8484,1.8484,1.8484,-5.4256,4.6937,4.6937,4.6937,4.6937,9.3234,-3.6762,-5.4755,-5.4755,-3.4659,-3.2402,-3.2402,3.109,3.109,-0.5293,-0.33525,-0.84581,0.2371,0.2371,0.2371,1.7958,-7.2819,-7.2819,-7.2819,-7.2819,-20.264,1.3799,4.0616,4.0616,2.3004,-0.059668,-0.059668,0.18346,0.18346,1.3137,1.9281,2.0023,1.7884,1.7884,1.7884,-1.913,-3.0118,-3.0118,-3.0118,-3.0118,2.1971,-0.6826,0.037005,0.037005,0.17502,2.5421,2.5421,3.133,3.133,4.5475,4.5321,5.1053,5.3434,5.3434,5.3434,8.5432,18.019,18.019,18.019,18.019,20.179,15.122,11.156,11.156,18,22.37,22.37,21.36,21.36,-0.010731,2.355,1.906,1.378,1.378,1.378,10.787,-9.4747,-9.4747,-9.4747,-9.4747,0.71105,9.7513,13.343,13.343,4.2015,0.88077,0.88077,1.3621,1.3621,0.73584,-1.4873,1.2308,1.4264,1.4264,1.4264,-8.2769,5.3161,5.3161,5.3161,5.3161,4.2838,-6.115,-8.4755,-8.4755,-3.7534,-3.3551,-3.3551,2.5254,2.5254,-0.55207,0.43672,-0.76113,0.30875,0.30875,0.30875,3.428,-9.2147,-9.2147,-9.2147,-9.2147,-19.224,2.5421,6.2359,6.2359,2.7006,0.86618,0.86618,-0.19151,-0.19151,1.2408,1.2781,1.58,1.1021,1.1021,1.1021,-4.3194,0.17165,0.17165,0.17165,0.17165,6.788,-2.0106,-3.3056,-3.3056,-2.084,1.0683,1.0683,2.417,2.417,6.806,7.0769,7.2993,7.5057,7.5057,7.5057,12.025,18.882,18.882,18.882,18.882,22.199,19.188,14.909,14.909,20.785,25.098,25.098,24.154,24.154,0.2886,2.0071,2.5635,2.0694,2.0694,2.0694,7.6395,-7.9028,-7.9028,-7.9028,-7.9028,1.3986,6.5048,10.287,10.287,3.0021,-0.5724,-0.5724,1.3346,1.3346,0.14136,-2.0895,0.18467,0.7003,0.7003,0.7003,-7.895,3.4681,3.4681,3.4681,3.4681,-1.0986,-5.8553,-8.0697,-8.0697,-3.5739,-2.2671,-2.2671,1.5858,1.5858,-0.14256,1.1994,-0.35262,0.3452,0.3452,0.3452,3.2473,-8.1355,-8.1355,-8.1355,-8.1355,-11.774,2.5289,5.8045,5.8045,2.4377,0.91876,0.91876,0.061799,0.061799,1.0123,0.50467,1.3112,0.89397,0.89397,0.89397,-5.6141,2.6039,2.6039,2.6039,2.6039,5.8456,-3.8093,-5.0879,-5.0879,-2.5127,0.49277,0.49277,1.5783,1.5783,11.428,11.721,12.216,12.299,12.299,12.299,16.074,22.732,22.732,22.732,22.732,27.265,22.839,18.783,18.783,24.748,28.996,28.996,28.496,28.496,0.55422,1.7835,2.8187,2.5858,2.5858,2.5858,5.8038,-6.7341,-6.7341,-6.7341,-6.7341,-0.71352,5.6777,8.9473,8.9473,2.794,-0.28662,-0.28662,2.2258,2.2258,-0.11242,-1.7655,-0.8653,-0.18418,-0.18418,-0.18418,-5.9808,1.2855,1.2855,1.2855,1.2855,-1.2449,-4.1798,-6.1582,-6.1582,-2.6921,-0.92027,-0.92027,0.77444,0.77444,0.42698,1.511,0.7264,1.0256,1.0256,1.0256,1.9964,-4.6971,-4.6971,-4.6971,-4.6971,-5.2019,1.2814,3.8838,3.8838,1.6992,0.51758,0.51758,0.45801,0.45801,0.44741,-0.093886,0.13336,-0.051389,-0.051389,-0.051389,-4.5251,2.7249,2.7249,2.7249,2.7249,2.4733,-2.2339,-3.6681,-3.6681,-1.5649,0.87541,0.87541,1.2352,1.2352
4.9196,5.3001,5.7685,5.6655,6.0374,7.0243,7.0243,7.0243,7.0243,7.0243,7.0243,11.307,11.307,11.307,11.307,11.307,11.307,24.618,24.618,22.405,0.03932,0.076178,-1.4658,-0.64039,-0.89054,0.164,0.164,0.164,0.164,0.164,0.164,11.275,11.275,11.275,11.275,11.275,11.275,-0.88324,-0.88324,5.2886,0.2909,1.8146,1.3847,4.193,2.382,3.0378,3.0378,3.0378,3.0378,3.0378,3.0378,-1.3218,-1.3218,-1.3218,-1.3218,-1.3218,-1.3218,4.1091,4.1091,-0.70767,0.39235,-1.0999,0.18352,-1.7198,-1.6004,-1.0032,-1.0032,-1.0032,-1.0032,-1.0032,-1.0032,2.5673,2.5673,2.5673,2.5673,2.5673,2.5673,-7.6894,-7.6894,-2.7769,0.63809,1.6428,1.4926,2.5238,3.4346,4.1824,4.1824,4.1824,4.1824,4.1824,4.1824,0.44954,0.44954,0.44954,0.44954,0.44954,0.44954,0.13801,0.13801,4.2713,4.435,4.2015,5.0097,4.1312,4.66,5.435,5.435,5.435,5.435,5.435,5.435,10.622,10.622,10.622,10.622,10.622,10.622,23.263,23.263,21.072,0.27989,1.2265,-1.1505,1.1717,0.43407,2.4092,2.4092,2.4092,2.4092,2.4092,2.4092,12.875,12.875,12.875,12.875,12.875,12.875,0.89109,0.89109,7.4997,-0.16963,1.3977,1.5634,4.408,2.0706,2.4386,2.4386,2.4386,2.4386,2.4386,2.4386,-4.1811,-4.1811,-4.1811,-4.1811,-4.1811,-4.1811,1.8942,1.8942,-3.8117,1.2746,-1.1244,0.82706,-2.8688,-1.0976,-0.41987,-0.41987,-0.41987,-0.41987,-0.41987,-0.41987,3.9399,3.9399,3.9399,3.9399,3.9399,3.9399,-6.9624,-6.9624,-0.43732,-0.16877,1.9821,0.97185,3.561,3.8948,4.5289,4.5289,4.5289,4.5289,4.5289,4.5289,-1.0764,-1.0764,-1.0764,-1.0764,-1.0764,-1.0764,1.2273,1.2273,4.0339,5.1252,4.4248,5.1671,4.0478,4.6442,5.6673,5.6673,5.6673,5.6673,5.6673,5.6673,12.445,12.445,12.445,12.445,12.445,12.445,23.555,23.555,22.323,-0.40758,1.7318,-1.3675,2.6855,1.0599,3.3698,3.3698,3.3698,3.3698,3.3698,3.3698,11.547,11.547,11.547,11.547,11.547,11.547,0.85283,0.85283,6.6015,-0.030315,0.25594,2.3796,2.6137,1.5428,1.3278,1.3278,1.3278,1.3278,1.3278,1.3278,-6.4257,-6.4257,-6.4257,-6.4257,-6.4257,-6.4257,0.25872,0.25872,-5.4485,1.2845,-0.72441,0.19957,-2.6819,-0.59554,0.23984,0.23984,0.23984,0.23984,0.23984,0.23984,5.0549,5.0549,5.0549,5.0549,5.0549,5.0549,-6.3095,-6.3095,1.3027,-1.0463,1.6305,0.78188,3.561,3.5146,3.5837,3.5837,3.5837,3.5837,3.5837,3.5837,-3.9478,-3.9478,-3.9478,-3.9478,-3.9478,-3.9478,1.6599,1.6599,2.0553,7.661,6.8308,7.1701,6.4408,6.7579,7.8786,7.8786,7.8786,7.8786,7.8786,7.8786,16.116,16.116,16.116,16.116,16.116,16.116,26.135,26.135,25.651,-0.74242,2.0021,-0.6453,3.8311,1.9818,4.1879,4.1879,4.1879,4.1879,4.1879,4.1879,8.7738,8.7738,8.7738,8.7738,8.7738,8.7738,0.21535,0.21535,4.5269,0.16139,-0.90224,2.3365,-0.02389,0.45409,0.21057,0.21057,0.21057,0.21057,0.21057,0.21057,-6.28,-6.28,-6.28,-6.28,-6.28,-6.28,-1.3068,-1.3068,-4.9905,0.9426,0.096558,-0.32576,-1.07,0.38465,1.0425,1.0425,1.0425,1.0425,1.0425,1.0425,4.6481,4.6481,4.6481,4.6481,4.6481,4.6481,-4.0965,-4.0965,1.9587,-1.325,1.0417,1.031,2.6442,2.9404,2.712,2.712,2.712,2.712,2.712,2.712,-5.7102,-5.7102,-5.7102,-5.7102,-5.7102,-5.7102,1.1484,1.1484,0.41894,11.941,11.717,11.584,11.849,11.606,12.799,12.799,12.799,12.799,12.799,12.799,19.985,19.985,19.985,19.985,19.985,19.985,30.292,30.292,29.543,-0.20939,1.8277,0.41558,3.6584,2.2811,4.84,4.84,4.84,4.84,4.84,4.84,7.8352,7.8352,7.8352,7.8352,7.8352,7.8352,-0.28957,-0.28957,4.02,0.29477,-1.2881,1.6934,-1.6881,0.01773,-0.93807,-0.93807,-0.93807,-0.93807,-0.93807,-0.93807,-5.3298,-5.3298,-5.3298,-5.3298,-5.3298,-5.3298,-0.85065,-0.85065,-3.0157,0.62103,0.94888,-0.12305,1.0057,1.4289,2.194,2.194,2.194,2.194,2.194,2.194,3.5551,3.5551,3.5551,3.5551,3.5551,3.5551,-2.3189,-2.3189,1.0234,-1.0376,-0.0023141,0.7796,0.44634,1.5438,1.1105,1.1105,1.1105,1.1105,1.1105,1.1105,-4.4344,-4.4344,-4.4344,-4.4344,-4.4344,-4.4344,0.79177,0.79177,0.99512
4.9755,5.7238,5.7238,6.1783,6.1156,6.1156,6.1156,6.9893,13.488,13.488,7.9279,7.9279,7.9279,7.9279,15.362,15.362,15.362,15.362,15.362,15.362,-0.64937,-1.4729,-1.4729,-0.95417,-0.30467,-0.30467,-0.30467,5.1235,-10.774,-10.774,-4.1208,-4.1208,-4.1208,-4.1208,-5.9648,-5.9648,-5.9648,-5.9648,-5.9648,-5.9648,1.3653,2.9098,2.9098,1.1234,2.243,2.243,2.243,0.021386,0.71278,0.71278,5.7999,5.7999,5.7999,5.7999,0.27187,0.27187,0.27187,0.27187,0.27187,0.27187,-1.0425,-1.1423,-1.1423,-3.6561,-0.079856,-0.079856,-0.079856,-0.088178,3.1731,3.1731,-0.30255,-0.30255,-0.30255,-0.30255,-4.0173,-4.0173,-4.0173,-4.0173,-4.0173,-4.0173,1.6137,1.5932,1.5932,5.8651,2.2098,2.2098,2.2098,2.7405,4.7043,4.7043,5.42,5.42,5.42,5.42,7.1969,7.1969,7.1969,7.1969,7.1969,7.1969,4.0293,4.6935,4.6935,4.4615,4.9723,4.9723,4.9723,5.8403,12.813,12.813,6.1225,6.1225,6.1225,6.1225,14.777,14.777,14.777,14.777,14.777,14.777,0.097279,-0.86095,-0.86095,1.2762,0.71722,0.71722,0.71722,7.3618,-13.015,-13.015,-2.7397,-2.7397,-2.7397,-2.7397,-6.5796,-6.5796,-6.5796,-6.5796,-6.5796,-6.5796,1.0365,3.5974,3.5974,-1.4148,2.5801,2.5801,2.5801,-2.6839,5.9042,5.9042,8.0363,8.0363,8.0363,8.0363,0.25909,0.25909,0.25909,0.25909,0.25909,0.25909,-0.6679,-1.711,-1.711,-0.7573,0.024889,0.024889,0.024889,1.6116,3.4936,3.4936,-1.0211,-1.0211,-1.0211,-1.0211,-0.18581,-0.18581,-0.18581,-0.18581,-0.18581,-0.18581,1.7358,1.9465,1.9465,6.243,2.2238,2.2238,2.2238,2.2555,3.088,3.088,5.9812,5.9812,5.9812,5.9812,5.172,5.172,5.172,5.172,5.172,5.172,4.1594,4.6081,4.6081,4.5875,5.1311,5.1311,5.1311,6.9382,11.15,11.15,5.3299,5.3299,5.3299,5.3299,14.926,14.926,14.926,14.926,14.926,14.926,0.27132,-0.32146,-0.32146,1.5256,1.2404,1.2404,1.2404,6.899,-12.729,-12.729,-1.0167,-1.0167,-1.0167,-1.0167,-8.2971,-8.2971,-8.2971,-8.2971,-8.2971,-8.2971,0.73878,3.6082,3.6082,-2.7013,2.2513,2.2513,2.2513,-4.7558,12.588,12.588,8.9803,8.9803,8.9803,8.9803,3.5221,3.5221,3.5221,3.5221,3.5221,3.5221,-0.60197,-2.4424,-2.4424,1.7769,-0.054107,-0.054107,-0.054107,3.5843,-1.606,-1.606,-2.5548,-2.5548,-2.5548,-2.5548,-0.6125,-0.6125,-0.6125,-0.6125,-0.6125,-0.6125,1.6362,2.3143,2.3143,4.8043,1.7795,1.7795,1.7795,-0.1573,5.7581,5.7581,6.6067,6.6067,6.6067,6.6067,4.6614,4.6614,4.6614,4.6614,4.6614,4.6614,6.3763,6.6806,6.6806,7.1929,7.2789,7.2789,7.2789,9.9214,10.715,10.715,6.6562,6.6562,6.6562,6.6562,16.216,16.216,16.216,16.216,16.216,16.216,0.69306,0.90996,0.90996,0.99619,2.1005,2.1005,2.1005,5.0037,-7.472,-7.472,2.3433,2.3433,2.3433,2.3433,-8.0126,-8.0126,-8.0126,-8.0126,-8.0126,-8.0126,0.013599,2.1614,2.1614,-2.8435,1.4862,1.4862,1.4862,-4.1107,13.374,13.374,6.7855,6.7855,6.7855,6.7855,6.3108,6.3108,6.3108,6.3108,6.3108,6.3108,-0.036052,-1.9377,-1.9377,3.8578,-0.017927,-0.017927,-0.017927,3.6045,-4.0801,-4.0801,-2.1404,-2.1404,-2.1404,-2.1404,-1.6713,-1.6713,-1.6713,-1.6713,-1.6713,-1.6713,1.3546,2.2355,2.2355,2.7324,1.5253,1.5253,1.5253,-1.4653,8.7106,8.7106,6.6858,6.6858,6.6858,6.6858,5.4136,5.4136,5.4136,5.4136,5.4136,5.4136,11.083,11.579,11.579,12.106,12.099,12.099,12.099,13.971,14.537,14.537,11.66,11.66,11.66,11.66,19.948,19.948,19.948,19.948,19.948,19.948,0.88586,1.4913,1.4913,0.035398,2.7819,2.7819,2.7819,4.7965,-1.4245,-1.4245,4.8495,4.8495,4.8495,4.8495,-6.2941,-6.2941,-6.2941,-6.2941,-6.2941,-6.2941,-0.25272,0.76603,0.76603,-0.75006,0.39326,0.39326,0.39326,-3.0491,9.321,9.321,3.3798,3.3798,3.3798,3.3798,7.9714,7.9714,7.9714,7.9714,7.9714,7.9714,0.63299,-0.58789,-0.58789,3.7592,0.81674,0.81674,0.81674,2.788,-2.5446,-2.5446,-0.13698,-0.13698,-0.13698,-0.13698,-2.333,-2.333,-2.333,-2.333,-2.333,-2.333,0.60135,1.0263,1.0263,1.2645,0.42715,0.42715,0.42715,-1.1032,7.649,7.649,4.4842,4.4842,4.4842,4.4842,5.4291,5.4291,5.4291,5.4291,5.4291,5.4291
5.0719,6.4516,6.2123,6.2123,6.2123,10.821,6.8964,6.8964,6.8964,6.8964,6.8964,6.8964,16.408,6.3903,6.3903,6.3903,6.3903,6.3903,6.3903,19.322,-1.0021,-2.2878,1.1678,1.1678,1.1678,-2.7621,-0.10061,-0.10061,-0.10061,-0.10061,-0.10061,-0.10061,-7.4262,6.437,6.437,6.437,6.437,6.437,6.437,8.0295,1.5159,2.9068,0.59353,0.59353,0.59353,1.924,3.3975,3.3975,3.3975,3.3975,3.3975,3.3975,4.5181,-0.059577,-0.059577,-0.059577,-0.059577,-0.059577,-0.059577,-1.881,-1.1077,-4.5889,-0.32838,-0.32838,-0.32838,-1.9369,-0.020906,-0.020906,-0.020906,-0.020906,-0.020906,-0.020906,-11.277,2.013,2.013,2.013,2.013,2.013,2.013,2.8214,1.4742,3.858,1.0574,1.0574,1.0574,0.94446,3.9372,3.9372,3.9372,3.9372,3.9372,3.9372,9.0832,2.505,2.505,2.505,2.505,2.505,2.505,1.9088,4.1752,4.696,5.4888,5.4888,5.4888,9.9674,5.3255,5.3255,5.3255,5.3255,5.3255,5.3255,15.115,5.4404,5.4404,5.4404,5.4404,5.4404,5.4404,18.519,-0.35318,-0.37636,2.1241,2.1241,2.1241,-2.2635,1.8656,1.8656,1.8656,1.8656,1.8656,1.8656,-5.9546,8.794,8.794,8.794,8.794,8.794,8.794,9.5945,1.2736,1.7594,-0.46072,-0.46072,-0.46072,1.7293,3.5065,3.5065,3.5065,3.5065,3.5065,3.5065,1.8002,-2.4493,-2.4493,-2.4493,-2.4493,-2.4493,-2.4493,-4.4471,-0.77208,-4.0852,0.32534,0.32534,0.32534,-1.5136,0.2363,0.2363,0.2363,0.2363,0.2363,0.2363,-7.0086,3.526,3.526,3.526,3.526,3.526,3.526,4.9241,1.5662,5.4563,0.69184,0.69184,0.69184,1.1619,4.1154,4.1154,4.1154,4.1154,4.1154,4.1154,8.4955,1.3071,1.3071,1.3071,1.3071,1.3071,1.3071,0.56972,4.2703,4.419,6.2407,6.2407,6.2407,10.611,5.3969,5.3969,5.3969,5.3969,5.3969,5.3969,15.28,6.7895,6.7895,6.7895,6.7895,6.7895,6.7895,20.025,-0.17857,0.58953,1.8696,1.8696,1.8696,-3.0387,3.0289,3.0289,3.0289,3.0289,3.0289,3.0289,-6.5502,8.6101,8.6101,8.6101,8.6101,8.6101,8.6101,8.4187,1.0797,0.2243,-1.4544,-1.4544,-1.4544,2.054,2.7985,2.7985,2.7985,2.7985,2.7985,2.7985,1.4767,-4.5096,-4.5096,-4.5096,-4.5096,-4.5096,-4.5096,-5.551,-0.81815,-2.627,0.85203,0.85203,0.85203,-1.796,0.3601,0.3601,0.3601,0.3601,0.3601,0.3601,-4.4727,4.8074,4.8074,4.8074,4.8074,4.8074,4.8074,5.4495,1.5687,5.487,-0.32121,-0.32121,-0.32121,0.78926,3.3484,3.3484,3.3484,3.3484,3.3484,3.3484,7.4964,-1.3745,-1.3745,-1.3745,-1.3745,-1.3745,-1.3745,-1.5383,6.4845,6.7494,8.6043,8.6043,8.6043,12.35,7.5129,7.5129,7.5129,7.5129,7.5129,7.5129,17.624,10.139,10.139,10.139,10.139,10.139,10.139,23.749,0.25677,1.1316,1.5792,1.5792,1.5792,-2.408,4.2128,4.2128,4.2128,4.2128,4.2128,4.2128,-7.1169,7.0422,7.0422,7.0422,7.0422,7.0422,7.0422,5.9821,0.38673,-1.6896,-1.7267,-1.7267,-1.7267,1.7162,1.6179,1.6179,1.6179,1.6179,1.6179,1.6179,1.6466,-4.6508,-4.6508,-4.6508,-4.6508,-4.6508,-4.6508,-4.9987,-0.32405,0.20233,1.0057,1.0057,1.0057,-1.5858,0.70221,0.70221,0.70221,0.70221,0.70221,0.70221,-1.5727,4.61,4.61,4.61,4.61,4.61,4.61,4.8239,1.3527,4.0319,-0.61749,-0.61749,-0.61749,1.3926,2.6983,2.6983,2.6983,2.6983,2.6983,2.6983,5.8638,-3.0589,-3.0589,-3.0589,-3.0589,-3.0589,-3.0589,-2.9651,11.138,11.938,13.214,13.214,13.214,16.842,12.421,12.421,12.421,12.421,12.421,12.421,22.699,14.531,14.531,14.531,14.531,14.531,14.531,27.564,0.55723,0.40428,1.3022,1.3022,1.3022,-1.9105,5.4744,5.4744,5.4744,5.4744,5.4744,5.4744,-8.4598,6.7831,6.7831,6.7831,6.7831,6.7831,6.7831,5.7115,0.054397,-1.5436,-1.4869,-1.4869,-1.4869,1.3009,-0.37383,-0.37383,-0.37383,-0.37383,-0.37383,-0.37383,4.516,-4.3567,-4.3567,-4.3567,-4.3567,-4.3567,-4.3567,-3.6152,0.35709,2.0358,1.0989,1.0989,1.0989,-0.60389,1.9587,1.9587,1.9587,1.9587,1.9587,1.9587,-0.52771,3.7198,3.7198,3.7198,3.7198,3.7198,3.7198,3.0959,0.68757,1.859,-0.94661,-0.94661,-0.94661,0.93242,1.1112,1.1112,1.1112,1.1112,1.1112,1.1112,3.7205,-2.8487,-2.8487,-2.8487,-2.8487,-2.8487,-2.8487,-1.5471
4.5198,5.6877,5.8109,5.886,6.6447,6.9175,6.9175,6.9175,8.3868,8.9163,9.5828,10.02,10.02,10.02,10.02,10.02,19.674,19.022,19.022,19.022,-0.42739,-0.70846,-1.1091,1.3331,-3.6058,-2.4611,-2.4611,-2.4611,-4.6477,9.4976,10.998,4.3113,4.3113,4.3113,4.3113,4.3113,4.3793,7.3726,7.3726,7.3726,1.4022,0.46657,0.84179,3.4783,3.7832,2.2191,2.2191,2.2191,3.7869,-0.62825,-1.429,-0.5664,-0.5664,-0.5664,-0.5664,-0.5664,-1.1601,-0.463,-0.463,-0.463,-1.0778,0.15987,0.11544,-1.205,0.70947,-1.232,-1.232,-1.232,1.8963,2.8297,2.1848,1.6067,1.6067,1.6067,1.6067,1.6067,1.1276,0.94596,0.94596,0.94596,1.9837,1.6431,1.8117,1.7372,2.645,4.3778,4.3778,4.3778,5.2769,2.2005,2.804,0.26585,0.26585,0.26585,0.26585,0.26585,0.82817,2.0419,2.0419,2.0419,3.4038,4.7743,4.9503,4.6644,5.5465,5.7205,5.7205,5.7205,7.1459,7.8084,8.4674,9.6518,9.6518,9.6518,9.6518,9.6518,19.334,18.199,18.199,18.199,0.5673,0.068649,-0.46791,3.3426,-3.3057,-1.6821,-1.6821,-1.6821,-4.5994,12.119,14.111,5.4462,5.4462,5.4462,5.4462,5.4462,5.5229,9.016,9.016,9.016,0.98769,-0.3307,0.27136,2.4644,6.013,2.3083,2.3083,2.3083,6.9328,-3.956,-5.8085,-2.3649,-2.3649,-2.3649,-2.3649,-2.3649,-3.5665,-3.0829,-3.0829,-3.0829,-0.65889,1.4185,1.4077,-1.6214,0.062542,0.13163,0.13163,0.13163,1.5584,5.1279,5.059,2.7087,2.7087,2.7087,2.7087,2.7087,3.55,2.7425,2.7425,2.7425,2.2606,1.3031,1.3277,2.0908,2.5417,4.2003,4.2003,4.2003,4.7094,0.56216,1.2278,-0.98267,-0.98267,-0.98267,-0.98267,-0.98267,-0.9174,1.0831,1.0831,1.0831,3.4605,5.1346,5.2555,5.0711,4.9344,5.7074,5.7074,5.7074,6.3396,9.2187,10.182,11.301,11.301,11.301,11.301,11.301,20.432,19.875,19.875,19.875,0.91399,-0.36442,-0.91258,4.386,-2.2783,-1.7433,-1.7433,-1.7433,-3.83,11.627,13.262,4.0272,4.0272,4.0272,4.0272,4.0272,4.4124,7.7623,7.7623,7.7623,0.54,-0.0079777,0.9167,-9.3784e-05,7.4928,3.1666,3.1666,3.1666,9.944,-6.4629,-8.7081,-2.9823,-2.9823,-2.9823,-2.9823,-2.9823,-3.9936,-4.4874,-4.4874,-4.4874,-0.42974,1.6414,1.3506,-0.81376,-2.0476,0.20993,0.20993,0.20993,-1.3714,6.9082,7.5125,2.7286,2.7286,2.7286,2.7286,2.7286,3.5974,3.4715,3.4715,3.4715,2.1341,0.60613,0.75015,1.3091,3.5068,3.7781,3.7781,3.7781,5.6544,-2.669,-2.5745,-2.9602,-2.9602,-2.9602,-2.9602,-2.9602,-2.1214,-1.1793,-1.1793,-1.1793,5.7314,7.4048,7.4059,7.8275,6.3069,7.5306,7.5306,7.5306,7.1513,12.821,13.776,14.355,14.355,14.355,14.355,14.355,23.507,23.153,23.153,23.153,1.3353,-0.39471,-0.6681,4.4283,0.54231,-0.70799,-0.70799,-0.70799,-0.20185,9.539,10.624,2.4253,2.4253,2.4253,2.4253,2.4253,2.6708,5.922,5.922,5.922,-0.26411,0.38086,1.2258,-2.0745,5.8339,3.2169,3.2169,3.2169,9.0561,-6.7141,-8.4045,-2.6756,-2.6756,-2.6756,-2.6756,-2.6756,-3.2417,-4.4157,-4.4157,-4.4157,0.27919,1.4387,1.046,0.54403,-2.343,0.34721,0.34721,0.34721,-2.3585,6.7669,7.3784,2.118,2.118,2.118,2.118,2.118,2.7634,3.3102,3.3102,3.3102,1.6794,0.34825,0.65521,0.13339,4.2319,3.5444,3.5444,3.5444,6.709,-4.8118,-4.7288,-3.6872,-3.6872,-3.6872,-3.6872,-3.6872,-2.6211,-2.2949,-2.2949,-2.2949,10.436,11.791,11.783,13.065,11.068,12.079,12.079,12.079,11.438,16.802,17.573,18.427,18.427,18.427,18.427,18.427,27.365,26.959,26.959,26.959,1.5503,0.1635,0.099669,3.8425,2.7802,0.28132,0.28132,0.28132,3.3751,8.979,9.7266,2.5899,2.5899,2.5899,2.5899,2.5899,2.7425,5.6507,5.6507,5.6507,-0.53344,0.69274,1.3283,-3.0818,2.7317,3.1044,3.1044,3.1044,5.8997,-5.8923,-6.7837,-2.5691,-2.5691,-2.5691,-2.5691,-2.5691,-2.456,-3.3355,-3.3355,-3.3355,0.99939,1.2496,0.92986,2.0406,-0.54339,0.79257,0.79257,0.79257,-1.1147,5.3581,5.5186,1.5124,1.5124,1.5124,1.5124,1.5124,1.9319,2.2167,2.2167,2.2167,0.83666,0.19386,0.4701,-1.5548,2.8123,2.5405,2.5405,2.5405,5.6458,-4.0154,-3.5347,-2.8002,-2.8002,-2.8002,-2.8002,-2.8002,-1.7108,-1.0235,-1.0235,-1.0235
4.0481,7.5462,5.9106,5.9106,9.0652,6.8518,6.8518,6.8518,15.888,15.888,15.888,17.499,17.499,21.927,12.302,12.302,23.234,21.648,19.987,16.73,0.1076,-1.1398,-0.046255,-0.046255,-2.1885,1.0873,1.0873,1.0873,2.4505,2.4505,2.4505,5.3505,5.3505,2.1757,10.589,10.589,1.8707,5.7189,5.3323,9.9629,0.86447,0.641,2.0454,2.0454,1.9961,4.3725,4.3725,4.3725,-5.3399,-5.3399,-5.3399,0.64839,0.64839,-0.39387,-1.0814,-1.0814,1.2974,-1.8835,-1.7336,-2.2133,-0.40985,-0.39435,-0.48373,-0.48373,-1.7118,-0.38375,-0.38375,-0.38375,2.4606,2.4606,2.4606,-0.94864,-0.94864,0.26395,2.0989,2.0989,-4.0293,-3.8057,3.3146,3.1443,1.9038,-0.84668,1.5732,1.5732,1.2901,3.4914,3.4914,3.4914,-6.219,-6.219,-6.219,-3.5416,-3.5416,-7.1284,0.46376,0.46376,-1.4344,5.0894,-0.94194,3.0159,3.0797,7.172,4.8947,4.8947,7.9353,5.3515,5.3515,5.3515,16.708,16.708,16.708,17.156,17.156,21.781,11.595,11.595,22.293,20.252,19.696,15.713,1.0392,-1.2735,0.91863,0.91863,-1.4177,3.4239,3.4239,3.4239,0.74224,0.74224,0.74224,5.5173,5.5173,1.7404,12.205,12.205,3.0567,8.2299,6.1188,12.096,0.16813,0.47999,2.0272,2.0272,1.7828,4.0042,4.0042,4.0042,-7.2328,-7.2328,-7.2328,-0.030743,-0.030743,-0.86858,-3.9357,-3.9357,-0.78326,-6.0833,-3.6417,-5.3794,0.47775,-0.21091,-0.53605,-0.53605,-1.4005,-0.50929,-0.50929,-0.50929,3.982,3.982,3.982,-2.7076,-2.7076,-0.82139,3.5481,3.5481,-3.3738,-0.51466,5.0149,5.6247,1.6339,-1.2563,1.6226,1.6226,1.7691,3.6532,3.6532,3.6532,-8.0548,-8.0548,-8.0548,-3.0458,-3.0458,-6.7865,-0.95353,-0.95353,-0.80598,4.7477,-2.6528,1.5966,3.4411,7.9293,5.1472,5.1472,8.1457,5.4929,5.4929,5.4929,18.87,18.87,18.87,18.618,18.618,22.596,12.896,12.896,22.949,21.596,20.978,17.127,0.96406,-2.2749,1.345,1.345,-1.5841,5.1448,5.1448,5.1448,-3.7406,-3.7406,-3.7406,3.9627,3.9627,0.34336,11.587,11.587,2.4838,7.1022,4.7757,11.347,-0.12994,0.89303,1.455,1.455,1.9759,2.0794,2.0794,2.0794,-5.6003,-5.6003,-5.6003,-1.1253,-1.1253,-0.97361,-6.4876,-6.4876,-2.1958,-7.9929,-3.9177,-7.2615,0.8586,-1.0195,-0.58985,-0.58985,-1.7774,-0.13439,-0.13439,-0.13439,2.9246,2.9246,2.9246,-3.5031,-3.5031,-2.4715,4.9186,4.9186,-3.0161,2.0066,4.6316,6.9287,0.87742,-1.4408,1.2407,1.2407,1.8596,2.8321,2.8321,2.8321,-9.3412,-9.3412,-9.3412,-3.5555,-3.5555,-5.8883,-3.3398,-3.3398,-0.90476,2.3798,-3.9011,-0.97762,5.9133,10.04,7.3622,7.3622,10.154,7.9645,7.9645,7.9645,21.404,21.404,21.404,21.372,21.372,25.291,16.681,16.681,25.691,24.955,24.174,21.294,0.957,-2.3344,1.9989,1.9989,-0.99012,6.0476,6.0476,6.0476,-6.3994,-6.3994,-6.3994,2.6625,2.6625,-1.0783,8.7329,8.7329,1.2578,4.571,2.869,8.2709,-0.41034,0.92462,0.47708,0.47708,1.2835,0.058669,0.058669,0.058669,-2.9935,-2.9935,-2.9935,-2.3329,-2.3329,-1.4257,-6.3562,-6.3562,-2.9743,-6.7108,-3.0898,-6.5489,1.1374,-1.5464,-0.31239,-0.31239,-1.1995,0.74397,0.74397,0.74397,0.48731,0.48731,0.48731,-2.7786,-2.7786,-2.6646,4.5855,4.5855,-1.8527,2.6058,3.2832,6.3619,0.21472,-0.81189,1.0017,1.0017,1.8667,1.707,1.707,1.707,-7.8378,-7.8378,-7.8378,-3.4708,-3.4708,-5.0151,-5.164,-5.164,-1.1971,0.6224,-4.1676,-3.1285,10.56,14.313,12.233,12.233,14.774,13.151,13.151,13.151,24.319,24.319,24.319,25.539,25.539,28.955,20.548,20.548,29.602,28.857,27.937,24.974,1.1077,-1.9085,2.2819,2.2819,-0.57652,6.7221,6.7221,6.7221,-5.3555,-5.3555,-5.3555,1.4323,1.4323,-1.3033,7.7672,7.7672,0.65464,3.6808,2.9734,7.8818,-0.22764,0.69912,-0.45897,-0.45897,0.74873,-2.223,-2.223,-2.223,-1.7551,-1.7551,-1.7551,-1.5263,-1.5263,-0.9716,-5.1966,-5.1966,-1.6794,-3.6863,-2.3858,-4.7931,1.1202,-1.4508,0.57748,0.57748,-0.14456,2.423,2.423,2.423,-1.5341,-1.5341,-1.5341,-2.3445,-2.3445,-2.4647,3.3959,3.3959,-1.5687,1.2078,2.116,4.0983,-0.24873,-0.34732,-0.032895,-0.032895,1.1394,-0.30708,-0.30708,-0.30708,-4.0607,-4.0607,-4.0607,-2.4819,-2.4819,-3.0904,-3.9096,-3.9096,-0.54615,1.2439,-2.6166,-1.3522
5.3602,6.6502,6.1169,6.215,6.215,6.3198,6.3198,6.3198,6.3198,6.3198,6.3198,19.352,19.352,19.352,19.352,19.352,19.352,19.352,13.97,22.883,-1.0087,-1.9042,2.6485,-2.739,-2.739,3.1543,3.1543,3.1543,3.1543,3.1543,3.1543,-5.5869,-5.5869,-5.5869,-5.5869,-5.5869,-5.5869,-5.5869,9.8842,5.6661,1.3582,1.8367,-0.091429,2.4734,2.4734,1.2774,1.2774,1.2774,1.2774,1.2774,1.2774,3.1506,3.1506,3.1506,3.1506,3.1506,3.1506,3.1506,-1.4329,-2.8436,-1.323,-1.6656,-0.080746,0.16413,0.16413,-0.40956,-0.40956,-0.40956,-0.40956,-0.40956,-0.40956,-9.7677,-9.7677,-9.7677,-9.7677,-9.7677,-9.7677,-9.7677,2.8681,-0.081048,1.3965,0.62103,1.1438,2.6177,2.6177,2.9771,2.9771,2.9771,2.9771,2.9771,2.9771,5.8517,5.8517,5.8517,5.8517,5.8517,5.8517,5.8517,-0.17626,3.2447,4.3998,5.8309,5.2949,5.1991,5.1991,5.0956,5.0956,5.0956,5.0956,5.0956,5.0956,18.135,18.135,18.135,18.135,18.135,18.135,18.135,13.616,21.839,-0.19643,-1.5153,4.1015,-2.3379,-2.3379,5.4758,5.4758,5.4758,5.4758,5.4758,5.4758,-3.8956,-3.8956,-3.8956,-3.8956,-3.8956,-3.8956,-3.8956,10.882,7.4452,0.85605,1.868,-1.8438,3.678,3.678,-0.71436,-0.71436,-0.71436,-0.71436,-0.71436,-0.71436,-0.052776,-0.052776,-0.052776,-0.052776,-0.052776,-0.052776,-0.052776,-3.9029,-5.9167,-0.94687,-1.7687,0.84643,0.34415,0.34415,0.64626,0.64626,0.64626,0.64626,0.64626,0.64626,-5.9387,-5.9387,-5.9387,-5.9387,-5.9387,-5.9387,-5.9387,4.394,2.749,1.6203,0.91296,0.76789,2.3942,2.3942,2.791,2.791,2.791,2.791,2.791,2.791,5.5268,5.5268,5.5268,5.5268,5.5268,5.5268,5.5268,-2.0273,2.3296,4.5744,6.0466,6.0227,4.8911,4.8911,5.9124,5.9124,5.9124,5.9124,5.9124,5.9124,18.38,18.38,18.38,18.38,18.38,18.38,18.38,15.591,23.286,-0.12432,-1.7009,3.9606,-1.8569,-1.8569,5.7747,5.7747,5.7747,5.7747,5.7747,5.7747,-4.6374,-4.6374,-4.6374,-4.6374,-4.6374,-4.6374,-4.6374,9.0855,6.0449,0.47041,2.0371,-3.4224,4.9255,4.9255,-2.8378,-2.8378,-2.8378,-2.8378,-2.8378,-2.8378,-0.73214,-0.73214,-0.73214,-0.73214,-0.73214,-0.73214,-0.73214,-5.2572,-6.9081,-0.78599,-2.4278,1.8633,-0.89343,-0.89343,2.2156,2.2156,2.2156,2.2156,2.2156,2.2156,-3.7586,-3.7586,-3.7586,-3.7586,-3.7586,-3.7586,-3.7586,4.8454,4.0873,1.5177,1.2891,-0.47122,2.7897,2.7897,0.91742,0.91742,0.91742,0.91742,0.91742,0.91742,4.906,4.906,4.906,4.906,4.906,4.906,4.906,-4.8577,0.13935,6.8474,8.1071,8.7015,6.4747,6.4747,8.8258,8.8258,8.8258,8.8258,8.8258,8.8258,20.886,20.886,20.886,20.886,20.886,20.886,20.886,19.078,26.608,0.1199,-1.1122,2.9493,0.036717,0.036717,4.8585,4.8585,4.8585,4.8585,4.8585,4.8585,-5.8071,-5.8071,-5.8071,-5.8071,-5.8071,-5.8071,-5.8071,6.6738,3.7943,-0.20718,1.1304,-3.5144,4.1645,4.1645,-3.3604,-3.3604,-3.3604,-3.3604,-3.3604,-3.3604,-0.52947,-0.52947,-0.52947,-0.52947,-0.52947,-0.52947,-0.52947,-5.1111,-5.7967,-0.13142,-1.9064,2.1655,-1.2755,-1.2755,2.8788,2.8788,2.8788,2.8788,2.8788,2.8788,-1.2854,-1.2854,-1.2854,-1.2854,-1.2854,-1.2854,-1.2854,4.1983,3.9617,1.1821,1.4449,-1.2409,3.3209,3.3209,-0.54153,-0.54153,-0.54153,-0.54153,-0.54153,-0.54153,3.6506,3.6506,3.6506,3.6506,3.6506,3.6506,3.6506,-5.9707,-1.1927,11.509,12.763,13.093,11.045,11.045,13.427,13.427,13.427,13.427,13.427,13.427,25.495,25.495,25.495,25.495,25.495,25.495,25.495,22.85,30.233,0.23654,-0.83704,2.3562,1.722,1.722,4.3729,4.3729,4.3729,4.3729,4.3729,4.3729,-6.4631,-6.4631,-6.4631,-6.4631,-6.4631,-6.4631,-6.4631,6.0687,3.5952,-0.31451,0.56008,-2.6451,2.3796,2.3796,-2.8127,-2.8127,-2.8127,-2.8127,-2.8127,-2.8127,1.5136,1.5136,1.5136,1.5136,1.5136,1.5136,1.5136,-4.1956,-3.2446,0.51319,-0.96511,1.8724,-0.20849,-0.20849,2.7561,2.7561,2.7561,2.7561,2.7561,2.7561,-0.057683,-0.057683,-0.057683,-0.057683,-0.057683,-0.057683,-0.057683,2.8401,1.964,0.50601,0.86149,-1.2646,2.3661,2.3661,-1.1002,-1.1002,-1.1002,-1.1002,-1.1002,-1.1002,2.2808,2.2808,2.2808,2.2808,2.2808,2.2808,2.2808,-4.231,0.17655
4.9196,12.462,5.9469,5.9469,6.652,6.652,6.652,6.8406,6.8406,16.85,16.85,16.85,16.342,16.342,16.342,16.342,17.078,17.078,17.078,22.871,-0.81355,-0.70867,-2.2553,-2.2553,-2.033,-2.033,-2.033,1.1311,1.1311,-7.5369,-7.5369,-7.5369,-7.0571,-7.0571,-7.0571,-7.0571,7.4884,7.4884,7.4884,5.09,1.4421,-5.0138,3.1741,3.1741,1.8475,1.8475,1.8475,3.5517,3.5517,3.1161,3.1161,3.1161,3.0643,3.0643,3.0643,3.0643,-0.58736,-0.58736,-0.58736,-1.1404,-1.0904,2.2233,-0.46636,-0.46636,0.76112,0.76112,0.76112,-0.28313,-0.28313,-10.936,-10.936,-10.936,-4.9683,-4.9683,-4.9683,-4.9683,1.5419,1.5419,1.5419,-1.6915,1.5837,-7.7026,1.7621,1.7621,3.6767,3.6767,3.6767,4.0386,4.0386,7.825,7.825,7.825,3.9801,3.9801,3.9801,3.9801,-1.1481,-1.1481,-1.1481,3.6316,4.0176,14.168,5.0477,5.0477,5.6471,5.6471,5.6471,5.2205,5.2205,15.848,15.848,15.848,15.405,15.405,15.405,15.405,16.943,16.943,16.943,21.733,-0.099305,-4.285,-1.9969,-1.9969,-1.6377,-1.6377,-1.6377,3.6229,3.6229,-6.3978,-6.3978,-6.3978,-6.8005,-6.8005,-6.8005,-6.8005,7.857,7.857,7.857,6.9085,1.1105,-5.5647,4.4139,4.4139,2.626,2.626,2.626,2.9411,2.9411,-0.62569,-0.62569,-0.62569,2.9277,2.9277,2.9277,2.9277,-2.261,-2.261,-2.261,-3.8437,-0.69917,3.4455,-0.93668,-0.93668,1.9042,1.9042,1.9042,0.075476,0.075476,-5.5196,-5.5196,-5.5196,-2.737,-2.737,-2.737,-2.737,2.2379,2.2379,2.2379,0.5857,1.6567,-10.367,1.7399,1.7399,2.9278,2.9278,2.9278,4.2556,4.2556,6.7299,6.7299,6.7299,3.4291,3.4291,3.4291,3.4291,-2.4556,-2.4556,-2.4556,3.0947,4.1026,16,4.8804,4.8804,5.6637,5.6637,5.6637,5.4466,5.4466,16.26,16.26,16.26,15.292,15.292,15.292,15.292,19.01,19.01,19.01,23.007,0.1141,-9.3533,-1.5288,-1.5288,-1.8423,-1.8423,-1.8423,5.0423,5.0423,-7.8921,-7.8921,-7.8921,-7.4995,-7.4995,-7.4995,-7.4995,5.6955,5.6955,5.6955,5.8593,0.84011,-1.7813,5.0907,5.0907,4.2621,4.2621,4.2621,1.2916,1.2916,-0.50135,-0.50135,-0.50135,4.8336,4.8336,4.8336,4.8336,-2.9691,-2.9691,-2.9691,-5.1005,-0.66373,0.5299,-2.1752,-2.1752,1.0512,1.0512,1.0512,0.76634,0.76634,-2.7923,-2.7923,-2.7923,-3.2655,-3.2655,-3.2655,-3.2655,1.922,1.922,1.922,1.9303,1.6216,-10.254,2.2127,2.2127,2.5144,2.5144,2.5144,3.1246,3.1246,5.5294,5.5294,5.5294,3.7366,3.7366,3.7366,3.7366,-4.5616,-4.5616,-4.5616,1.2136,6.325,18.038,6.6742,6.6742,7.3363,7.3363,7.3363,7.8538,7.8538,18.626,18.626,18.626,16.748,16.748,16.748,16.748,21.998,21.998,21.998,26.248,0.51589,-11.318,0.18729,0.18729,-0.46879,-0.46879,-0.46879,5.7907,5.7907,-9.3157,-9.3157,-9.3157,-6.7472,-6.7472,-6.7472,-6.7472,4.11,4.11,4.11,3.9584,0.15759,1.4959,3.8519,3.8519,4.6231,4.6231,4.6231,-0.15616,-0.15616,0.94647,0.94647,0.94647,5.5429,5.5429,5.5429,5.5429,-3.3606,-3.3606,-3.3606,-4.6551,-0.14079,-3.1541,-2.2696,-2.2696,0.12102,0.12102,0.12102,1.4664,1.4664,-0.58752,-0.58752,-0.58752,-3.0467,-3.0467,-3.0467,-3.0467,1.7504,1.7504,1.7504,2.2998,1.3637,-7.3672,2.5888,2.5888,2.7812,2.7812,2.7812,2.0318,2.0318,4.2309,4.2309,4.2309,4.3144,4.3144,4.3144,4.3144,-4.9876,-4.9876,-4.9876,-0.16055,11.002,21.094,11.451,11.451,11.634,11.634,11.634,12.853,12.853,23.369,23.369,23.369,20.989,20.989,20.989,20.989,25.798,25.798,25.798,30.086,0.7639,-9.7335,1.3641,1.3641,1.3379,1.3379,1.3379,6.5732,6.5732,-10.753,-10.753,-10.753,-5.5012,-5.5012,-5.5012,-5.5012,3.675,3.675,3.675,3.6469,-0.14415,1.975,2.1084,2.1084,3.8085,3.8085,3.8085,-1.9593,-1.9593,4.8249,4.8249,4.8249,5.5564,5.5564,5.5564,5.5564,-2.6589,-2.6589,-2.6589,-2.8582,0.54601,-5.1136,-1.0058,-1.0058,0.14174,0.14174,0.14174,2.8212,2.8212,-0.43577,-0.43577,-0.43577,-1.9642,-1.9642,-1.9642,-1.9642,0.90124,0.90124,0.90124,1.2638,0.65083,-3.3619,1.5181,1.5181,2.3478,2.3478,2.3478,0.26398,0.26398,2.8952,2.8952,2.8952,3.5123,3.5123,3.5123,3.5123,-3.3008,-3.3008,-3.3008,0.58352
4.8205,7.5423,6.4613,11.798,7.4512,7.4512,7.4512,7.4512,7.4512,7.4512,11.682,11.682,11.682,13.703,13.268,13.268,13.268,13.268,25.071,25.071,-0.48836,-2.9842,-1.4851,-5.5879,-0.54598,-0.54598,-0.54598,-0.54598,-0.54598,-0.54598,11.162,11.162,11.162,9.8114,10.226,10.226,10.226,10.226,1.3734,1.3734,1.2609,2.8623,1.2111,2.2281,2.1173,2.1173,2.1173,2.1173,2.1173,2.1173,-4.3051,-4.3051,-4.3051,-1.1285,-2.466,-2.466,-2.466,-2.466,-5.8985,-5.8985,-0.89599,-4.1171,-2.0731,-4.0898,-1.1717,-1.1717,-1.1717,-1.1717,-1.1717,-1.1717,4.7887,4.7887,4.7887,1.9916,4.8775,4.8775,4.8775,4.8775,3.2341,3.2341,1.6039,2.5839,3.5603,1.4413,1.8441,1.8441,1.8441,1.8441,1.8441,1.8441,-1.3373,-1.3373,-1.3373,-0.091223,-2.677,-2.677,-2.677,-2.677,0.68521,0.68521,3.9058,6.1194,5.0566,10.9,6.4499,6.4499,6.4499,6.4499,6.4499,6.4499,11.662,11.662,11.662,13.347,13.557,13.557,13.557,13.557,25.102,25.102,0.23653,-1.7886,0.044767,-5.3479,0.63736,0.63736,0.63736,0.63736,0.63736,0.63736,11.713,11.713,11.713,10.755,10.109,10.109,10.109,10.109,0.77358,0.77358,0.91047,2.486,-0.21572,1.5628,1.4956,1.4956,1.4956,1.4956,1.4956,1.4956,-6.8001,-6.8001,-6.8001,-3.4939,-4.1241,-4.1241,-4.1241,-4.1241,-6.8456,-6.8456,-0.46769,-4.3454,-0.50449,-2.9399,-0.84577,-0.84577,-0.84577,-0.84577,-0.84577,-0.84577,6.5567,6.5567,6.5567,3.2663,5.803,5.803,5.803,5.803,6.3213,6.3213,1.6413,4.0706,4.0346,1.8887,1.9807,1.9807,1.9807,1.9807,1.9807,1.9807,-3.7279,-3.7279,-3.7279,-1.6943,-5.2732,-5.2732,-5.2732,-5.2732,-1.7475,-1.7475,4.0565,5.904,5.1808,11.192,7.1555,7.1555,7.1555,7.1555,7.1555,7.1555,14.234,14.234,14.234,15.289,15.766,15.766,15.766,15.766,26.434,26.434,0.39756,-1.2149,0.025114,-6.398,0.41549,0.41549,0.41549,0.41549,0.41549,0.41549,8.7822,8.7822,8.7822,9.0384,7.6703,7.6703,7.6703,7.6703,-1.7777,-1.7777,0.59947,1.7213,-0.54265,2.3902,0.91931,0.91931,0.91931,0.91931,0.91931,0.91931,-7.6757,-7.6757,-7.6757,-5.0518,-4.742,-4.742,-4.742,-4.742,-4.7552,-4.7552,-0.35573,-3.9902,0.44291,-2.8964,-0.62934,-0.62934,-0.62934,-0.62934,-0.62934,-0.62934,7.0776,7.0776,7.0776,3.8054,5.2884,5.2884,5.2884,5.2884,5.6765,5.6765,1.461,4.6654,3.4891,1.9966,1.0958,1.0958,1.0958,1.0958,1.0958,1.0958,-7.2583,-7.2583,-7.2583,-4.3622,-7.8045,-7.8045,-7.8045,-7.8045,-3.1068,-3.1068,6.279,7.8424,7.4627,12.86,9.378,9.378,9.378,9.378,9.378,9.378,17.74,17.74,17.74,18.747,19.227,19.227,19.227,19.227,29.009,29.009,0.79652,-0.24035,0.09732,-5.9051,0.73768,0.73768,0.73768,0.73768,0.73768,0.73768,5.8129,5.8129,5.8129,6.6768,5.0795,5.0795,5.0795,5.0795,-3.2166,-3.2166,-0.075887,-0.13627,-0.85009,2.1791,0.18958,0.18958,0.18958,0.18958,0.18958,0.18958,-6.537,-6.537,-6.537,-5.1184,-4.2287,-4.2287,-4.2287,-4.2287,-2.0436,-2.0436,0.1553,-1.8371,1.6907,-1.8488,-0.31344,-0.31344,-0.31344,-0.31344,-0.31344,-0.31344,5.4499,5.4499,5.4499,3.4397,3.8917,3.8917,3.8917,3.8917,3.5001,3.5001,1.1763,4.2124,2.5498,2.4056,0.94005,0.94005,0.94005,0.94005,0.94005,0.94005,-8.0319,-8.0319,-8.0319,-5.4861,-8.4053,-8.4053,-8.4053,-8.4053,-2.6868,-2.6868,10.963,12.889,12.122,17.206,14.156,14.156,14.156,14.156,14.156,14.156,21.273,21.273,21.273,22.546,22.78,22.78,22.78,22.78,32.119,32.119,1.0089,-0.57275,0.071184,-5.6527,0.85943,0.85943,0.85943,0.85943,0.85943,0.85943,5.164,5.164,5.164,5.908,4.8593,4.8593,4.8593,4.8593,-1.2809,-1.2809,-0.31728,-0.5539,-0.11037,2.7288,-0.32242,-0.32242,-0.32242,-0.32242,-0.32242,-0.32242,-5.0265,-5.0265,-5.0265,-4.0545,-3.9249,-3.9249,-3.9249,-3.9249,-1.1333,-1.1333,0.75956,0.16885,2.1793,-0.8382,0.45208,0.45208,0.45208,0.45208,0.45208,0.45208,3.1505,3.1505,3.1505,2.1864,2.704,2.704,2.704,2.704,1.9146,1.9146,0.46755,2.4582,1.5212,1.9919,0.19248,0.19248,0.19248,0.19248,0.19248,0.19248,-5.5243,-5.5243,-5.5243,-3.8419,-5.9644,-5.9644,-5.9644,-5.9644,-0.65869,-0.65869
5.2468,5.3166,6.3884,9.3974,7.3218,7.3218,7.3218,8.5455,8.5455,15.42,15.42,15.42,7.7613,7.7613,7.7613,7.7613,16.076,16.076,21.826,18.154,-0.64288,1.2462,6.7048,-4.118,-0.77506,-0.77506,-0.77506,-4.1097,-4.1097,-5.5356,-5.5356,-5.5356,-1.1987,-1.1987,-1.1987,-1.1987,4.3319,4.3319,0.27608,7.9033,0.94507,0.57521,-2.3754,2.7273,2.3608,2.3608,2.3608,2.9149,2.9149,2.077,2.077,2.077,4.2458,4.2458,4.2458,4.2458,1.653,1.653,1.4453,-2.1025,-0.010552,-0.99911,-0.71392,-2.8078,-1.4719,-1.4719,-1.4719,-0.59844,-0.59844,-3.3402,-3.3402,-3.3402,-0.98583,-0.98583,-0.98583,-0.98583,-2.0975,-2.0975,0.10624,3.9459,0.14384,1.3195,0.027096,2.3749,3.6628,3.6628,3.6628,4.3351,4.3351,-2.09,-2.09,-2.09,4.9728,4.9728,4.9728,4.9728,6.6739,6.6739,3.3246,-1.3656,4.6576,4.3737,5.7458,8.3661,5.8499,5.8499,5.8499,7.5827,7.5827,14.83,14.83,14.83,5.9607,5.9607,5.9607,5.9607,14.827,14.827,20.645,18.208,-0.39709,2.5235,8.3,-3.5794,0.89637,0.89637,0.89637,-3.9409,-3.9409,-5.6219,-5.6219,-5.6219,1.0342,1.0342,1.0342,1.0342,7.3745,7.3745,1.3914,8.0433,0.82933,-0.94437,-6.2397,2.5749,1.921,1.921,1.921,4.1462,4.1462,1.7569,1.7569,1.7569,4.3975,4.3975,4.3975,4.3975,-1.736,-1.736,0.77832,-3.8274,0.28856,-0.2887,0.8963,-1.991,-0.77006,-0.77006,-0.77006,0.44619,0.44619,-3.3853,-3.3853,-3.3853,-0.69836,-0.69836,-0.69836,-0.69836,0.83685,0.83685,1.3423,5.3971,-0.33856,1.3585,-0.45051,2.6884,4.1125,4.1125,4.1125,3.7382,3.7382,-1.4181,-1.4181,-1.4181,5.4578,5.4578,5.4578,5.4578,5.6059,5.6059,2.8248,-3.5385,4.9565,4.9215,7.0815,8.496,6.0578,6.0578,6.0578,7.5008,7.5008,15.085,15.085,15.085,5.9389,5.9389,5.9389,5.9389,15.692,15.692,21.386,20.507,-0.6055,2.5135,6.7422,-4.0195,1.343,1.343,1.343,-4.2524,-4.2524,-6.638,-6.638,-6.638,2.293,2.293,2.293,2.293,7.5699,7.5699,1.1666,5.474,1.0035,-2.4619,-8.6466,3.3988,1.436,1.436,1.436,6.3469,6.3469,2.5368,2.5368,2.5368,3.8067,3.8067,3.8067,3.8067,-3.621,-3.621,0.59241,-4.026,-0.28438,0.73742,3.1323,-2.3314,-0.35181,-0.35181,-0.35181,-0.72843,-0.72843,-4.4387,-4.4387,-4.4387,-0.61841,-0.61841,-0.61841,-0.61841,2.483,2.483,1.1347,4.9812,-0.46865,0.47092,-2.5297,2.825,3.4928,3.4928,3.4928,3.6679,3.6679,-0.47904,-0.47904,-0.47904,4.8368,4.8368,4.8368,4.8368,3.4991,3.4991,1.8809,-6.1071,7.1682,7.5246,10.338,10.19,8.1553,8.1553,8.1553,8.7649,8.7649,16.524,16.524,16.524,7.9814,7.9814,7.9814,7.9814,19.069,19.069,24.132,23.612,-0.28021,1.7718,3.3446,-2.9727,2.0817,2.0817,2.0817,-2.2522,-2.2522,-6.0485,-6.0485,-6.0485,3.8174,3.8174,3.8174,3.8174,6.0269,6.0269,0.62807,3.5905,0.57021,-2.7909,-7.24,2.7644,0.65329,0.65329,0.65329,6.4281,6.4281,2.0346,2.0346,2.0346,2.3157,2.3157,2.3157,2.3157,-3.7068,-3.7068,0.64815,-3.5507,-0.52887,1.4045,3.3924,-1.5521,0.47644,0.47644,0.47644,-1.3532,-1.3532,-4.0907,-4.0907,-4.0907,0.12633,0.12633,0.12633,0.12633,3.0738,3.0738,0.91906,3.8668,-0.27059,-0.26042,-3.7356,3.0787,2.8728,2.8728,2.8728,4.4062,4.4062,1.023,1.023,1.023,4.0476,4.0476,4.0476,4.0476,1.5463,1.5463,1.1883,-6.4881,11.6,12.158,14.111,14.724,13.016,13.016,13.016,13.129,13.129,20.766,20.766,20.766,13.027,13.027,13.027,13.027,23.269,23.269,28.229,27.132,0.37778,1.1619,2.1874,-2.3268,2.4709,2.4709,2.4709,-0.15941,-0.15941,-5.6982,-5.6982,-5.6982,5.0808,5.0808,5.0808,5.0808,5.8433,5.8433,1.765,3.7898,-0.12166,-2.0564,-4.4229,2.53,0.138,0.138,0.138,5.1235,5.1235,1.5746,1.5746,1.5746,0.28636,0.28636,0.28636,0.28636,-2.6193,-2.6193,0.23083,-3.0745,-0.059066,1.5046,1.8349,-0.47674,1.4603,1.4603,1.4603,-0.71401,-0.71401,-2.6118,-2.6118,-2.6118,1.5535,1.5535,1.5535,1.5535,2.2443,2.2443,0.92562,2.516,-0.31013,-0.70247,-2.3977,2.2853,1.4814,1.4814,1.4814,3.6199,3.6199,1.165,1.165,1.165,2.1237,2.1237,2.1237,2.1237,1.5853,1.5853,1.2239,-4.1183
5.0894,7.7595,7.7611,8.7934,4.9378,4.9378,4.9378,7.0301,7.0301,9.5313,9.5313,13.206,13.206,13.206,13.206,17.631,22.879,22.879,22.879,23.026,-0.65023,-3.075,-2.3904,-3.2998,2.2079,2.2079,2.2079,-0.018221,-0.018221,10.539,10.539,10.154,10.154,10.154,10.154,6.8375,2.1236,2.1236,2.1236,4.725,1.6222,2.0334,1.8149,1.7562,1.8546,1.8546,1.8546,5.5758,5.5758,-1.7435,-1.7435,-1.2719,-1.2719,-1.2719,-1.2719,-0.86513,1.572,1.572,1.572,-2.9474,-1.2656,-3.0956,-4.1264,-2.9698,-0.25055,-0.25055,-0.25055,-0.37018,-0.37018,3.3541,3.3541,1.9435,1.9435,1.9435,1.9435,2.1459,-2.9787,-2.9787,-2.9787,-1.635,1.4162,1.7112,3.9177,1.8192,0.61745,0.61745,0.61745,3.5971,3.5971,0.43786,0.43786,-0.12008,-0.12008,-0.12008,-0.12008,-2.6574,-1.5855,-1.5855,-1.5855,3.261,4.0947,6.6551,6.3281,7.734,4.0182,4.0182,4.0182,5.4441,5.4441,9.0258,9.0258,12.782,12.782,12.782,12.782,17.523,22.483,22.483,22.483,22.239,0.1635,-2.2723,-0.7307,-2.4976,3.8357,3.8357,3.8357,2.2583,2.2583,12.62,12.62,11.254,11.254,11.254,11.254,6.9059,2.3836,2.3836,2.3836,5.9863,1.3319,1.357,-0.17612,0.76826,0.38385,0.38385,0.38385,5.7736,5.7736,-5.4658,-5.4658,-3.8704,-3.8704,-3.8704,-3.8704,-1.8997,0.50874,0.50874,0.50874,-5.8439,-1.1915,-2.5624,-2.0744,-1.8605,-0.1184,-0.1184,-0.1184,-1.0123,-1.0123,5.8552,5.8552,3.4148,3.4148,3.4148,3.4148,1.8431,-2.8834,-2.8834,-2.8834,1.7859,1.7224,2.4557,4.4746,2.2723,0.53002,0.53002,0.53002,3.8948,3.8948,-1.9444,-1.9444,-1.659,-1.659,-1.659,-1.659,-3.5118,-1.6361,-1.6361,-1.6361,1.9795,4.1881,6.7186,6.6045,7.9622,4.768,4.768,4.768,5.381,5.381,10.805,10.805,14.72,14.72,14.72,14.72,19.451,23.196,23.196,23.196,23.64,0.50592,-2.4029,-0.91562,-2.9942,4.0289,4.0289,4.0289,4.3599,4.3599,11.315,11.315,9.5732,9.5732,9.5732,9.5732,4.8277,1.7074,1.7074,1.7074,4.2964,0.73566,1.2339,-0.97246,0.94872,-1.6045,-1.6045,-1.6045,3.8171,3.8171,-7.6333,-7.6333,-5.5761,-5.5761,-5.5761,-5.5761,-2.615,-0.45394,-0.45394,-0.45394,-6.3388,-1.1295,-2.3173,-0.38597,-1.5767,0.71061,0.71061,0.71061,-0.97351,-0.97351,7.3201,7.3201,4.1097,4.1097,4.1097,4.1097,1.3772,-3.2549,-3.2549,-3.2549,2.9633,1.7297,2.6837,3.6114,2.2012,-0.67633,-0.67633,-0.67633,3.3827,3.3827,-5.3979,-5.3979,-4.3727,-4.3727,-4.3727,-4.3727,-5.1384,-1.531,-1.531,-1.531,0.0025284,6.5007,8.8177,9.0581,10.046,7.5707,7.5707,7.5707,7.7291,7.7291,14.355,14.355,18.184,18.184,18.184,18.184,22.52,25.93,25.93,25.93,26.702,0.88518,-2.0471,-1.2512,-2.8314,3.3801,3.3801,3.3801,5.8607,5.8607,8.6171,8.6171,7.1474,7.1474,7.1474,7.1474,2.999,0.6775,0.6775,0.6775,2.2523,-0.26687,0.41078,-1.3534,0.58049,-2.6106,-2.6106,-2.6106,1.2748,1.2748,-7.1998,-7.1998,-5.6056,-5.6056,-5.6056,-5.6056,-2.6863,-1.4364,-1.4364,-1.4364,-4.9517,-0.41015,-0.95192,1.5115,-0.52278,1.1767,1.1767,1.1767,-0.014975,-0.014975,6.6251,6.6251,3.7324,3.7324,3.7324,3.7324,0.84591,-2.2953,-2.2953,-2.2953,2.6984,1.3543,2.3468,2.2572,1.9643,-1.4755,-1.4755,-1.4755,2.3505,2.3505,-7.1793,-7.1793,-5.4631,-5.4631,-5.4631,-5.4631,-5.4398,-1.6899,-1.6899,-1.6899,-0.88146,11.266,13.511,13.899,14.552,12.339,12.339,12.339,13.074,13.074,18.167,18.167,21.982,21.982,21.982,21.982,26.225,29.79,29.79,29.79,30.381,0.92056,-2.1772,-1.9977,-2.7836,2.7693,2.7693,2.7693,6.8849,6.8849,7.8847,7.8847,6.2789,6.2789,6.2789,6.2789,2.7732,0.4842,0.4842,0.4842,2.1977,-0.58747,0.6979,0.088012,1.106,-2.7958,-2.7958,-2.7958,-1.8405,-1.8405,-6.338,-6.338,-4.361,-4.361,-4.361,-4.361,-2.3351,-1.0107,-1.0107,-1.0107,-2.959,0.35711,0.076318,1.9383,0.17455,1.5592,1.5592,1.5592,2.2157,2.2157,5.2939,5.2939,2.2909,2.2909,2.2909,2.2909,0.33671,-1.7186,-1.7186,-1.7186,1.4039,0.53562,1.4377,1.0613,1.4273,-1.949,-1.949,-1.949,-0.022598,-0.022598,-6.0492,-6.0492,-3.7017,-3.7017,-3.7017,-3.7017,-3.5732,-0.90902,-0.90902,-0.90902,0.18999
3.7662,4.9601,6.6428,6.6428,6.6961,6.6961,10.98,21.047,11.099,11.099,22.452,20.865,17.217,17.217,17.217,17.217,17.217,22.678,22.678,23.947,-0.07798,-0.54218,-1.6714,-1.6714,-1.7678,-1.7678,-4.7671,-4.1618,-4.535,-4.535,-5.9309,-7.0872,-6.1954,-6.1954,-6.1954,-6.1954,-6.1954,1.5845,1.5845,2.2788,1.3425,1.8631,1.3365,1.3365,0.85809,0.85809,2.8749,-2.0008,1.502,1.502,4.1733,0.99904,2.089,2.089,2.089,2.089,2.089,0.83683,0.83683,3.1267,-0.96003,0.46014,-2.5367,-2.5367,-0.12772,-0.12772,-3.9738,-2.5352,-3.527,-3.527,-6.1171,-1.3348,-4.6724,-4.6724,-4.6724,-4.6724,-4.6724,-4.1223,-4.1223,-4.912,2.4499,1.4354,3.8693,3.8693,4.1281,4.1281,4.7048,-8.2959,6.6235,6.6235,-6.0202,-8.8543,-0.10118,-0.10118,-0.10118,-0.10118,-0.10118,3.6301,3.6301,2.7911,2.613,4.1179,5.2028,5.2028,6.0485,6.0485,9.9906,21.175,10.502,10.502,21.769,20.668,16.632,16.632,16.632,16.632,16.632,21.703,21.703,22.493,1.0799,-0.056824,-0.040006,-0.040006,-1.7772,-1.7772,-4.3682,-5.2898,-4.6357,-4.6357,-5.5917,-8.1909,-6.3182,-6.3182,-6.3182,-6.3182,-6.3182,3.5903,3.5903,4.444,0.74313,2.4306,-0.40049,-0.40049,1.1694,1.1694,2.6854,-3.7118,0.88916,0.88916,3.9012,1.8156,1.4911,1.4911,1.4911,1.4911,1.4911,-2.2808,-2.2808,0.89001,-0.30188,0.23727,-0.47533,-0.47533,1.4817,1.4817,-2.1276,-2.6047,-0.066942,-0.066942,-8.4304,-3.0227,-3.5507,-3.5507,-3.5507,-3.5507,-3.5507,-1.2299,-1.2299,-4.1542,2.6148,1.1925,4.1387,4.1387,2.9001,2.9001,4.3507,-7.6227,4.9485,4.9485,-3.94,-7.9686,0.075427,0.075427,0.075427,0.075427,0.075427,2.9094,2.9094,3.4969,2.7048,4.2865,5.5213,5.5213,6.395,6.395,10.385,21.778,11.178,11.178,21.207,20.446,16.859,16.859,16.859,16.859,16.859,22.686,22.686,23.206,1.5032,0.11761,-0.34423,-0.34423,-2.6422,-2.6422,-5.3085,-8.0773,-6.4532,-6.4532,-5.3462,-9.4946,-7.5197,-7.5197,-7.5197,-7.5197,-7.5197,2.5198,2.5198,4.4056,0.11749,2.8447,-0.64552,-0.64552,3.0473,3.0473,3.7985,-2.9273,3.1343,3.1343,2.923,3.7745,2.3988,2.3988,2.3988,2.3988,2.3988,-2.8091,-2.8091,-1.0353,0.22385,-0.71792,0.748,0.748,0.68428,0.68428,-1.8514,-3.6992,0.1343,0.1343,-9.6447,-6.3354,-3.7925,-3.7925,-3.7925,-3.7925,-3.7925,-0.43642,-0.43642,-3.1201,2.2376,1.1242,3.1832,3.1832,2.2064,2.2064,3.6898,-6.2787,3.6034,3.6034,-1.1265,-5.1998,0.62661,0.62661,0.62661,0.62661,0.62661,1.6844,1.6844,2.7832,4.9588,6.406,7.9317,7.9317,8.1974,8.1974,11.912,23.427,12.708,12.708,22.78,21.632,18.465,18.465,18.465,18.465,18.465,25.576,25.576,26.331,1.9869,1.0618,-0.55956,-0.55956,-1.9161,-1.9161,-4.2194,-9.4672,-6.0772,-6.0772,-5.0847,-9.1628,-7.3475,-7.3475,-7.3475,-7.3475,-7.3475,1.2383,1.2383,3.1657,-0.71365,2.0803,-0.61386,-0.61386,3.8856,3.8856,3.7727,-2.1075,4.8205,4.8205,0.86751,3.6839,2.5903,2.5903,2.5903,2.5903,2.5903,-2.7406,-2.7406,-2.036,1.0643,-0.91342,1.8432,1.8432,-0.2792,-0.2792,-1.1102,-4.1329,-0.1913,-0.1913,-7.9511,-7.7248,-3.2105,-3.2105,-3.2105,-3.2105,-3.2105,0.38622,0.38622,-1.5264,1.6327,1.1071,2.0465,2.0465,2.5153,2.5153,3.8085,-3.8513,3.8497,3.8497,0.5635,-1.8764,1.5893,1.5893,1.5893,1.5893,1.5893,0.67471,0.67471,1.3224,9.6301,10.983,12.593,12.593,12.309,12.309,16.558,26.346,16.975,16.975,26.572,24.833,22.855,22.855,22.855,22.855,22.855,29.564,29.564,30.418,2.2558,2.1246,-0.75479,-0.75479,-0.47358,-0.47358,-3.8636,-8.3692,-5.5152,-5.5152,-4.8698,-7.4939,-6.8025,-6.8025,-6.8025,-6.8025,-6.8025,1.1085,1.1085,2.7483,-0.92551,0.77464,0.54208,0.54208,4.0172,4.0172,4.4122,-1.6668,6.7079,6.7079,-0.29138,1.9335,2.4362,2.4362,2.4362,2.4362,2.4362,-1.4992,-1.4992,-1.1902,1.7608,-0.26782,1.9415,1.9415,-0.84123,-0.84123,-0.50482,-3.8009,-0.89537,-0.89537,-4.7376,-6.1999,-1.6782,-1.6782,-1.6782,-1.6782,-1.6782,0.27428,0.27428,-1.0877,0.73293,0.60919,1.1397,1.1397,2.7019,2.7019,2.7837,-0.86151,3.4951,3.4951,0.91316,0.39418,1.2036,1.2036,1.2036,1.2036,1.2036,0.88915,0.88915,1.2962
