3.5943,4.878,7.7272,11.511,11.511,10.277,5.8184,8.3078,8.3078,7.768,5.8928,2.1898,2.681,2.681,2.681,2.681,2.681,4.086,2.537,3.3896,2.5375,2.5218,2.1279,1.4482,1.4482,3.4803,5.9743,8.3097,8.3097,14.522,13.464,20.56,15.915,15.915,15.915,15.915,15.915,17.427,18.776,18.564,-8.9187,-9.8145,-11.556,-14.506,-14.506,-14.922,-8.9338,-15.65,-15.65,-23.509,-15.587,-19.521,-17.081,-17.081,-17.081,-17.081,-17.081,-9.5909,-12.819,-14.895,5.7447,6.0931,6.5838,8.2656,8.2656,8.8161,3.3208,8.0626,8.0626,13.709,6.6829,12.212,13.9,13.9,13.9,13.9,13.9,2.5672,11.116,14.02,-6.5216,-7.1382,-8.6987,-11.233,-11.233,-10.482,-7.7158,-9.7501,-9.7501,-13.078,-8.2538,-7.6041,-6.1179,-6.1179,-6.1179,-6.1179,-6.1179,-6.5772,-7.1028,-5.9464,3.9827,5.6395,8.466,12.563,12.563,10.415,6.6793,8.0458,8.0458,7.0323,5.5971,1.7,2.4747,2.4747,2.4747,2.4747,2.4747,5.4556,2.3761,2.9965,1.7408,1.5456,1.2725,0.20548,0.20548,4.7645,5.2593,9.5641,9.5641,17.242,13.571,21.867,16.992,16.992,16.992,16.992,16.992,15.213,19.22,19.48,-9.5996,-10.94,-12.53,-16.659,-16.659,-17.364,-8.3101,-15.401,-15.401,-24.612,-12.474,-18.75,-17.852,-17.852,-17.852,-17.852,-17.852,-7.5507,-12.802,-15.519,8.2183,9.0631,9.6843,13.294,13.294,12.222,6.7301,9.6413,9.6413,16.045,6.9705,13.288,15.143,15.143,15.143,15.143,15.143,7.3367,13.465,15.363,-8.9737,-10.243,-12.112,-16.351,-16.351,-13.445,-11.694,-11.456,-11.456,-14.24,-9.4908,-7.3656,-5.4302,-5.4302,-5.4302,-5.4302,-5.4302,-11.265,-7.2589,-4.865,4.01,5.7332,8.3876,12.433,12.433,9.2625,7.0612,7.28,7.28,5.3804,5.4794,1.0168,2.0652,2.0652,2.0652,2.0652,2.0652,6.3395,2.237,2.7636,3.6991,3.875,4.4934,4.6888,4.6888,9.4125,6.7199,12.268,12.268,21.688,14.661,23.641,18.771,18.771,18.771,18.771,18.771,15.487,20.066,20.457,-12.497,-14.481,-16.734,-23.377,-23.377,-21.044,-10.507,-15.757,-15.757,-25.333,-11.494,-17.508,-17.635,-17.635,-17.635,-17.635,-17.635,-9.8422,-12.808,-15.035,10.289,11.472,12.506,18.262,18.262,13.715,10.824,10.144,10.144,15.743,8.0617,11.865,12.752,12.752,12.752,12.752,12.752,13.582,13.476,13.362,-9.9858,-11.422,-13.412,-18.72,-18.72,-13.07,-14.236,-11.242,-11.242,-12.2,-10.283,-4.901,-2.2561,-2.2561,-2.2561,-2.2561,-2.2561,-14.522,-5.3009,-1.6896,1.19,2.5795,4.6825,7.2926,7.2926,4.7567,4.2456,4.0545,4.0545,1.5049,3.1981,-0.58676,0.75314,0.75314,0.75314,0.75314,0.75314,3.8492,0.73633,1.6741,9.0453,9.7416,11.289,14.296,14.296,16.461,11.634,16.904,16.904,26.616,17.807,25.287,20.678,20.678,20.678,20.678,20.678,19.557,21.826,21.611,-13.598,-15.512,-17.716,-25.669,-25.669,-20.457,-11.633,-13.915,-13.915,-21.121,-9.6599,-13.613,-14.4,-14.4,-14.4,-14.4,-14.4,-11.496,-10.765,-11.935,9.3825,10.122,10.834,16.302,16.302,10.239,12.419,8.3731,8.3731,11.031,7.9839,8.4056,8.1244,8.1244,8.1244,8.1244,8.1244,16.752,10.993,9.3329,-6.1378,-7.0169,-8.3804,-11.943,-11.943,-6.4841,-11.217,-6.8179,-6.8179,-5.4492,-7.4804,-0.15963,2.6504,2.6504,2.6504,2.6504,2.6504,-11.626,-0.18546,3.2559,-0.82279,0.45365,2.2379,3.2474,3.2474,2.3332,2.3621,2.7813,2.7813,0.12325,2.7209,0.25171,1.8369,1.8369,1.8369,1.8369,1.8369,2.5298,1.6129,3.2057,12.928,13.703,15.548,20.491,20.491,19.947,15.252,19.009,19.009,27.743,19.058,24.199,19.792,19.792,19.792,19.792,19.792,22.293,21.085,19.99,-10.036,-11.378,-12.661,-19.567,-19.567,-13.871,-9.2549,-9.0019,-9.0019,-12.911,-6.5398,-8.1583,-8.6446,-8.6446,-8.6446,-8.6446,-8.6446,-10.401,-6.7113,-6.9243,4.5886,4.6961,4.5744,7.6639,7.6639,2.774,10.448,4.9053,4.9053,4.7471,7.3488,5.0731,3.3216,3.3216,3.3216,3.3216,3.3216,16.651,7.371,5.2181,-0.20864,-0.81225,-1.6566,-2.4878,-2.4878,0.53133,-6.0568,-2.3758,-2.3758,0.5643,-4.7389,3.1489,5.7016,5.7016,5.7016,5.7016,5.7016,-7.0254,3.9019,6.1563
3.7035,5.7612,11.436,11.436,13.215,13.676,13.676,15.759,14.729,14.729,14.729,14.729,14.729,14.729,3.4174,3.4174,3.4174,3.4417,3.4417,4.2653,2.4616,2.2495,0.9302,0.9302,2.3255,2.1492,2.1492,0.99966,4.9094,4.9094,4.9094,4.9094,4.9094,4.9094,18.757,18.757,18.757,19.358,19.358,16.389,-8.8401,-10.254,-13.291,-13.291,-17.633,-16.811,-16.811,-17.451,-20.646,-20.646,-20.646,-20.646,-20.646,-20.646,-18.65,-18.65,-18.65,-20.429,-20.429,-10.797,5.6574,6.4824,8.2118,8.2118,10.796,9.6224,9.6224,10.191,11.313,11.313,11.313,11.313,11.313,11.313,14.512,14.512,14.512,16.97,16.97,11.544,-6.4433,-7.6691,-10.612,-10.612,-13.847,-12.069,-12.069,-14.018,-13.853,-13.853,-13.853,-13.853,-13.853,-13.853,-6.9402,-6.9402,-6.9402,-7.817,-7.817,-11.139,4.1968,6.4611,12.508,12.508,14.752,14.026,14.026,16.56,13.435,13.435,13.435,13.435,13.435,13.435,2.9734,2.9734,2.9734,2.6772,2.6772,4.329,1.5205,1.0109,-0.20547,-0.20547,1.1547,2.8525,2.8525,1.3502,8.6725,8.6725,8.6725,8.6725,8.6725,8.6725,19.921,19.921,19.921,21.434,21.434,17.058,-9.4239,-11.034,-15.547,-15.547,-21.012,-19.315,-19.315,-20.464,-22.155,-22.155,-22.155,-22.155,-22.155,-22.155,-18.725,-18.725,-18.725,-21.644,-21.644,-13.143,7.9748,9.2447,12.835,12.835,17.014,13.656,13.656,14.917,12.941,12.941,12.941,12.941,12.941,12.941,15.448,15.448,15.448,17.722,17.722,17.769,-8.8808,-10.685,-15.313,-15.313,-20.046,-15.799,-15.799,-18.672,-14.77,-14.77,-14.77,-14.77,-14.77,-14.77,-5.953,-5.953,-5.953,-6.0816,-6.0816,-13.21,4.254,6.5585,12.331,12.331,14.277,12.771,12.771,15.245,11.068,11.068,11.068,11.068,11.068,11.068,2.402,2.402,2.402,1.8629,1.8629,2.9175,3.4019,3.2163,3.9569,3.9569,7.0604,8.0784,8.0784,7.0237,14.113,14.113,14.113,14.113,14.113,14.113,21.667,21.667,21.667,23.655,23.655,20.397,-12.207,-14.466,-21.675,-21.675,-29.175,-23.373,-23.373,-25.445,-22.469,-22.469,-22.469,-22.469,-22.469,-22.469,-17.953,-17.953,-17.953,-20.88,-20.88,-16.35,9.8552,11.612,16.994,16.994,22.699,15.307,15.307,17.332,11.285,11.285,11.285,11.285,11.285,11.285,12.934,12.934,12.934,14.281,14.281,20.822,-9.7783,-11.898,-17.185,-17.185,-22.272,-15.547,-15.547,-18.748,-12.141,-12.141,-12.141,-12.141,-12.141,-12.141,-2.4692,-2.4692,-2.4692,-1.8699,-1.8699,-10.915,1.4907,3.5392,7.3025,7.3025,8.0384,7.1044,7.1044,9.091,5.8885,5.8885,5.8885,5.8885,5.8885,5.8885,1.0935,1.0935,1.0935,0.34593,0.34593,-0.82566,8.6579,9.1803,13.107,13.107,18.209,17.043,17.043,16.979,20.503,20.503,20.503,20.503,20.503,20.503,23.157,23.157,23.157,25.22,25.22,25.303,-13.243,-15.852,-23.912,-23.912,-31.234,-22.197,-22.197,-25.064,-17.279,-17.279,-17.279,-17.279,-17.279,-17.279,-14.179,-14.179,-14.179,-16.006,-16.006,-15.889,8.8574,10.529,15.222,15.222,19.639,10.338,10.338,12.899,4.6744,4.6744,4.6744,4.6744,4.6744,4.6744,8.4251,8.4251,8.4251,8.1526,8.1526,18.486,-5.9248,-7.7473,-10.672,-10.672,-13.711,-7.2353,-7.2353,-10.201,-4.1419,-4.1419,-4.1419,-4.1419,-4.1419,-4.1419,2.5485,2.5485,2.5485,3.9396,3.9396,-2.9351,-0.43646,1.4239,3.3388,3.3388,3.5193,4.2407,4.2407,5.5507,4.2394,4.2394,4.2394,4.2394,4.2394,4.2394,2.4176,2.4176,2.4176,1.8517,1.8517,-2.0666,12.461,13.296,19.475,19.475,24.783,20.631,20.631,21.376,21.426,21.426,21.426,21.426,21.426,21.426,21.669,21.669,21.669,23.13,23.13,26.782,-9.7251,-11.953,-18.942,-18.942,-23.849,-13.8,-13.8,-16.357,-7.0692,-7.0692,-7.0692,-7.0692,-7.0692,-7.0692,-8.405,-8.405,-8.405,-8.8262,-8.8262,-11.425,4.1665,5.242,7.9033,7.9033,9.5399,1.1247,1.1247,3.2646,-3.6636,-3.6636,-3.6636,-3.6636,-3.6636,-3.6636,4.1751,4.1751,4.1751,2.9434,2.9434,13.219,-0.1748,-1.6155,-1.9692,-1.9692,-3.1563,0.64833,0.64833,-1.4197,1.684,1.684,1.684,1.684,1.684,1.684,5.4234,5.4234,5.4234,6.702,6.702,4.4739
4.6739,5.8507,8.422,8.422,10.202,10.202,10.202,13.471,11.853,18.318,18.318,18.318,18.318,18.318,0.82959,4.0302,3.3468,2.1585,3.2255,3.2255,2.1352,2.188,2.0523,2.0523,3.5099,3.5099,3.5099,5.8941,4.3326,1.3484,1.3484,1.3484,1.3484,1.3484,16.671,18.05,18.927,19.643,17.696,17.696,-9.0693,-10.213,-12.326,-12.326,-15.134,-15.134,-15.134,-23.117,-17.367,-21.05,-21.05,-21.05,-21.05,-21.05,-15.102,-20.09,-20.016,-15.163,-12.809,-12.809,5.4509,6.454,7.1684,7.1684,8.5454,8.5454,8.5454,13.371,9.9666,12.454,12.454,12.454,12.454,12.454,15.425,15.205,14.298,9.6446,8.4996,8.4996,-6.6457,-7.6947,-8.9294,-8.9294,-10.25,-10.25,-10.25,-16.921,-11.534,-17.547,-17.547,-17.547,-17.547,-17.547,-8.0599,-8.5941,-7.2719,-7.1202,-5.1789,-5.1789,5.4328,6.7392,9.4919,9.4919,10.435,10.435,10.435,14.55,11.511,18.495,18.495,18.495,18.495,18.495,0.48214,3.5359,2.503,1.842,2.819,2.819,0.76822,0.96592,0.55709,0.55709,4.5224,4.5224,4.5224,7.3646,6.859,3.6191,3.6191,3.6191,3.6191,3.6191,17.757,19.888,20.966,20.229,18.103,18.103,-9.6769,-11.348,-13.593,-13.593,-17.371,-17.371,-17.371,-27.942,-19.873,-25.288,-25.288,-25.288,-25.288,-25.288,-16.381,-21.389,-20.117,-13.79,-10.985,-10.985,8.1707,9.5423,10.826,10.826,11.941,11.941,11.941,20.384,13.045,17.776,17.776,17.776,17.776,17.776,18.095,16.691,14.362,10.705,8.3337,8.3337,-9.6487,-11.056,-12.956,-12.956,-13.319,-13.319,-13.319,-22.952,-13.959,-21.915,-21.915,-21.915,-21.915,-21.915,-7.5458,-7.7746,-5.5569,-7.1611,-4.3382,-4.3382,5.6179,6.9154,9.505,9.505,9.192,9.192,9.192,12.301,9.6167,16.242,16.242,16.242,16.242,16.242,-0.37524,2.7961,1.7157,1.7003,3.012,3.012,2.8985,3.3956,3.7984,3.7984,8.9766,8.9766,8.9766,15.677,12.227,10.959,10.959,10.959,10.959,10.959,20.127,22.216,22.832,20.958,17.926,17.926,-13.24,-15.235,-18.425,-18.425,-20.263,-20.263,-20.263,-34.998,-22.271,-30.463,-30.463,-30.463,-30.463,-30.463,-17.281,-20.96,-18.388,-12.851,-9.1317,-9.1317,10.791,12.202,14.114,14.114,12.847,12.847,12.847,24.082,13.028,19.874,19.874,19.874,19.874,19.874,16.896,14.166,10.853,10.646,7.0472,7.0472,-11.04,-12.459,-14.525,-14.525,-12.63,-12.63,-12.63,-22.255,-12.248,-20.874,-20.874,-20.874,-20.874,-20.874,-3.859,-4.2584,-1.7025,-5.8229,-2.7602,-2.7602,2.566,3.6758,5.525,5.525,4.5218,4.5218,4.5218,5.0606,4.5317,9.2929,9.2929,9.2929,9.2929,9.2929,-2.2323,0.92076,0.41938,0.25272,2.2085,2.2085,8.8012,9.549,11.427,11.427,16.404,16.404,16.404,26.656,19.565,21.223,21.223,21.223,21.223,21.223,22.678,24.407,24.011,22.482,18.591,18.591,-14.801,-16.535,-20.1,-20.1,-19.071,-19.071,-19.071,-33.074,-20.101,-28.091,-28.091,-28.091,-28.091,-28.091,-14.917,-16.462,-13.592,-10.247,-6.5655,-6.5655,9.9948,10.946,12.43,12.43,8.6844,8.6844,8.6844,17.154,7.8863,13.496,13.496,13.496,13.496,13.496,12.602,8.5584,5.7589,8.8771,5.3954,5.3954,-7.0065,-7.9871,-9.1379,-9.1379,-5.6594,-5.6594,-5.6594,-10.92,-4.4617,-10.705,-10.705,-10.705,-10.705,-10.705,2.1922,1.696,3.171,-1.6123,0.48808,0.48808,0.39587,1.4307,2.7351,2.7351,2.3524,2.3524,2.3524,0.96918,2.2815,5.3843,5.3843,5.3843,5.3843,5.3843,-1.7566,1.8929,1.9086,1.1446,3.4028,3.4028,13.015,13.778,16.189,16.189,19.264,19.264,19.264,30.949,22.138,25.446,25.446,25.446,25.446,25.446,22.318,23.021,22.058,21.598,17.745,17.745,-11.269,-12.48,-14.879,-14.879,-11.797,-11.797,-11.797,-20.707,-11.867,-17.289,-17.289,-17.289,-17.289,-17.289,-9.2922,-9.109,-7.1253,-6.1296,-3.5739,-3.5739,4.9757,5.4429,5.4254,5.4254,1.0699,1.0699,1.0699,3.6892,-0.60174,2.3512,2.3512,2.3512,2.3512,2.3512,6.6873,3.0844,1.7099,6.5141,3.9495,3.9495,-0.91074,-1.6217,-1.7763,-1.7763,0.97724,0.97724,0.97724,0.33781,2.5486,-1.0824,-1.0824,-1.0824,-1.0824,-1.0824,7.2626,5.1431,5.3722,1.6907,2.8386,2.8386
3.6952,7.5586,9.5384,9.7654,10.658,10.658,10.658,10.249,10.249,10.249,1.944,1.944,4.033,2.8387,13.669,11.975,11.975,4.4313,3.0433,2.3808,2.4095,1.6871,1.1887,1.5886,4.2177,4.2177,4.2177,7.9702,7.9702,7.9702,13.622,13.622,17.235,18.746,7.1843,9.7271,9.7271,15.483,17.8,18.962,-8.828,-11.046,-11.978,-12.653,-16.83,-16.83,-16.83,-18.297,-18.297,-18.297,-12.9,-12.9,-20.534,-17.379,-20.875,-22.711,-22.711,-12.014,-9.6368,-12.347,5.6438,6.8803,7.4716,7.8336,9.0665,9.0665,9.0665,8.8905,8.8905,8.8905,11.093,11.093,13.715,9.5687,10.553,11.744,11.744,7.5463,6.3745,10.988,-6.5224,-8.4873,-9.5971,-9.8577,-11.221,-11.221,-11.221,-10.685,-10.685,-10.685,-5.6638,-5.6638,-8.85,-7.54,-12.933,-12.503,-12.503,-9.634,-8.8834,-7.22,4.1483,8.3286,10.808,10.694,10.857,10.857,10.857,9.472,9.472,9.472,2.0519,2.0519,3.3656,2.4419,12.833,9.8178,9.8178,4.8424,3.8862,2.4867,1.5223,0.0056578,-0.28835,0.21619,6.1874,6.1874,6.1874,9.6364,9.6364,9.6364,13.877,13.877,19.18,19.479,9.988,14.66,14.66,15.289,16.965,19.116,-9.4338,-11.455,-13.717,-13.935,-20.302,-20.302,-20.302,-17.496,-17.496,-17.496,-13.383,-13.383,-20.623,-15.228,-21.503,-23.028,-23.028,-12.079,-9.9033,-12.641,7.9967,9.6427,11.397,11.349,13.588,13.588,13.588,9.2796,9.2796,9.2796,13.055,13.055,14.187,9.9011,11.994,11.661,11.661,12.121,12.295,14.076,-8.9528,-11.754,-14.016,-13.765,-14.963,-14.963,-14.963,-11.609,-11.609,-11.609,-5.9547,-5.9547,-7.8236,-7.6311,-14.426,-11.653,-11.653,-12.463,-12.698,-8.0488,4.1686,8.605,10.97,10.778,9.0942,9.0942,9.0942,8.2193,8.2193,8.2193,1.939,1.939,2.5368,2.2109,11.094,7.1815,7.1815,4.2849,3.5928,2.3044,3.4586,2.4718,2.7947,3.1751,11.936,11.936,11.936,12.614,12.614,12.614,15.315,15.315,21.503,20.394,14.377,19.045,19.045,17.642,18.896,20.276,-12.254,-15.7,-18.649,-18.488,-24.145,-24.145,-24.145,-16.318,-16.318,-16.318,-13.933,-13.933,-19.444,-13.701,-21.7,-20.489,-20.489,-14.471,-12.971,-13.475,9.9321,12.676,14.821,14.473,15.097,15.097,15.097,7.8613,7.8613,7.8613,12.113,12.113,11.443,9.3522,11.257,7.9329,7.9329,15.901,17.546,15.071,-9.8476,-13.513,-15.872,-15.428,-14.072,-14.072,-14.072,-10.377,-10.377,-10.377,-3.7597,-3.7597,-4.5053,-6.4805,-12.988,-7.8618,-7.8618,-12.455,-13.357,-6.4587,1.3779,5.0706,6.9556,6.8481,3.7838,3.7838,3.7838,4.6591,4.6591,4.6591,0.62304,0.62304,0.77233,0.78091,6.5793,3.0236,3.0236,1.0268,0.32734,0.49832,8.7657,9.3877,10.292,10.495,19.821,19.821,19.821,17.141,17.141,17.141,17.524,17.524,23.597,21.849,20.212,22.933,22.933,22.327,23.618,22.569,-13.346,-17.695,-20.333,-20.011,-22.359,-22.359,-22.359,-12.128,-12.128,-12.128,-12.054,-12.054,-15.046,-10.383,-18.03,-13.559,-13.559,-14.284,-13.96,-11.888,9.0187,11.748,13.327,12.872,10.187,10.187,10.187,3.8867,3.8867,3.8867,8.9864,8.9864,6.5608,7.3453,6.9437,1.0742,1.0742,15.534,18.451,12.767,-6.0162,-8.9093,-10.555,-10.169,-6.0639,-6.0639,-6.0639,-5.1193,-5.1193,-5.1193,0.65514,0.65514,0.70894,-2.8087,-6.5759,-0.88163,-0.88163,-6.6134,-7.6509,-0.96183,-0.58018,2.2549,4.1027,4.1536,1.2506,1.2506,1.2506,4.0799,4.0799,4.0799,1.2379,1.2379,1.6736,1.3649,4.9585,2.6812,2.6812,-0.39148,-1.0368,1.1878,12.598,14.471,15.3,15.206,22.833,22.833,22.833,17.648,17.648,17.648,17.502,17.502,22.447,21.469,21.825,21.824,21.824,24.403,25.667,22.06,-9.8092,-13.879,-15.756,-15.3,-13.885,-13.885,-13.885,-5.3793,-5.3793,-5.3793,-7.4324,-7.4324,-8.3248,-6.3385,-10.14,-3.7349,-3.7349,-10.404,-10.871,-7.8139,4.2721,6.126,6.9364,6.4939,1.3785,1.3785,1.3785,-0.029285,-0.029285,-0.029285,4.5629,4.5629,1.9748,5.4153,0.79557,-5.6061,-5.6061,11.958,14.936,8.8316,-0.17136,-1.9565,-3.3183,-3.1384,1.4704,1.4704,1.4704,-1.8939,-1.8939,-1.8939,4.5312,4.5312,3.6903,0.28563,-1.3224,2.8863,2.8863,-0.19514,-0.58643,3.6895
3.25,3.4539,7.9713,10.92,13.423,13.423,13.423,18.705,18.705,18.705,18.705,18.705,18.705,18.705,18.705,18.705,2.7155,2.7155,2.7155,4.1652,2.8085,2.9613,1.8843,-0.27779,1.5423,1.5423,1.5423,0.99686,0.99686,0.99686,0.99686,0.99686,0.99686,0.99686,0.99686,0.99686,18.613,18.613,18.613,17.207,-8.97,-9.4424,-11.562,-11.928,-15.721,-15.721,-15.721,-19.341,-19.341,-19.341,-19.341,-19.341,-19.341,-19.341,-19.341,-19.341,-12.185,-12.185,-12.185,-16.79,5.7598,6.09,7.2136,5.7067,9.3383,9.3383,9.3383,11.116,11.116,11.116,11.116,11.116,11.116,11.116,11.116,11.116,7.9475,7.9475,7.9475,15.721,-6.3636,-6.7293,-8.8709,-9.6502,-11.902,-11.902,-11.902,-14.973,-14.973,-14.973,-14.973,-14.973,-14.973,-14.973,-14.973,-14.973,-6.1628,-6.1628,-6.1628,-7.74,3.7467,4.0485,8.8356,12.295,14.192,14.192,14.192,19.073,19.073,19.073,19.073,19.073,19.073,19.073,19.073,19.073,3.0414,3.0414,3.0414,3.8665,1.8843,2.0646,0.6306,-1.2572,1.2577,1.2577,1.2577,3.081,3.081,3.081,3.081,3.081,3.081,3.081,3.081,3.081,18.279,18.279,18.279,18.245,-9.5758,-10.26,-12.753,-14.367,-18.097,-18.097,-18.097,-23.72,-23.72,-23.72,-23.72,-23.72,-23.72,-23.72,-23.72,-23.72,-11.356,-11.356,-11.356,-18.064,8.1071,8.6497,10.49,10.663,13.68,13.68,13.68,16.428,16.428,16.428,16.428,16.428,16.428,16.428,16.428,16.428,10.661,10.661,10.661,17.449,-8.801,-9.3769,-12.459,-15.085,-16.24,-16.24,-16.24,-19.621,-19.621,-19.621,-19.621,-19.621,-19.621,-19.621,-19.621,-19.621,-7.6403,-7.6403,-7.6403,-6.9666,3.8628,4.1829,8.8974,12.017,13.472,13.472,13.472,17.326,17.326,17.326,17.326,17.326,17.326,17.326,17.326,17.326,3.1975,3.1975,3.1975,3.4338,3.7166,4.0662,3.3195,2.8955,6.1882,6.1882,6.1882,9.8968,9.8968,9.8968,9.8968,9.8968,9.8968,9.8968,9.8968,9.8968,18.757,18.757,18.757,19.994,-12.348,-13.283,-16.895,-19.865,-23.513,-23.513,-23.513,-29.538,-29.538,-29.538,-29.538,-29.538,-29.538,-29.538,-29.538,-29.538,-11.289,-11.289,-11.289,-18.2,9.9869,10.685,13.328,14.663,16.73,16.73,16.73,19.128,19.128,19.128,19.128,19.128,19.128,19.128,19.128,19.128,11.66,11.66,11.66,15.447,-9.7441,-10.385,-13.904,-17.04,-17.099,-17.099,-17.099,-19.433,-19.433,-19.433,-19.433,-19.433,-19.433,-19.433,-19.433,-19.433,-6.9326,-6.9326,-6.9326,-3.6266,1.2203,1.3344,5.2736,6.89,8.104,8.104,8.104,10.745,10.745,10.745,10.745,10.745,10.745,10.745,10.745,10.745,1.686,1.686,1.686,1.8002,8.8244,9.3623,10.264,11.825,15.352,15.352,15.352,19.976,19.976,19.976,19.976,19.976,19.976,19.976,19.976,19.976,20.718,20.718,20.718,22.073,-13.31,-14.088,-18.49,-21.091,-23.972,-23.972,-23.972,-28.769,-28.769,-28.769,-28.769,-28.769,-28.769,-28.769,-28.769,-28.769,-9.8915,-9.8915,-9.8915,-14.758,8.9476,9.3847,11.981,12.252,13.142,13.142,13.142,14.018,14.018,14.018,14.018,14.018,14.018,14.018,14.018,14.018,10.658,10.658,10.658,10.463,-5.9795,-6.2588,-9.0294,-10.256,-9.5681,-9.5681,-9.5681,-10.179,-10.179,-10.179,-10.179,-10.179,-10.179,-10.179,-10.179,-10.179,-2.764,-2.764,-2.764,2.1834,-0.50486,-0.43981,2.8112,3.2844,4.6891,4.6891,4.6891,6.9959,6.9959,6.9959,6.9959,6.9959,6.9959,6.9959,6.9959,6.9959,2.1899,2.1899,2.1899,2.9229,12.37,12.953,14.764,17.334,20.13,20.13,20.13,24.408,24.408,24.408,24.408,24.408,24.408,24.408,24.408,24.408,20.655,20.655,20.655,20.894,-9.6886,-10.315,-14.066,-15.085,-16.595,-16.595,-16.595,-19.276,-19.276,-19.276,-19.276,-19.276,-19.276,-19.276,-19.276,-19.276,-6.7032,-6.7032,-6.7032,-8.7125,4.2036,4.4524,5.9762,4.3663,4.1949,4.1949,4.1949,3.41,3.41,3.41,3.41,3.41,3.41,3.41,3.41,3.41,8.2163,8.2163,8.2163,5.2514,-0.3825,-0.52572,-2.3222,-1.7702,-1.0075,-1.0075,-1.0075,-0.96049,-0.96049,-0.96049,-0.96049,-0.96049,-0.96049,-0.96049,-0.96049,-0.96049,1.3682,1.3682,1.3682,5.7557
5.5343,4.765,11.82,11.82,11.82,14.191,14.191,14.191,18.81,18.81,16.688,16.688,16.688,16.688,16.688,0.97954,0.97954,0.97954,4.2332,4.2332,2.0936,2.49,1.1356,1.1356,1.1356,1.9875,1.9875,1.9875,0.021388,0.021388,2.9058,2.9058,2.9058,2.9058,2.9058,18.911,18.911,18.911,17.652,17.652,-9.8428,-9.7276,-13.871,-13.871,-13.871,-17.002,-17.002,-17.002,-20.721,-20.721,-20.362,-20.362,-20.362,-20.362,-20.362,-14.985,-14.985,-14.985,-17.674,-17.674,6.0738,6.1428,8.5283,8.5283,8.5283,10.288,10.288,10.288,11.774,11.774,11.527,11.527,11.527,11.527,11.527,13.132,13.132,13.132,16.291,16.291,-7.4521,-7.112,-10.962,-10.962,-10.962,-12.717,-12.717,-12.717,-17.729,-17.729,-14.074,-14.074,-14.074,-14.074,-14.074,-8.4559,-8.4559,-8.4559,-8.0975,-8.0975,6.2926,5.5563,12.841,12.841,12.841,14.594,14.594,14.594,20.211,20.211,16.474,16.474,16.474,16.474,16.474,0.76595,0.76595,0.76595,3.8698,3.8698,0.6587,1.4244,0.096038,0.096038,0.096038,2.5787,2.5787,2.5787,0.69979,0.69979,6.2705,6.2705,6.2705,6.2705,6.2705,19.894,19.894,19.894,18.88,18.88,-10.57,-10.768,-15.86,-15.86,-15.86,-19.82,-19.82,-19.82,-25.814,-25.814,-24.718,-24.718,-24.718,-24.718,-24.718,-15.731,-15.731,-15.731,-19.03,-19.03,8.9547,9.024,12.717,12.717,12.717,14.761,14.761,14.761,19.309,19.309,16.28,16.28,16.28,16.28,16.28,16.349,16.349,16.349,18.001,18.001,-10.617,-10.192,-15.408,-15.408,-15.408,-16.775,-16.775,-16.775,-24.697,-24.697,-17.651,-17.651,-17.651,-17.651,-17.651,-8.7357,-8.7357,-8.7357,-7.2379,-7.2379,6.5699,5.6228,12.631,12.631,12.631,13.774,13.774,13.774,18.284,18.284,13.807,13.807,13.807,13.807,13.807,-0.29108,-0.29108,-0.29108,3.3583,3.3583,2.9187,3.7076,4.2218,4.2218,4.2218,7.8437,7.8437,7.8437,8.9391,8.9391,13.554,13.554,13.554,13.554,13.554,22.286,22.286,22.286,20.837,20.837,-14.494,-14.167,-21.547,-21.547,-21.547,-25.304,-25.304,-25.304,-33.919,-33.919,-28.403,-28.403,-28.403,-28.403,-28.403,-16.352,-16.352,-16.352,-19.321,-19.321,11.822,11.301,16.375,16.375,16.375,17.673,17.673,17.673,23.958,23.958,16.602,16.602,16.602,16.602,16.602,16.138,16.138,16.138,15.986,15.986,-12.235,-11.285,-17.008,-17.008,-17.008,-17.473,-17.473,-17.473,-25.097,-25.097,-15.371,-15.371,-15.371,-15.371,-15.371,-5.4507,-5.4507,-5.4507,-3.787,-3.787,3.4928,2.5674,7.7739,7.7739,7.7739,7.816,7.816,7.816,10.452,10.452,7.2828,7.2828,7.2828,7.2828,7.2828,-2.4638,-2.4638,-2.4638,1.7029,1.7029,8.9461,9.4361,13.072,13.072,13.072,17.787,17.787,17.787,21.526,21.526,22.838,22.838,22.838,22.838,22.838,25.031,25.031,25.031,22.956,22.956,-16.046,-15.201,-23.236,-23.236,-23.236,-25.653,-25.653,-25.653,-33.4,-33.4,-25.716,-25.716,-25.716,-25.716,-25.716,-14.214,-14.214,-14.214,-15.9,-15.9,10.945,10.01,14.128,14.128,14.128,13.573,13.573,13.573,17.718,17.718,9.9064,9.9064,9.9064,9.9064,9.9064,12.896,12.896,12.896,10.931,10.931,-8.1267,-6.9962,-10.48,-10.48,-10.48,-9.0492,-9.0492,-9.0492,-13.759,-13.759,-5.5199,-5.5199,-5.5199,-5.5199,-5.5199,0.76743,0.76743,0.76743,2.0762,2.0762,1.1265,0.51013,4.5356,4.5356,4.5356,4.0208,4.0208,4.0208,5.3347,5.3347,4.365,4.365,4.365,4.365,4.365,-2.2388,-2.2388,-2.2388,2.8121,2.8121,13.36,13.351,18.221,18.221,18.221,22.775,22.775,22.775,27.519,27.519,25.604,25.604,25.604,25.604,25.604,24.836,24.836,24.836,21.669,21.669,-12.233,-11.231,-17.433,-17.433,-17.433,-17.816,-17.816,-17.816,-21.81,-21.81,-15.248,-15.248,-15.248,-15.248,-15.248,-9.2429,-9.2429,-9.2429,-9.4323,-9.4323,5.615,4.7523,6.3983,6.3983,6.3983,4.0343,4.0343,4.0343,4.3484,4.3484,-0.91145,-0.91145,-0.91145,-0.91145,-0.91145,8.1968,8.1968,8.1968,5.3982,5.3982,-1.6707,-0.90621,-2.4067,-2.4067,-2.4067,0.17151,0.17151,0.17151,-1.811,-1.811,2.8146,2.8146,2.8146,2.8146,2.8146,5.933,5.933,5.933,5.7482,5.7482
3.7732,7.2677,9.8008,11.92,15.202,21.342,21.342,20.084,20.084,20.084,20.084,20.084,20.084,20.084,2.3607,2.3607,2.3607,2.3607,2.3607,2.4915,2.3702,1.3347,1.9197,1.0937,0.67301,-1.9185,-1.9185,2.1482,2.1482,2.1482,2.1482,2.1482,2.1482,2.1482,19.644,19.644,19.644,19.644,19.644,18.955,-8.7843,-10.476,-13.072,-13.776,-16.374,-18.344,-18.344,-22.707,-22.707,-22.707,-22.707,-22.707,-22.707,-22.707,-15.425,-15.425,-15.425,-15.425,-15.425,-12.645,5.5707,5.888,8.0194,8.4707,9.2218,11.32,11.32,13.506,13.506,13.506,13.506,13.506,13.506,13.506,10.541,10.541,10.541,10.541,10.541,10.198,-6.4321,-7.9462,-9.9425,-10.989,-12.527,-15.974,-15.974,-16.415,-16.415,-16.415,-16.415,-16.415,-16.415,-16.415,-5.5891,-5.5891,-5.5891,-5.5891,-5.5891,-6.7973,4.2653,8.2638,10.6,13.138,16.432,23.033,23.033,19.214,19.214,19.214,19.214,19.214,19.214,19.214,2.1357,2.1357,2.1357,2.1357,2.1357,2.5323,1.4346,-0.20397,0.98027,0.35839,0.99329,-2.1017,-2.1017,6.724,6.724,6.724,6.724,6.724,6.724,6.724,20.205,20.205,20.205,20.205,20.205,19.149,-9.3781,-11.416,-14.587,-16.455,-20.558,-23.167,-23.167,-27.06,-27.06,-27.06,-27.06,-27.06,-27.06,-27.06,-14.595,-14.595,-14.595,-14.595,-14.595,-12.566,7.9257,9.2014,11.594,13.098,15.122,18.248,18.248,17.909,17.909,17.909,17.909,17.909,17.909,17.909,11.747,11.747,11.747,11.747,11.747,12.843,-8.9249,-11.8,-13.727,-15.813,-18.114,-23.005,-23.005,-19.43,-19.43,-19.43,-19.43,-19.43,-19.43,-19.43,-5.3876,-5.3876,-5.3876,-5.3876,-5.3876,-7.4491,4.2852,8.5366,10.394,13.041,15.395,22.187,22.187,15.924,15.924,15.924,15.924,15.924,15.924,15.924,1.9596,1.9596,1.9596,1.9596,1.9596,2.499,3.3636,2.4523,4.5622,4.1286,6.845,4.7776,4.7776,15.192,15.192,15.192,15.192,15.192,15.192,15.192,20.924,20.924,20.924,20.924,20.924,19.978,-12.197,-15.973,-19.382,-21.81,-26.936,-31.872,-31.872,-30.633,-30.633,-30.633,-30.633,-30.633,-30.633,-30.633,-13.37,-13.37,-13.37,-13.37,-13.37,-12.784,9.8822,12.674,14.64,16.643,18.716,23.582,23.582,17.612,17.612,17.612,17.612,17.612,17.612,17.612,10.394,10.394,10.394,10.394,10.394,13.378,-9.8546,-13.876,-15.012,-17.524,-18.857,-24.921,-24.921,-16.345,-16.345,-16.345,-16.345,-16.345,-16.345,-16.345,-3.1047,-3.1047,-3.1047,-3.1047,-3.1047,-5.9589,1.4653,4.9309,6.1006,8.4532,9.2136,14.87,14.87,8.3847,8.3847,8.3847,8.3847,8.3847,8.3847,8.3847,0.82307,0.82307,0.82307,0.82307,0.82307,0.83132,8.6968,9.5665,12.457,12.149,17.213,17.054,17.054,25.429,25.429,25.429,25.429,25.429,25.429,25.429,22.045,22.045,22.045,22.045,22.045,22.093,-13.292,-18.044,-20.837,-23.052,-27.487,-33.58,-33.58,-26.924,-26.924,-26.924,-26.924,-26.924,-26.924,-26.924,-10.302,-10.302,-10.302,-10.302,-10.302,-11.13,8.9742,11.881,12.658,14.451,14.539,19.67,19.67,9.3824,9.3824,9.3824,9.3824,9.3824,9.3824,9.3824,7.7589,7.7589,7.7589,7.7589,7.7589,11.386,-6.0126,-9.2929,-9.1755,-11.363,-10.235,-15.248,-15.248,-4.7941,-4.7941,-4.7941,-4.7941,-4.7941,-4.7941,-4.7941,0.96337,0.96337,0.96337,0.96337,0.96337,-0.9129,-0.52127,2.2132,3.3028,5.2879,5.5012,9.7196,9.7196,4.7313,4.7313,4.7313,4.7313,4.7313,4.7313,4.7313,2.0306,2.0306,2.0306,2.0306,2.0306,1.6022,12.588,14.483,17.097,17.379,22.191,24.24,24.24,28.51,28.51,28.51,28.51,28.51,28.51,28.51,20.896,20.896,20.896,20.896,20.896,21.567,-9.8487,-13.988,-15.481,-17.793,-19.152,-25.166,-25.166,-15.246,-15.246,-15.246,-15.246,-15.246,-15.246,-15.246,-6.1396,-6.1396,-6.1396,-6.1396,-6.1396,-7.324,4.3638,6.1207,5.653,7.2787,4.4481,8.3191,8.3191,-2.9067,-2.9067,-2.9067,-2.9067,-2.9067,-2.9067,-2.9067,5.1134,5.1134,5.1134,5.1134,5.1134,8.1029,-0.24098,-2.3889,-1.799,-3.5858,-1.0788,-4.0326,-4.0326,4.8616,4.8616,4.8616,4.8616,4.8616,4.8616,4.8616,3.809,3.809,3.809,3.809,3.809,3.2432
3.6226,5.1534,6.6411,13.887,13.887,13.887,16.011,16.772,16.772,16.772,16.772,3.9511,3.9511,2.9114,2.9114,16.86,16.86,3.133,3.0661,2.4198,2.4761,2.6572,2.4384,0.93973,0.93973,0.93973,1.7096,2.2207,2.2207,2.2207,2.2207,17.796,17.796,18.807,18.807,4.9959,4.9959,19.22,17.918,18.812,-8.8414,-10.252,-11.273,-15.506,-15.506,-15.506,-18.055,-19.92,-19.92,-19.92,-19.92,-20.614,-20.614,-17.449,-17.449,-23.842,-23.842,-19.45,-12.786,-13.67,5.6033,6.4644,7.0915,9.2699,9.2699,9.2699,10.731,10.888,10.888,10.888,10.888,12.899,12.899,9.6954,9.6954,14.171,14.171,13.4,7.4495,13.983,-6.4211,-7.4293,-8.3068,-12.036,-12.036,-12.036,-13.56,-13.882,-13.882,-13.882,-13.882,-8.7428,-8.7428,-8.2433,-8.2433,-17.612,-17.612,-6.9061,-5.2391,-6.9388,4.1243,5.7127,7.4568,15.096,15.096,15.096,16.387,16.878,16.878,16.878,16.878,3.2301,3.2301,2.4922,2.4922,16.111,16.111,2.1608,2.7632,2.1235,1.5308,1.521,1.233,0.24162,0.24162,0.24162,3.1509,4.3991,4.3991,4.3991,4.3991,19.615,19.615,19.628,19.628,9.3685,9.3685,21.272,18.131,19.562,-9.4252,-10.862,-12.438,-18.305,-18.305,-18.305,-21.455,-23.591,-23.591,-23.591,-23.591,-19.895,-19.895,-15.746,-15.746,-28.18,-28.18,-19.07,-10.572,-14.415,7.9493,9.0077,10.315,14.279,14.279,14.279,15.336,15.524,15.524,15.524,15.524,12.871,12.871,11.033,11.033,18.582,18.582,13.027,7.32,16.128,-8.9062,-10.154,-11.728,-17.181,-17.181,-17.181,-17.739,-17.808,-17.808,-17.808,-17.808,-7.6724,-7.6724,-8.8663,-8.8663,-20.426,-20.426,-4.939,-4.7935,-6.3023,4.2247,5.8093,7.58,14.594,14.594,14.594,14.523,14.625,14.625,14.625,14.625,2.4761,2.4761,2.0126,2.0126,13.113,13.113,1.4458,3.0519,1.7594,3.3712,3.7623,3.8297,5.001,5.001,5.001,9.4048,11.282,11.282,11.282,11.282,21.65,21.65,21.103,21.103,17.106,17.106,22.788,17.832,20.729,-12.214,-14.215,-16.436,-24.333,-24.333,-24.333,-25.844,-27.482,-27.482,-27.482,-27.482,-18.306,-18.306,-14.929,-14.929,-31.701,-31.701,-16.874,-8.6523,-14.439,9.8829,11.254,13.046,18.001,18.001,18.001,16.817,16.286,16.286,16.286,16.286,10.277,10.277,11.336,11.336,18.685,18.685,9.4817,6.4836,14.947,-9.8954,-11.281,-13.14,-18.565,-18.565,-18.565,-16.802,-16.197,-16.197,-16.197,-16.197,-4.665,-4.665,-7.9201,-7.9201,-17.562,-17.562,-1.2563,-3.744,-3.2059,1.5132,2.768,4.0684,9.1295,9.1295,9.1295,8.288,7.8968,7.8968,7.8968,7.8968,0.85743,0.85743,-0.082016,-0.082016,6.3426,6.3426,0.32772,2.1787,0.38756,8.578,9.5322,10.389,14.744,14.744,14.744,19.215,21.22,21.22,21.22,21.22,23.375,23.375,23.485,23.485,26.121,26.121,23.567,18.629,22.355,-13.265,-15.282,-17.721,-25.86,-25.86,-25.86,-25.116,-24.956,-24.956,-24.956,-24.956,-13.791,-13.791,-12.076,-12.076,-27.495,-27.495,-11.908,-6.3056,-12.07,8.9499,9.9597,11.597,15.088,15.088,15.088,11.771,9.5477,9.5477,9.5477,9.5477,5.9151,5.9151,9.6285,9.6285,10.912,10.912,4.7076,5.4207,11.46,-6.1432,-7.0028,-8.3143,-11.166,-11.166,-11.166,-7.8114,-6.132,-6.132,-6.132,-6.132,0.12242,0.12242,-3.6446,-3.6446,-6.9308,-6.9308,3.2325,-0.72099,2.128,-0.30694,0.75361,1.6098,5.5521,5.5521,5.5521,5.0883,4.7729,4.7729,4.7729,4.7729,1.7382,1.7382,0.047437,0.047437,3.2833,3.2833,1.9679,3.194,1.5626,12.266,13.408,14.757,19.996,19.996,19.996,23.073,24.202,24.202,24.202,24.202,22.287,22.287,23.558,23.558,28.298,28.298,21.492,18.103,21.148,-9.7434,-11.217,-13.351,-19.046,-19.046,-19.046,-16.674,-14.293,-14.293,-14.293,-14.293,-7.6261,-7.6261,-7.9049,-7.9049,-14.928,-14.928,-6.0557,-3.7578,-7.2839,4.2813,4.6216,5.7481,6.2541,6.2541,6.2541,2.2005,-1.3486,-1.3486,-1.3486,-1.3486,2.0994,2.0994,7.5111,7.5111,-1.0259,-1.0259,1.5339,4.6143,6.8469,-0.49385,-0.94261,-1.6242,-2.4246,-2.4246,-2.4246,0.59935,2.357,2.357,2.357,2.357,2.9751,2.9751,0.00044258,0.00044258,2.0437,2.0437,4.9971,1.6471,6.1511
4.4934,8.4532,8.4532,8.5645,10.752,11.652,9.6052,9.6052,9.6052,4.346,15.425,15.425,15.425,15.425,3.1103,3.7326,2.523,2.523,2.523,1.9364,2.548,2.7357,2.7357,6.1925,3.6491,4.5945,8.2096,8.2096,8.2096,12.301,6.5474,6.5474,6.5474,6.5474,17.854,17.971,19.784,19.784,19.784,19.515,-9.5517,-13.949,-13.949,-18.062,-16.134,-18.157,-19.54,-19.54,-19.54,-13.965,-23.591,-23.591,-23.591,-23.591,-18.185,-18.989,-17.983,-17.983,-17.983,-13.172,6.0465,7.6704,7.6704,11.207,9.7905,11.02,9.7401,9.7401,9.7401,4.8622,13.458,13.458,13.458,13.458,12.32,15.051,11.993,11.993,11.993,12.58,-6.9411,-10.444,-10.444,-11.391,-11.231,-12.328,-10.897,-10.897,-10.897,-6.7269,-15.619,-15.619,-15.619,-15.619,-6.2855,-7.4322,-5.3825,-5.3825,-5.3825,-6.5915,4.996,9.6553,9.6553,9.7398,11.078,12.353,8.5443,8.5443,8.5443,4.4206,14.419,14.419,14.419,14.419,2.4808,3.2973,1.6382,1.6382,1.6382,1.766,1.3337,0.85155,0.85155,5.9239,4.1897,5.4146,10.244,10.244,10.244,12.243,10.929,10.929,10.929,10.929,19.304,19.371,21.491,21.491,21.491,20.072,-9.9084,-15.219,-15.219,-21.68,-18.922,-21.906,-18.586,-18.586,-18.586,-10.546,-26.505,-26.505,-26.505,-26.505,-17.577,-19.697,-17.187,-17.187,-17.187,-13.695,8.3593,12.361,12.361,16.95,14.209,16.315,9.6557,9.6557,9.6557,4.5952,16.425,16.425,16.425,16.425,12.307,16.2,11.493,11.493,11.493,15.012,-9.4626,-15.492,-15.492,-16.515,-14.935,-16.896,-11.174,-11.174,-11.174,-8.2876,-17.535,-17.535,-17.535,-17.535,-4.934,-6.451,-3.4281,-3.4281,-3.4281,-6.4194,5.2024,9.4108,9.4108,9.243,10.463,11.09,6.9451,6.9451,6.9451,4.8173,11.208,11.208,11.208,11.208,1.9262,2.6878,1.1413,1.1413,1.1413,1.3899,3.2634,5.3767,5.3767,10.703,8.9467,11.187,13.88,13.88,13.88,12.459,18.336,18.336,18.336,18.336,20.746,21.382,22.431,22.431,22.431,21.283,-13.133,-21.763,-21.763,-27.737,-24.205,-27.478,-17.048,-17.048,-17.048,-8.9798,-28.478,-28.478,-28.478,-28.478,-15.858,-19.144,-14.604,-14.604,-14.604,-13.958,10.642,17.396,17.396,20.824,17.147,19.199,7.6205,7.6205,7.6205,5.6058,15.416,15.416,15.416,15.416,9.3717,13.559,7.9317,7.9317,7.9317,14.592,-10.718,-17.691,-17.691,-17.721,-15.71,-16.971,-9.2673,-9.2673,-9.2673,-9.8077,-14.104,-14.104,-14.104,-14.104,-1.664,-2.9229,0.03961,0.03961,0.03961,-3.7131,2.3901,4.4956,4.4956,4.0158,5.0881,5.4122,3.093,3.093,3.093,3.3783,5.1284,5.1284,5.1284,5.1284,0.84611,1.1554,0.29212,0.29212,0.29212,-0.027801,8.8261,14.73,14.73,19.837,18.045,20.763,18.618,18.618,18.618,14.591,26.166,26.166,26.166,26.166,21.841,23.286,22.872,22.872,22.872,22.906,-14.528,-24.425,-24.425,-28.415,-24.741,-27.743,-11.978,-11.978,-11.978,-7.3647,-24.106,-24.106,-24.106,-24.106,-11.801,-15.252,-10.046,-10.046,-10.046,-11.618,9.7956,16.111,16.111,17.303,13.649,15.111,2.6595,2.6595,2.6595,6.5426,8.2044,8.2044,8.2044,8.2044,5.3344,8.5027,3.8354,3.8354,3.8354,11.323,-6.8713,-11.341,-11.341,-10.041,-8.0513,-8.7144,-3.3137,-3.3137,-3.3137,-8.6581,-4.554,-4.554,-4.554,-4.554,2.5328,2.4716,4.048,4.048,4.048,1.7066,0.21665,0.64696,0.64696,0.84961,1.9025,2.2705,2.3345,2.3345,2.3345,3.0927,2.8131,2.8131,2.8131,2.8131,2.1891,2.3388,2.1492,2.1492,2.1492,1.1696,13.011,20.825,20.825,24.398,22.516,24.822,18.933,18.933,18.933,16.024,27.568,27.568,27.568,27.568,20.476,21.918,20.727,20.727,20.727,21.73,-10.993,-18.971,-18.971,-21.042,-17.717,-19.655,-3.9607,-3.9607,-3.9607,-5.0285,-12.767,-12.767,-12.767,-12.767,-6.5902,-8.8611,-5.085,-5.085,-5.085,-7.2487,4.9149,8.1817,8.1817,8.2602,5.1231,5.6843,-2.5957,-2.5957,-2.5957,6.8644,-2.3552,-2.3552,-2.3552,-2.3552,2.1104,3.5839,1.5275,1.5275,1.5275,7.3597,-0.79832,-2.1572,-2.1572,-1.3597,0.27903,-0.11096,0.64749,0.64749,0.64749,-6.7087,3.0886,3.0886,3.0886,3.0886,4.7033,5.5512,5.3487,5.3487,5.3487,5.5246
3.5866,6.4817,7.6874,7.499,10.406,20.738,20.738,20.738,20.738,20.738,20.738,20.738,20.738,20.738,20.738,20.738,20.738,20.738,2.9082,0.9835,2.5542,2.1928,2.6388,3.8927,1.7535,0.57189,0.57189,0.57189,0.57189,0.57189,0.57189,0.57189,0.57189,0.57189,0.57189,0.57189,0.57189,0.57189,18.038,19.874,-8.907,-10.771,-12.338,-13.949,-13.316,-20.931,-20.931,-20.931,-20.931,-20.931,-20.931,-20.931,-20.931,-20.931,-20.931,-20.931,-20.931,-20.931,-12.062,-11.271,5.7289,6.7758,7.6832,8.6824,8.1733,12.477,12.477,12.477,12.477,12.477,12.477,12.477,12.477,12.477,12.477,12.477,12.477,12.477,5.8452,8.2324,-6.4778,-8.0902,-8.9841,-9.5126,-10.262,-16.248,-16.248,-16.248,-16.248,-16.248,-16.248,-16.248,-16.248,-16.248,-16.248,-16.248,-16.248,-16.248,-5.984,-7.9316,4.0499,7.208,8.4361,8.1649,11.18,21.411,21.411,21.411,21.411,21.411,21.411,21.411,21.411,21.411,21.411,21.411,21.411,21.411,3.0326,1.3061,1.6589,0.76998,1.4575,3.798,0.83891,2.9375,2.9375,2.9375,2.9375,2.9375,2.9375,2.9375,2.9375,2.9375,2.9375,2.9375,2.9375,2.9375,17.532,19.714,-9.5281,-11.429,-13.748,-16.587,-14.994,-26.348,-26.348,-26.348,-26.348,-26.348,-26.348,-26.348,-26.348,-26.348,-26.348,-26.348,-26.348,-26.348,-9.3022,-11.191,8.1057,9.5541,11.393,13.077,11.918,18.886,18.886,18.886,18.886,18.886,18.886,18.886,18.886,18.886,18.886,18.886,18.886,18.886,6.5433,12.531,-8.9205,-11.21,-12.695,-13.342,-14.134,-21.857,-21.857,-21.857,-21.857,-21.857,-21.857,-21.857,-21.857,-21.857,-21.857,-21.857,-21.857,-21.857,-6.9737,-10.102,4.067,7.3768,8.4968,8.09,11.203,19.066,19.066,19.066,19.066,19.066,19.066,19.066,19.066,19.066,19.066,19.066,19.066,19.066,3.5715,1.1363,3.6077,3.0923,4.7363,7.3019,4.1704,11.39,11.39,11.39,11.39,11.39,11.39,11.39,11.39,11.39,11.39,11.39,11.39,11.39,17.112,20.992,-12.365,-15.124,-18.917,-21.385,-19.894,-33.325,-33.325,-33.325,-33.325,-33.325,-33.325,-33.325,-33.325,-33.325,-33.325,-33.325,-33.325,-33.325,-8.0608,-12.627,10.055,12.108,15.06,16.167,15.196,21.884,21.884,21.884,21.884,21.884,21.884,21.884,21.884,21.884,21.884,21.884,21.884,21.884,7.5066,15.531,-9.8207,-12.602,-14.505,-14.675,-15.806,-21.144,-21.144,-21.144,-21.144,-21.144,-21.144,-21.144,-21.144,-21.144,-21.144,-21.144,-21.144,-21.144,-7.3215,-9.714,1.3125,4.131,4.4044,3.9143,7.0304,11.42,11.42,11.42,11.42,11.42,11.42,11.42,11.42,11.42,11.42,11.42,11.42,11.42,2.323,-1.2268,8.8642,9.2983,12.593,14.512,11.837,23.135,23.135,23.135,23.135,23.135,23.135,23.135,23.135,23.135,23.135,23.135,23.135,23.135,18.622,24.118,-13.414,-16.427,-21.009,-21.985,-21.325,-32.746,-32.746,-32.746,-32.746,-32.746,-32.746,-32.746,-32.746,-32.746,-32.746,-32.746,-32.746,-32.746,-6.7551,-12.079,9.0875,10.836,13.839,13.646,13.327,15.967,15.967,15.967,15.967,15.967,15.967,15.967,15.967,15.967,15.967,15.967,15.967,15.967,7.8491,14.912,-5.9969,-8.1437,-9.1766,-8.6544,-10.182,-10.344,-10.344,-10.344,-10.344,-10.344,-10.344,-10.344,-10.344,-10.344,-10.344,-10.344,-10.344,-10.344,-4.3534,-4.114,-0.593,1.9517,1.2812,1.0203,4.1604,7.0074,7.0074,7.0074,7.0074,7.0074,7.0074,7.0074,7.0074,7.0074,7.0074,7.0074,7.0074,7.0074,2.6904,-1.3574,12.627,13.492,17.919,19.162,16.566,28.13,28.13,28.13,28.13,28.13,28.13,28.13,28.13,28.13,28.13,28.13,28.13,28.13,18.939,24.535,-9.84,-12.381,-16.545,-16.428,-16.146,-22.252,-22.252,-22.252,-22.252,-22.252,-22.252,-22.252,-22.252,-22.252,-22.252,-22.252,-22.252,-22.252,-4.6333,-8.4625,4.3189,5.3533,7.5086,6.4626,6.5081,3.6858,3.6858,3.6858,3.6858,3.6858,3.6858,3.6858,3.6858,3.6858,3.6858,3.6858,3.6858,3.6858,7.1188,11.2,-0.20563,-1.8933,-1.6073,-0.98195,-2.8242,0.29069,0.29069,0.29069,0.29069,0.29069,0.29069,0.29069,0.29069,0.29069,0.29069,0.29069,0.29069,0.29069,-0.88717,1.8706
3.9551,7.6189,7.855,13.589,13.589,20.458,20.458,20.458,20.458,20.458,20.458,20.458,20.458,20.458,20.458,20.458,1.5141,2.8435,6.1526,6.1526,3.0666,1.8165,3.1982,1.1203,1.1203,-0.53881,-0.53881,-0.53881,-0.53881,-0.53881,-0.53881,-0.53881,-0.53881,-0.53881,-0.53881,-0.53881,19.958,19.433,15.059,15.059,-9.8448,-11.239,-13.26,-15.129,-15.129,-19.063,-19.063,-19.063,-19.063,-19.063,-19.063,-19.063,-19.063,-19.063,-19.063,-19.063,-13.035,-16.657,-9.4168,-9.4168,6.0385,5.9904,8.2419,9.1948,9.1948,11.57,11.57,11.57,11.57,11.57,11.57,11.57,11.57,11.57,11.57,11.57,7.2764,12.574,7.1662,7.1662,-6.7039,-8.2351,-9.4,-11.965,-11.965,-15.738,-15.738,-15.738,-15.738,-15.738,-15.738,-15.738,-15.738,-15.738,-15.738,-15.738,-6.1512,-5.8197,-10.524,-10.524,4.7239,8.6653,8.5252,14.599,14.599,21.501,21.501,21.501,21.501,21.501,21.501,21.501,21.501,21.501,21.501,21.501,1.6184,2.4481,6.9291,6.9291,1.6401,1.0188,2.2152,1.0435,1.0435,0.72623,0.72623,0.72623,0.72623,0.72623,0.72623,0.72623,0.72623,0.72623,0.72623,0.72623,19.92,20.493,14.49,14.49,-10.327,-13.212,-14.707,-18.269,-18.269,-24.264,-24.264,-24.264,-24.264,-24.264,-24.264,-24.264,-24.264,-24.264,-24.264,-24.264,-11.895,-16.757,-10.681,-10.681,8.6587,9.9845,11.834,14.059,14.059,18.131,18.131,18.131,18.131,18.131,18.131,18.131,18.131,18.131,18.131,18.131,9.8591,13.768,14.066,14.066,-9.6192,-12.279,-12.937,-16.774,-16.774,-21.784,-21.784,-21.784,-21.784,-21.784,-21.784,-21.784,-21.784,-21.784,-21.784,-21.784,-7.4853,-5.0101,-14.642,-14.642,4.9867,8.4742,8.4816,13.993,13.993,20.125,20.125,20.125,20.125,20.125,20.125,20.125,20.125,20.125,20.125,20.125,1.6577,2.0505,6.3579,6.3579,3.5649,4.6762,5.4569,5.6503,5.6503,7.836,7.836,7.836,7.836,7.836,7.836,7.836,7.836,7.836,7.836,7.836,20.483,21.611,17.119,17.119,-13.623,-18.11,-19.367,-23.814,-23.814,-31.86,-31.86,-31.86,-31.86,-31.86,-31.86,-31.86,-31.86,-31.86,-31.86,-31.86,-11.546,-15.477,-14.583,-14.583,11.025,13.204,14.953,17.404,17.404,22.293,22.293,22.293,22.293,22.293,22.293,22.293,22.293,22.293,22.293,22.293,11.213,11.412,19.534,19.534,-10.935,-13.507,-14.36,-17.887,-17.887,-22.602,-22.602,-22.602,-22.602,-22.602,-22.602,-22.602,-22.602,-22.602,-22.602,-22.602,-7.1104,-1.8359,-15.017,-15.017,2.1854,4.379,4.5068,8.7642,8.7642,12.878,12.878,12.878,12.878,12.878,12.878,12.878,12.878,12.878,12.878,12.878,-0.062814,0.9429,2.3592,2.3592,9.1844,12.094,12.825,14.947,14.947,19.52,19.52,19.52,19.52,19.52,19.52,19.52,19.52,19.52,19.52,19.52,22.667,22.629,22.932,22.932,-14.956,-19.111,-20.645,-25.239,-25.239,-32.393,-32.393,-32.393,-32.393,-32.393,-32.393,-32.393,-32.393,-32.393,-32.393,-32.393,-10.224,-11.725,-15.833,-15.833,10.002,11.016,13.037,14.736,14.736,17.55,17.55,17.55,17.55,17.55,17.55,17.55,17.55,17.55,17.55,17.55,10.877,7.5396,19.85,19.85,-6.9947,-7.7759,-8.8232,-10.849,-10.849,-12.68,-12.68,-12.68,-12.68,-12.68,-12.68,-12.68,-12.68,-12.68,-12.68,-12.68,-3.1846,2.7367,-8.2422,-8.2422,0.19152,1.7093,1.8475,5.4356,5.4356,8.2978,8.2978,8.2978,8.2978,8.2978,8.2978,8.2978,8.2978,8.2978,8.2978,8.2978,0.28214,2.4516,0.44431,0.44431,13.165,16.461,17.326,19.881,19.881,25.333,25.333,25.333,25.333,25.333,25.333,25.333,25.333,25.333,25.333,25.333,22.768,20.933,25.667,25.667,-11.135,-13.296,-15.559,-18.8,-18.8,-23.064,-23.064,-23.064,-23.064,-23.064,-23.064,-23.064,-23.064,-23.064,-23.064,-23.064,-7.3032,-6.619,-12.53,-12.53,4.7585,3.8073,6.4004,6.5543,6.5543,6.0729,6.0729,6.0729,6.0729,6.0729,6.0729,6.0729,6.0729,6.0729,6.0729,6.0729,9.3335,4.1534,15.953,15.953,-0.94998,-0.56986,-1.6541,-2.601,-2.601,-2.0919,-2.0919,-2.0919,-2.0919,-2.0919,-2.0919,-2.0919,-2.0919,-2.0919,-2.0919,-2.0919,0.58192,5.2695,-0.7691,-0.7691
5.7019,8.8599,8.6326,13.411,13.699,16.128,16.128,20.676,20.676,20.676,20.676,20.676,20.676,20.676,20.676,20.676,2.9042,2.9042,2.8315,2.8315,1.8967,1.2236,1.8504,0.47276,5.0216,1.9096,1.9096,0.93847,0.93847,0.93847,0.93847,0.93847,0.93847,0.93847,0.93847,0.93847,18.943,18.943,19.937,19.937,-9.6461,-11.882,-12.038,-14.403,-20.766,-18.565,-18.565,-21.368,-21.368,-21.368,-21.368,-21.368,-21.368,-21.368,-21.368,-21.368,-17.939,-17.939,-20.377,-20.377,5.8741,6.4942,7.472,8.643,12.557,10.447,10.447,12.261,12.261,12.261,12.261,12.261,12.261,12.261,12.261,12.261,11.84,11.84,13.869,13.869,-7.3101,-8.9202,-9.247,-11.513,-13.937,-13.455,-13.455,-16.307,-16.307,-16.307,-16.307,-16.307,-16.307,-16.307,-16.307,-16.307,-7.3416,-7.3416,-6.5823,-6.5823,6.4688,10.158,9.5013,14.667,14.412,16.64,16.64,20.565,20.565,20.565,20.565,20.565,20.565,20.565,20.565,20.565,2.5671,2.5671,2.009,2.009,0.54626,-0.67899,0.61483,-0.028558,6.7063,3.9852,3.9852,4.2566,4.2566,4.2566,4.2566,4.2566,4.2566,4.2566,4.2566,4.2566,19.823,19.823,22.016,22.016,-10.444,-12.937,-13.321,-17.664,-26.149,-23.651,-23.651,-26.024,-26.024,-26.024,-26.024,-26.024,-26.024,-26.024,-26.024,-26.024,-16.988,-16.988,-20.556,-20.556,8.883,10.25,10.865,13.95,19.643,16.615,16.615,17.414,17.414,17.414,17.414,17.414,17.414,17.414,17.414,17.414,12.905,12.905,14.099,14.099,-10.583,-13.46,-12.94,-16.779,-19.557,-18.396,-18.396,-20.504,-20.504,-20.504,-20.504,-20.504,-20.504,-20.504,-20.504,-20.504,-7.2424,-7.2424,-4.8692,-4.8692,6.7122,10.383,9.5346,14.337,12.863,15.138,15.138,18.275,18.275,18.275,18.275,18.275,18.275,18.275,18.275,18.275,2.1387,2.1387,1.2226,1.2226,2.8774,2.4184,3.4175,4.5373,14.067,10.553,10.553,11.912,11.912,11.912,11.912,11.912,11.912,11.912,11.912,11.912,21.248,21.248,23.899,23.899,-14.501,-18.025,-17.566,-23.869,-33.767,-29.75,-29.75,-31.609,-31.609,-31.609,-31.609,-31.609,-31.609,-31.609,-31.609,-31.609,-16.017,-16.017,-18.691,-18.691,11.914,13.994,13.76,17.954,23.815,19.554,19.554,19.521,19.521,19.521,19.521,19.521,19.521,19.521,19.521,19.521,11.626,11.626,10.466,10.466,-12.266,-15.603,-14.406,-18.464,-19.904,-18.372,-18.372,-19.555,-19.555,-19.555,-19.555,-19.555,-19.555,-19.555,-19.555,-19.555,-4.9863,-4.9863,-0.94105,-0.94105,3.341,6.3867,5.7399,8.8114,5.769,8.3739,8.3739,10.992,10.992,10.992,10.992,10.992,10.992,10.992,10.992,10.992,0.62114,0.62114,-0.035865,-0.035865,9.3563,10.343,10.569,14.093,25.236,20.877,20.877,22.448,22.448,22.448,22.448,22.448,22.448,22.448,22.448,22.448,22.951,22.951,25.024,25.024,-16.309,-20.318,-19.082,-25.307,-33.514,-28.841,-28.841,-29.485,-29.485,-29.485,-29.485,-29.485,-29.485,-29.485,-29.485,-29.485,-12.659,-12.659,-13.789,-13.789,11.093,12.894,12.242,15.112,18.366,13.99,13.99,12.98,12.98,12.98,12.98,12.98,12.98,12.98,12.98,12.98,8.5505,8.5505,5.3095,5.3095,-7.881,-10.438,-9.2943,-11.041,-9.6012,-8.6253,-8.6253,-9.0688,-9.0688,-9.0688,-9.0688,-9.0688,-9.0688,-9.0688,-9.0688,-9.0688,-0.49294,-0.49294,3.9354,3.9354,0.69108,3.4056,3.2144,4.96,0.87747,4.3442,4.3442,7.0587,7.0587,7.0587,7.0587,7.0587,7.0587,7.0587,7.0587,7.0587,1.4625,1.4625,1.6003,1.6003,14.158,15.6,15.068,19.915,31.109,25.463,25.463,26.417,26.417,26.417,26.417,26.417,26.417,26.417,26.417,26.417,22.147,22.147,22.868,22.868,-12.652,-15.641,-14.467,-19.036,-23.338,-18.771,-18.771,-18.147,-18.147,-18.147,-18.147,-18.147,-18.147,-18.147,-18.147,-18.147,-7.7687,-7.7687,-7.373,-7.373,5.7295,6.248,6.0558,6.5985,6.17,2.6196,2.6196,0.86026,0.86026,0.86026,0.86026,0.86026,0.86026,0.86026,0.86026,0.86026,5.2978,5.2978,1.4499,1.4499,-1.1374,-2.9479,-2.4799,-2.0996,1.8899,1.2266,1.2266,0.78828,0.78828,0.78828,0.78828,0.78828,0.78828,0.78828,0.78828,0.78828,2.8599,2.8599,5.9049,5.9049
3.1495,4.3046,9.0575,11.673,17.435,17.435,17.435,17.435,21.763,21.763,21.763,21.763,21.763,21.763,21.763,21.763,21.763,21.763,5.9444,5.9444,2.8684,2.6079,2.2166,1.5058,0.4819,0.4819,0.4819,0.4819,-2.26,-2.26,-2.26,-2.26,-2.26,-2.26,-2.26,-2.26,-2.26,-2.26,14.355,14.355,-8.9947,-9.2953,-13.006,-14.241,-17.441,-17.441,-17.441,-17.441,-18.457,-18.457,-18.457,-18.457,-18.457,-18.457,-18.457,-18.457,-18.457,-18.457,-7.0472,-7.0472,5.7534,5.1439,7.6843,8.7602,10.522,10.522,10.522,10.522,11.063,11.063,11.063,11.063,11.063,11.063,11.063,11.063,11.063,11.063,1.6725,1.6725,-6.338,-6.6477,-9.4115,-10.974,-14.093,-14.093,-14.093,-14.093,-15.995,-15.995,-15.995,-15.995,-15.995,-15.995,-15.995,-15.995,-15.995,-15.995,-8.4337,-8.4337,3.65,4.9243,10.025,12.892,18.66,18.66,18.66,18.66,23.663,23.663,23.663,23.663,23.663,23.663,23.663,23.663,23.663,23.663,7.5573,7.5573,1.9428,1.9365,1.0349,0.50064,0.74274,0.74274,0.74274,0.74274,-2.5949,-2.5949,-2.5949,-2.5949,-2.5949,-2.5949,-2.5949,-2.5949,-2.5949,-2.5949,12.217,12.217,-9.5941,-10.298,-14.482,-16.945,-21.777,-21.777,-21.777,-21.777,-23.471,-23.471,-23.471,-23.471,-23.471,-23.471,-23.471,-23.471,-23.471,-23.471,-6.5702,-6.5702,8.0813,7.9554,11.424,13.832,16.595,16.595,16.595,16.595,18.334,18.334,18.334,18.334,18.334,18.334,18.334,18.334,18.334,18.334,8.6062,8.6062,-8.7552,-9.5055,-13.404,-16.076,-19.933,-19.933,-19.933,-19.933,-23.483,-23.483,-23.483,-23.483,-23.483,-23.483,-23.483,-23.483,-23.483,-23.483,-14.441,-14.441,3.7789,4.8217,9.9056,12.659,18.243,18.243,18.243,18.243,22.944,22.944,22.944,22.944,22.944,22.944,22.944,22.944,22.944,22.944,8.1196,8.1196,3.7615,4.4666,4.5037,4.8471,6.0788,6.0788,6.0788,6.0788,4.2506,4.2506,4.2506,4.2506,4.2506,4.2506,4.2506,4.2506,4.2506,4.2506,13.61,13.61,-12.353,-13.429,-19.325,-23.221,-28.696,-28.696,-28.696,-28.696,-32.482,-32.482,-32.482,-32.482,-32.482,-32.482,-32.482,-32.482,-32.482,-32.482,-10.95,-10.95,9.9468,10.048,14.602,18.101,20.944,20.944,20.944,20.944,24.058,24.058,24.058,24.058,24.058,24.058,24.058,24.058,24.058,24.058,16.762,16.762,-9.6899,-10.305,-14.805,-17.954,-21.815,-21.815,-21.815,-21.815,-25.743,-25.743,-25.743,-25.743,-25.743,-25.743,-25.743,-25.743,-25.743,-25.743,-18.028,-18.028,1.1669,1.7352,5.7117,7.3817,11.943,11.943,11.943,11.943,15.506,15.506,15.506,15.506,15.506,15.506,15.506,15.506,15.506,15.506,4.4605,4.4605,8.8269,10.074,12.31,14.315,16.645,16.645,16.645,16.645,16.874,16.874,16.874,16.874,16.874,16.874,16.874,16.874,16.874,16.874,19.567,19.567,-13.28,-13.805,-20.725,-25.281,-29.973,-29.973,-29.973,-29.973,-34.446,-34.446,-34.446,-34.446,-34.446,-34.446,-34.446,-34.446,-34.446,-34.446,-13.955,-13.955,8.8754,8.3008,12.538,16.052,17.578,17.578,17.578,17.578,20.269,20.269,20.269,20.269,20.269,20.269,20.269,20.269,20.269,20.269,20.288,20.288,-5.9327,-5.8052,-9.0416,-11.092,-13.423,-13.423,-13.423,-13.423,-16.051,-16.051,-16.051,-16.051,-16.051,-16.051,-16.051,-16.051,-16.051,-16.051,-13.548,-13.548,-0.54032,-0.1887,2.8511,3.6142,7.8472,7.8472,7.8472,7.8472,10.115,10.115,10.115,10.115,10.115,10.115,10.115,10.115,10.115,10.115,1.8896,1.8896,12.348,13.54,17.026,20.32,22.554,22.554,22.554,22.554,24.457,24.457,24.457,24.457,24.457,24.457,24.457,24.457,24.457,24.457,23.635,23.635,-9.6453,-9.0152,-15.114,-19.82,-22.966,-22.966,-22.966,-22.966,-26.142,-26.142,-26.142,-26.142,-26.142,-26.142,-26.142,-26.142,-26.142,-26.142,-12.379,-12.379,4.1304,2.6559,5.1694,8.3239,8.3729,8.3729,8.3729,8.3729,8.7934,8.7934,8.7934,8.7934,8.7934,8.7934,8.7934,8.7934,8.7934,8.7934,18.377,18.377,-0.35052,0.18098,-1.4729,-2.4305,-4.0713,-4.0713,-4.0713,-4.0713,-4.5459,-4.5459,-4.5459,-4.5459,-4.5459,-4.5459,-4.5459,-4.5459,-4.5459,-4.5459,-6.3205,-6.3205
6.4783,7.7691,14.391,14.391,14.391,14.391,21.683,21.683,21.683,21.683,21.683,21.683,21.683,21.683,21.683,21.683,3.5439,3.5439,2.7769,2.7769,1.8598,1.8048,-0.72337,-0.72337,-0.72337,-0.72337,-2.9296,-2.9296,-2.9296,-2.9296,-2.9296,-2.9296,-2.9296,-2.9296,-2.9296,-2.9296,19.685,19.685,19.526,19.526,-10.261,-11.339,-13.969,-13.969,-13.969,-13.969,-18.885,-18.885,-18.885,-18.885,-18.885,-18.885,-18.885,-18.885,-18.885,-18.885,-23.837,-23.837,-16.786,-16.786,6.3758,7.1069,7.9671,7.9671,7.9671,7.9671,9.4023,9.4023,9.4023,9.4023,9.4023,9.4023,9.4023,9.4023,9.4023,9.4023,18.866,18.866,13.163,13.163,-7.9519,-8.7435,-11.936,-11.936,-11.936,-11.936,-15.771,-15.771,-15.771,-15.771,-15.771,-15.771,-15.771,-15.771,-15.771,-15.771,-9.2884,-9.2884,-5.4463,-5.4463,7.1411,8.631,15.83,15.83,15.83,15.83,22.744,22.744,22.744,22.744,22.744,22.744,22.744,22.744,22.744,22.744,2.5225,2.5225,2.1438,2.1438,0.39687,0.41479,-2.0277,-2.0277,-2.0277,-2.0277,-1.6095,-1.6095,-1.6095,-1.6095,-1.6095,-1.6095,-1.6095,-1.6095,-1.6095,-1.6095,22.716,22.716,20.926,20.926,-10.859,-12.316,-16.938,-16.938,-16.938,-16.938,-24.169,-24.169,-24.169,-24.169,-24.169,-24.169,-24.169,-24.169,-24.169,-24.169,-25.745,-25.745,-16.973,-16.973,9.2069,10.221,13.732,13.732,13.732,13.732,16.356,16.356,16.356,16.356,16.356,16.356,16.356,16.356,16.356,16.356,19.438,19.438,13.821,13.821,-11.077,-12.25,-17.91,-17.91,-17.91,-17.91,-22.164,-22.164,-22.164,-22.164,-22.164,-22.164,-22.164,-22.164,-22.164,-22.164,-7.2098,-7.2098,-3.9353,-3.9353,7.4572,8.7666,15.634,15.634,15.634,15.634,20.864,20.864,20.864,20.864,20.864,20.864,20.864,20.864,20.864,20.864,1.2274,1.2274,1.7633,1.7633,2.8347,2.9811,2.8156,2.8156,2.8156,2.8156,6.4855,6.4855,6.4855,6.4855,6.4855,6.4855,6.4855,6.4855,6.4855,6.4855,25.952,25.952,21.928,21.928,-15.255,-16.329,-24.206,-24.206,-24.206,-24.206,-31.725,-31.725,-31.725,-31.725,-31.725,-31.725,-31.725,-31.725,-31.725,-31.725,-24.9,-24.9,-15.38,-15.38,12.459,12.982,18.937,18.937,18.937,18.937,20.142,20.142,20.142,20.142,20.142,20.142,20.142,20.142,20.142,20.142,14.959,14.959,10.872,10.872,-12.945,-13.743,-20.37,-20.37,-20.37,-20.37,-22.336,-22.336,-22.336,-22.336,-22.336,-22.336,-22.336,-22.336,-22.336,-22.336,-2.1923,-2.1923,-0.49495,-0.49495,4.2673,5.2999,10.005,10.005,10.005,10.005,13.06,13.06,13.06,13.06,13.06,13.06,13.06,13.06,13.06,13.06,-0.59918,-0.59918,0.80577,0.80577,9.3218,9.5291,13.093,13.093,13.093,13.093,18.82,18.82,18.82,18.82,18.82,18.82,18.82,18.82,18.82,18.82,27.797,27.797,22.719,22.719,-17.365,-17.718,-26.691,-26.691,-26.691,-26.691,-30.886,-30.886,-30.886,-30.886,-30.886,-30.886,-30.886,-30.886,-30.886,-30.886,-18.833,-18.833,-11.44,-11.44,11.923,11.632,16.849,16.849,16.849,16.849,13.881,13.881,13.881,13.881,13.881,13.881,13.881,13.881,13.881,13.881,7.299,7.299,6.6225,6.6225,-8.8784,-9.0481,-13.157,-13.157,-13.157,-13.157,-11.552,-11.552,-11.552,-11.552,-11.552,-11.552,-11.552,-11.552,-11.552,-11.552,4.2317,4.2317,4.0385,4.0385,1.6748,2.9017,5.4182,5.4182,5.4182,5.4182,8.3885,8.3885,8.3885,8.3885,8.3885,8.3885,8.3885,8.3885,8.3885,8.3885,0.82471,0.82471,2.5419,2.5419,14.134,13.91,20.011,20.011,20.011,20.011,24.118,24.118,24.118,24.118,24.118,24.118,24.118,24.118,24.118,24.118,25.34,25.34,20.74,20.74,-13.765,-13.422,-20.61,-20.61,-20.61,-20.61,-18.892,-18.892,-18.892,-18.892,-18.892,-18.892,-18.892,-18.892,-18.892,-18.892,-9.811,-9.811,-6.2715,-6.2715,6.6702,5.8166,7.9437,7.9437,7.9437,7.9437,0.59962,0.59962,0.59962,0.59962,0.59962,0.59962,0.59962,0.59962,0.59962,0.59962,0.93153,0.93153,3.2571,3.2571,-2.236,-2.4789,-3.2013,-3.2013,-3.2013,-3.2013,-0.74568,-0.74568,-0.74568,-0.74568,-0.74568,-0.74568,-0.74568,-0.74568,-0.74568,-0.74568,7.0837,7.0837,6.147,6.147
3.4703,4.1086,8.6355,11.968,11.968,11.968,7.5732,17.511,17.511,17.511,17.511,3.8429,4.263,4.5341,4.5341,1.5846,1.8761,1.8761,2.8661,2.8661,2.6496,2.9015,1.7109,0.7034,0.7034,0.7034,7.7989,-0.43895,-0.43895,-0.43895,-0.43895,13.046,16.268,14.29,14.29,18.638,19.732,19.732,19.743,19.743,-8.9317,-9.6759,-11.921,-13.366,-13.366,-13.366,-14.68,-17.135,-17.135,-17.135,-17.135,-12.498,-21.443,-17.875,-17.875,-10.578,-11.651,-11.651,-18.165,-18.165,5.744,6.0392,7.4345,8.2686,8.2686,8.2686,7.2448,10.307,10.307,10.307,10.307,9.2424,17.413,14.628,14.628,2.2316,2.3121,2.3121,15.298,15.298,-6.4301,-6.8007,-9.2341,-10.914,-10.914,-10.914,-9.1076,-14.731,-14.731,-14.731,-14.731,-9.9402,-9.376,-8.7815,-8.7815,-4.8733,-5.011,-5.011,-6.1635,-6.1635,3.9844,4.7638,9.6402,13.304,13.304,13.304,7.4093,18.928,18.928,18.928,18.928,4.0561,4.233,4.8053,4.8053,2.4848,2.9034,2.9034,1.9156,1.9156,1.6908,2.0541,0.66929,-0.55054,-0.55054,-0.55054,8.7663,-1.1015,-1.1015,-1.1015,-1.1015,13.376,17.43,14.689,14.689,16.522,17.5,17.5,21.694,21.694,-9.5129,-10.684,-13.617,-15.665,-15.665,-15.665,-14.25,-20.42,-20.42,-20.42,-20.42,-13.576,-23.11,-19.141,-19.141,-6.4945,-7.3453,-7.3453,-18.688,-18.688,8.0547,8.8644,11.107,12.763,12.763,12.763,8.8165,15.827,15.827,15.827,15.827,13.748,19.512,17.179,17.179,4.1431,4.1913,4.1913,15.361,15.361,-8.8595,-9.6615,-13.181,-15.83,-15.83,-15.83,-10.942,-20.575,-20.575,-20.575,-20.575,-12.237,-9.313,-9.5143,-9.5143,-7.935,-8.3682,-8.3682,-3.8994,-3.8994,4.0872,4.7225,9.7091,13.346,13.346,13.346,6.8471,18.421,18.421,18.421,18.421,3.2125,3.4853,4.3971,4.3971,3.5307,4.0684,4.0684,1.2538,1.2538,3.5308,4.5661,3.4638,3.0226,3.0226,3.0226,11.236,4.21,4.21,4.21,4.21,16.437,20.569,17.137,17.137,15.601,16.609,16.609,23.093,23.093,-12.287,-14.07,-17.862,-21.086,-21.086,-21.086,-14.736,-27.167,-27.167,-27.167,-27.167,-16.176,-24.238,-20.405,-20.405,-6.0231,-7.168,-7.168,-17.029,-17.029,9.9234,10.99,14.003,16.464,16.464,16.464,9.6115,20.095,20.095,20.095,20.095,16.451,17.404,16.213,16.213,7.8386,8.4646,8.4646,11.636,11.636,-9.7808,-10.525,-14.689,-17.768,-17.768,-17.768,-11.091,-22.331,-22.331,-22.331,-22.331,-11.282,-5.8908,-7.0104,-7.0104,-10.668,-11.573,-11.573,0.27432,0.27432,1.4038,1.6691,5.9241,8.7874,8.7874,8.7874,3.7929,12.296,12.296,12.296,12.296,-0.18426,1.2672,2.2721,2.2721,2.2726,2.6615,2.6615,0.26384,0.26384,8.6858,10.281,10.324,11.254,11.254,11.254,15.796,14.633,14.633,14.633,14.633,21.5,23.918,20.508,20.508,17.684,18.948,18.948,23.754,23.754,-13.26,-14.933,-19.075,-22.716,-22.716,-22.716,-13.145,-28.535,-28.535,-28.535,-28.535,-15.699,-20.61,-17.803,-17.803,-6.5404,-7.9016,-7.9016,-12.37,-12.37,8.8609,9.4458,12.337,14.56,14.56,14.56,8.1692,16.99,16.99,16.99,16.99,14.678,11.146,11.601,11.601,11.162,12.326,12.326,6.4689,6.4689,-5.9566,-6.0918,-9.5382,-11.754,-11.754,-11.754,-6.9889,-14.282,-14.282,-14.282,-14.282,-4.7594,0.61146,-1.1326,-1.1326,-9.5966,-10.684,-10.684,5.1888,5.1888,-0.3809,-0.3879,3.3188,5.5967,5.5967,5.5967,2.4873,8.1377,8.1377,8.1377,8.1377,-1.5407,1.7416,2.4773,2.4773,1.9055,2.0729,2.0729,2.3285,2.3285,12.308,14.097,14.902,16.684,16.684,16.684,18.088,20.816,20.816,20.816,20.816,23.6,23.478,20.714,20.714,19.385,20.878,20.878,21.12,21.12,-9.6609,-10.574,-14.519,-17.736,-17.736,-17.736,-8.4999,-21.571,-21.571,-21.571,-21.571,-11.002,-12.954,-11.347,-11.347,-6.1115,-7.4327,-7.4327,-6.3791,-6.3791,4.1153,3.813,6.1776,7.5532,7.5532,7.5532,4.7929,7.8356,7.8356,7.8356,7.8356,9.687,4.2183,5.5576,5.5576,12.644,14.003,14.003,2.8298,2.8298,-0.31348,0.16283,-2.6414,-4.0033,-4.0033,-4.0033,-2.5227,-4.9063,-4.9063,-4.9063,-4.9063,2.1212,4.9466,3.5318,3.5318,-6.8716,-7.7877,-7.7877,6.8698,6.8698
4.0568,7.5954,9.3811,10.171,13.346,17.508,17.508,17.508,17.508,17.508,17.508,4.027,4.027,4.027,4.027,4.027,4.027,5.0462,5.0462,2.76,2.0601,1.4596,1.2004,1.0107,0.33925,2.0887,2.0887,2.0887,2.0887,2.0887,2.0887,17.665,17.665,17.665,17.665,17.665,17.665,16.594,16.594,19.191,-8.7731,-10.714,-11.894,-12.471,-13.977,-19.608,-19.608,-19.608,-19.608,-19.608,-19.608,-20.122,-20.122,-20.122,-20.122,-20.122,-20.122,-12.203,-12.203,-15.799,5.4002,6.5976,7.2395,7.158,8.5912,11.762,11.762,11.762,11.762,11.762,11.762,14.485,14.485,14.485,14.485,14.485,14.485,5.8545,5.8545,12.476,-6.6106,-8.3484,-9.2931,-9.7381,-11.59,-14.749,-14.749,-14.749,-14.749,-14.749,-14.749,-9.0451,-9.0451,-9.0451,-9.0451,-9.0451,-9.0451,-9.1047,-9.1047,-5.1626,4.5263,8.7636,10.423,11.42,14.688,18.007,18.007,18.007,18.007,18.007,18.007,3.8397,3.8397,3.8397,3.8397,3.8397,3.8397,5.7338,5.7338,2.0001,1.134,-0.15548,-0.42624,0.11823,-1.4581,4.18,4.18,4.18,4.18,4.18,4.18,18.837,18.837,18.837,18.837,18.837,18.837,15.992,15.992,20.531,-9.3659,-11.883,-13.093,-14.979,-15.649,-24.947,-24.947,-24.947,-24.947,-24.947,-24.947,-20.679,-20.679,-20.679,-20.679,-20.679,-20.679,-11.736,-11.736,-15.353,7.8811,10.066,10.901,11.725,12.802,18.106,18.106,18.106,18.106,18.106,18.106,16.494,16.494,16.494,16.494,16.494,16.494,10.605,10.605,12.346,-9.2335,-12.33,-13.382,-14.44,-16.53,-19.882,-19.882,-19.882,-19.882,-19.882,-19.882,-9.2872,-9.2872,-9.2872,-9.2872,-9.2872,-9.2872,-12.709,-12.709,-3.2737,4.5528,8.9564,10.721,11.179,14.847,16.53,16.53,16.53,16.53,16.53,16.53,3.143,3.143,3.143,3.143,3.143,3.143,5.4408,5.4408,1.6897,3.0957,2.614,2.4885,4.1739,1.9257,11.311,11.311,11.311,11.311,11.311,11.311,21.317,21.317,21.317,21.317,21.317,21.317,17.855,17.855,21.236,-12.28,-16.432,-18.137,-20.543,-21.099,-31.965,-31.965,-31.965,-31.965,-31.965,-31.965,-20.811,-20.811,-20.811,-20.811,-20.811,-20.811,-13.745,-13.745,-13.527,10.043,13.242,14.536,15.358,16.63,21.711,21.711,21.711,21.711,21.711,21.711,15.104,15.104,15.104,15.104,15.104,15.104,15.006,15.006,9.421,-10.357,-14.041,-15.495,-15.904,-18.721,-20.226,-20.226,-20.226,-20.226,-20.226,-20.226,-6.4574,-6.4574,-6.4574,-6.4574,-6.4574,-6.4574,-13.578,-13.578,0.027693,1.648,5.2248,6.4979,6.5528,10.239,9.6654,9.6654,9.6654,9.6654,9.6654,9.6654,1.1669,1.1669,1.1669,1.1669,1.1669,1.1669,2.0936,2.0936,0.94602,8.5835,9.69,10.632,12.41,10.435,22.191,22.191,22.191,22.191,22.191,22.191,23.947,23.947,23.947,23.947,23.947,23.947,22.571,22.571,21.647,-13.527,-18.21,-20.477,-21.799,-23.098,-31.9,-31.9,-31.9,-31.9,-31.9,-31.9,-17.314,-17.314,-17.314,-17.314,-17.314,-17.314,-13.921,-13.921,-9.6068,9.3261,11.939,13.359,12.996,14.956,16.787,16.787,16.787,16.787,16.787,16.787,10.742,10.742,10.742,10.742,10.742,10.742,15.621,15.621,5.5893,-6.5414,-9.0547,-10.1,-9.5748,-12.79,-10.557,-10.557,-10.557,-10.557,-10.557,-10.557,-0.93777,-0.93777,-0.93777,-0.93777,-0.93777,-0.93777,-8.2194,-8.2194,4.0998,-0.4795,2.363,3.1528,3.4354,7.0253,5.1353,5.1353,5.1353,5.1353,5.1353,5.1353,1.6327,1.6327,1.6327,1.6327,1.6327,1.6327,0.55131,0.55131,2.7469,12.677,14.786,16.251,17.365,15.878,27.727,27.727,27.727,27.727,27.727,27.727,23.431,23.431,23.431,23.431,23.431,23.431,24.922,24.922,19.728,-10.149,-14.134,-16.076,-15.906,-18.12,-22.864,-22.864,-22.864,-22.864,-22.864,-22.864,-10.76,-10.76,-10.76,-10.76,-10.76,-10.76,-10.939,-10.939,-5.0985,4.6819,5.9438,6.8576,5.2978,7.9589,5.8797,5.8797,5.8797,5.8797,5.8797,5.8797,5.4867,5.4867,5.4867,5.4867,5.4867,5.4867,13.48,13.48,2.9202,-0.55205,-1.894,-2.3031,-1.6776,-5.0848,-0.12772,-0.12772,-0.12772,-0.12772,-0.12772,-0.12772,3.3312,3.3312,3.3312,3.3312,3.3312,3.3312,-2.2026,-2.2026,5.8964
3.1502,6.6707,6.6707,8.641,11.354,11.354,11.354,14.726,7.2087,7.2087,15.574,15.574,15.574,15.574,19.165,19.165,19.165,19.165,19.165,19.165,2.8923,2.6102,2.6102,2.2489,1.512,1.512,1.512,4.6188,11.181,11.181,4.0441,4.0441,4.0441,4.0441,1.0128,1.0128,1.0128,1.0128,1.0128,1.0128,-9.0121,-11.557,-11.557,-12.637,-13.829,-13.829,-13.829,-21.465,-17.717,-17.717,-20.639,-20.639,-20.639,-20.639,-21.547,-21.547,-21.547,-21.547,-21.547,-21.547,5.7923,7.2863,7.2863,7.6918,8.4891,8.4891,8.4891,11.295,8.2033,8.2033,11.672,11.672,11.672,11.672,12.366,12.366,12.366,12.366,12.366,12.366,-6.343,-8.5033,-8.5033,-9.3025,-10.783,-10.783,-10.783,-15.157,-9.5527,-9.5527,-13.702,-13.702,-13.702,-13.702,-17.512,-17.512,-17.512,-17.512,-17.512,-17.512,3.6432,7.6258,7.6258,9.4861,12.445,12.445,12.445,14.265,6.3103,6.3103,15.062,15.062,15.062,15.062,18.619,18.619,18.619,18.619,18.619,18.619,1.9731,1.3018,1.3018,1.2328,0.91541,0.91541,0.91541,8.1595,12.374,12.374,6.9424,6.9424,6.9424,6.9424,4.3086,4.3086,4.3086,4.3086,4.3086,4.3086,-9.6145,-12.859,-12.859,-14.05,-16.45,-16.45,-16.45,-25.963,-15.187,-15.187,-23.321,-23.321,-23.321,-23.321,-25.078,-25.078,-25.078,-25.078,-25.078,-25.078,8.1212,10.781,10.781,11.21,13.005,13.005,13.005,16.74,7.4825,7.4825,14.983,14.983,14.983,14.983,16.272,16.272,16.272,16.272,16.272,16.272,-8.746,-12.274,-12.274,-13.03,-15.38,-15.38,-15.38,-18.923,-9.6613,-9.6613,-16.328,-16.328,-16.328,-16.328,-20.492,-20.492,-20.492,-20.492,-20.492,-20.492,3.7675,7.7199,7.7199,9.2869,12.439,12.439,12.439,11.809,5.4902,5.4902,12.567,12.567,12.567,12.567,15.848,15.848,15.848,15.848,15.848,15.848,3.7962,4.0669,4.0669,4.5483,4.4094,4.4094,4.4094,15.372,14.319,14.319,13.263,13.263,13.263,13.263,11.525,11.525,11.525,11.525,11.525,11.525,-12.374,-17.193,-17.193,-18.453,-21.562,-21.562,-21.562,-30.41,-12.983,-12.983,-25.347,-25.347,-25.347,-25.347,-27.886,-27.886,-27.886,-27.886,-27.886,-27.886,9.9756,13.875,13.875,14,16.424,16.424,16.424,18.609,6.23,6.23,14.316,14.316,14.316,14.316,16.097,16.097,16.097,16.097,16.097,16.097,-9.6653,-13.866,-13.866,-14.175,-17.116,-17.116,-17.116,-17.612,-8.839,-8.839,-13.883,-13.883,-13.883,-13.883,-18.103,-18.103,-18.103,-18.103,-18.103,-18.103,1.1504,4.2996,4.2996,5.2151,7.8526,7.8526,7.8526,5.45,2.92,2.92,6.4646,6.4646,6.4646,6.4646,8.8802,8.8802,8.8802,8.8802,8.8802,8.8802,8.8663,10.736,10.736,12.097,12.401,12.401,12.401,24.312,17.371,17.371,21.517,21.517,21.517,21.517,20.874,20.874,20.874,20.874,20.874,20.874,-13.299,-18.732,-18.732,-19.777,-22.747,-22.747,-22.747,-27.366,-8.9768,-8.9768,-21.372,-21.372,-21.372,-21.372,-23.42,-23.42,-23.42,-23.42,-23.42,-23.42,8.8865,12.601,12.601,12.007,14.192,14.192,14.192,12.223,4.0184,4.0184,7.1058,7.1058,7.1058,7.1058,8.5906,8.5906,8.5906,8.5906,8.5906,8.5906,-5.8892,-9.2073,-9.2073,-8.5497,-10.918,-10.918,-10.918,-8.0054,-5.2646,-5.2646,-4.3511,-4.3511,-4.3511,-4.3511,-7.7702,-7.7702,-7.7702,-7.7702,-7.7702,-7.7702,-0.55403,1.8269,1.8269,2.5114,4.8388,4.8388,4.8388,1.7708,2.8786,2.8786,4.0259,4.0259,4.0259,4.0259,5.9843,5.9843,5.9843,5.9843,5.9843,5.9843,12.379,15.127,15.127,16.6,17.359,17.359,17.359,27.676,17.452,17.452,23.626,23.626,23.626,23.626,23.261,23.261,23.261,23.261,23.261,23.261,-9.6462,-14.2,-14.2,-14.407,-17.438,-17.438,-17.438,-15.893,-3.6751,-3.6751,-11.402,-11.402,-11.402,-11.402,-11.872,-11.872,-11.872,-11.872,-11.872,-11.872,4.119,6.5314,6.5314,5.0199,7.1039,7.1039,7.1039,0.88043,2.329,2.329,-2.6771,-2.6771,-2.6771,-2.6771,-1.7381,-1.7381,-1.7381,-1.7381,-1.7381,-1.7381,-0.30601,-2.3733,-2.3733,-1.2515,-3.325,-3.325,-3.325,1.5261,-3.1734,-3.1734,3.0589,3.0589,3.0589,3.0589,0.096427,0.096427,0.096427,0.096427,0.096427,0.096427
3.2332,6.6171,10.802,10.802,10.802,13.179,17.082,17.082,17.082,17.082,17.082,17.082,20.169,16.498,16.498,16.498,16.498,16.498,16.498,3.4309,2.757,2.4914,0.73202,0.73202,0.73202,4.6941,1.5772,1.5772,1.5772,1.5772,1.5772,1.5772,0.090525,4.2427,4.2427,4.2427,4.2427,4.2427,4.2427,18.292,-8.9493,-11.345,-12.466,-12.466,-12.466,-20.125,-18.547,-18.547,-18.547,-18.547,-18.547,-18.547,-21.356,-21.747,-21.747,-21.747,-21.747,-21.747,-21.747,-15.469,5.7041,6.8307,7.6822,7.6822,7.6822,12.332,11.06,11.06,11.06,11.06,11.06,11.06,12.754,12.369,12.369,12.369,12.369,12.369,12.369,14.415,-6.4056,-8.0915,-10.165,-10.165,-10.165,-13.834,-14.179,-14.179,-14.179,-14.179,-14.179,-14.179,-18.335,-14.357,-14.357,-14.357,-14.357,-14.357,-14.357,-6.204,3.7298,7.5039,12.191,12.191,12.191,14.201,17.573,17.573,17.573,17.573,17.573,17.573,20.839,15.698,15.698,15.698,15.698,15.698,15.698,3.0093,1.8396,1.0112,-1.0304,-1.0304,-1.0304,5.354,3.4906,3.4906,3.4906,3.4906,3.4906,3.4906,2.0909,8.0878,8.0878,8.0878,8.0878,8.0878,8.0878,19.173,-9.5608,-12.171,-14.2,-14.2,-14.2,-25.15,-22.91,-22.91,-22.91,-22.91,-22.91,-22.91,-26.594,-24.597,-24.597,-24.597,-24.597,-24.597,-24.597,-15.734,8.0536,9.9421,11.835,11.835,11.835,19.397,16.354,16.354,16.354,16.354,16.354,16.354,19.276,15.565,15.565,15.565,15.565,15.565,15.565,15.439,-8.8274,-11.551,-14.921,-14.921,-14.921,-19.738,-18.823,-18.823,-18.823,-18.823,-18.823,-18.823,-23.925,-16.71,-16.71,-16.71,-16.71,-16.71,-16.71,-5.0035,3.8549,7.6366,12.367,12.367,12.367,12.937,15.727,15.727,15.727,15.727,15.727,15.727,18.767,12.999,12.999,12.999,12.999,12.999,12.999,2.7054,3.6758,3.5952,2.417,2.417,2.417,12.384,10.261,10.261,10.261,10.261,10.261,10.261,9.7086,14.704,14.704,14.704,14.704,14.704,14.704,20.303,-12.364,-16.243,-19.775,-19.775,-19.775,-33.076,-28.339,-28.339,-28.339,-28.339,-28.339,-28.339,-32.753,-26.493,-26.493,-26.493,-26.493,-26.493,-26.493,-15.269,9.9863,12.778,15.704,15.704,15.704,24.194,18.584,18.584,18.584,18.584,18.584,18.584,22.007,14.654,14.654,14.654,14.654,14.654,14.654,13.317,-9.7894,-13.012,-17.012,-17.012,-17.012,-20.663,-18.22,-18.22,-18.22,-18.22,-18.22,-18.22,-23.333,-13.983,-13.983,-13.983,-13.983,-13.983,-13.983,-1.7216,1.2133,4.1821,8.0874,8.0874,8.0874,6.4698,9.2307,9.2307,9.2307,9.2307,9.2307,9.2307,11.109,6.7792,6.7792,6.7792,6.7792,6.7792,6.7792,1.5698,8.7828,10.318,10.464,10.464,10.464,23.357,20.408,20.408,20.408,20.408,20.408,20.408,21.192,22.924,22.924,22.924,22.924,22.924,22.924,21.573,-13.313,-17.785,-21.765,-21.765,-21.765,-33.609,-27.973,-27.973,-27.973,-27.973,-27.973,-27.973,-30.893,-22.518,-22.518,-22.518,-22.518,-22.518,-22.518,-12.147,8.9142,11.41,14.191,14.191,14.191,19.65,13.762,13.762,13.762,13.762,13.762,13.762,15.375,7.3939,7.3939,7.3939,7.3939,7.3939,7.3939,9.1644,-5.9842,-8.2809,-11.425,-11.425,-11.425,-11.354,-9.0388,-9.0388,-9.0388,-9.0388,-9.0388,-9.0388,-12.277,-4.3124,-4.3124,-4.3124,-4.3124,-4.3124,-4.3124,3.2824,-0.5204,1.7666,5.0085,5.0085,5.0085,1.9612,5.6573,5.6573,5.6573,5.6573,5.6573,5.6573,6.645,4.2709,4.2709,4.2709,4.2709,4.2709,4.2709,3.0894,12.33,14.727,15.848,15.848,15.848,29.272,24.871,24.871,24.871,24.871,24.871,24.871,26.146,24.898,24.898,24.898,24.898,24.898,24.898,20.028,-9.6553,-13.268,-17.068,-17.068,-17.068,-24.638,-19.487,-19.487,-19.487,-19.487,-19.487,-19.487,-19.683,-11.728,-11.728,-11.728,-11.728,-11.728,-11.728,-7.192,4.1096,5.2655,7.4578,7.4578,7.4578,8.3431,3.861,3.861,3.861,3.861,3.861,3.861,3.2237,-3.1886,-3.1886,-3.1886,-3.1886,-3.1886,-3.1886,5.1031,-0.34519,-1.5491,-3.8631,-3.8631,-3.8631,-0.41978,-0.087106,-0.087106,-0.087106,-0.087106,-0.087106,-0.087106,-1.6812,3.4405,3.4405,3.4405,3.4405,3.4405,3.4405,6.1174
3.4816,7.0649,8.2889,12.007,14.337,14.07,14.07,14.07,13.008,5.2517,6.0114,17.45,17.45,17.45,17.45,17.45,5.2521,2.5538,2.5538,2.5538,2.6146,1.9867,1.77,2.0503,0.37618,1.3655,1.3655,1.3655,5.5464,13.111,15.172,4.0041,4.0041,4.0041,4.0041,4.0041,12.801,18.872,18.872,18.872,-8.8989,-11.001,-11.709,-15.741,-15.328,-15.804,-15.804,-15.804,-19.635,-13.291,-15.397,-22.129,-22.129,-22.129,-22.129,-22.129,-6.9634,-13.918,-13.918,-13.918,5.6824,6.9161,7.3138,8.37,8.5717,9.5774,9.5774,9.5774,10.414,5.6158,5.9802,12.513,12.513,12.513,12.513,12.513,6.5686,10.47,10.47,10.47,-6.4008,-8.3822,-9.0434,-11.739,-12.026,-12.346,-12.346,-12.346,-12.158,-7.7464,-8.1685,-14.88,-14.88,-14.88,-14.88,-14.88,-11.005,-4.0106,-4.0106,-4.0106,4.0006,7.8571,9.1151,12.763,15.541,14.953,14.953,14.953,12.26,5.3956,6.115,16.632,16.632,16.632,16.632,16.632,6.296,2.0779,2.0779,2.0779,1.653,0.62058,0.44891,3.0722,0.1827,1.1962,1.1962,1.1962,8.0996,12.756,14.969,7.8421,7.8421,7.8421,7.8421,7.8421,12.337,19.655,19.655,19.655,-9.4817,-11.846,-12.833,-20.161,-18.836,-18.701,-18.701,-18.701,-21.072,-10.87,-12.511,-24.953,-24.953,-24.953,-24.953,-24.953,-9.3749,-13.18,-13.18,-13.18,8.0081,9.8631,10.592,14.726,14.009,14.32,14.32,14.32,12.436,7.3411,7.3696,15.71,15.71,15.71,15.71,15.71,14.978,10.708,10.708,10.708,-8.8625,-11.687,-12.621,-17.151,-17.348,-17.017,-17.017,-17.017,-13.815,-9.9511,-10.353,-17.294,-17.294,-17.294,-17.294,-17.294,-16.114,-2.6786,-2.6786,-2.6786,4.1116,7.9893,9.3856,11.689,14.715,14.434,14.434,14.434,10.131,5.3825,6.2195,13.908,13.908,13.908,13.908,13.908,5.5609,2.031,2.031,2.031,3.4783,3.0439,3.0272,8.9393,5.4816,5.9268,5.9268,5.9268,12.995,13.928,15.76,14.615,14.615,14.615,14.615,14.615,15.467,19.865,19.865,19.865,-12.246,-15.627,-17.11,-26.674,-24.933,-24.443,-24.443,-24.443,-21.279,-10.954,-12.023,-27.034,-27.034,-27.034,-27.034,-27.034,-14.449,-11.318,-11.318,-11.318,9.8915,12.461,13.587,18.963,17.6,17.781,17.781,17.781,10.818,9.6017,9.5727,14.936,14.936,14.936,14.936,14.936,21.554,8.2338,8.2338,8.2338,-9.8153,-13.082,-14.377,-18.25,-18.305,-18.287,-18.287,-18.287,-11.402,-11.115,-11.766,-14.634,-14.634,-14.634,-14.634,-14.634,-16.744,0.088922,0.088922,0.088922,1.4314,4.6661,5.8235,5.3237,8.8395,9.0221,9.0221,9.0221,5.1432,3.0921,3.9398,7.5568,7.5568,7.5568,7.5568,7.5568,1.1741,1.4026,1.4026,1.4026,8.6378,9.3845,9.8478,19.078,15.692,15.485,15.485,15.485,19.484,17.4,18.839,23.022,23.022,23.022,23.022,23.022,22.127,20.226,20.226,20.226,-13.251,-16.989,-18.636,-26.994,-25.977,-25.947,-25.947,-25.947,-16.681,-10.257,-10.671,-23.224,-23.224,-23.224,-23.224,-23.224,-16.722,-8.0221,-8.0221,-8.0221,8.892,11.181,12.219,15.057,13.996,15.089,15.089,15.089,4.4761,10.424,10.365,7.8169,7.8169,7.8169,7.8169,7.8169,22.28,5.1863,5.1863,5.1863,-6.0413,-8.5524,-9.5761,-9.413,-10.209,-11.046,-11.046,-11.046,-3.5634,-8.3844,-9.164,-4.9248,-4.9248,-4.9248,-4.9248,-4.9248,-9.5604,3.7664,3.7664,3.7664,-0.34729,2.4278,3.1657,1.1763,5.226,5.4834,5.4834,5.4834,3.8419,2.3156,3.3213,4.9065,4.9065,4.9065,4.9065,4.9065,-1.2095,3.112,3.112,3.112,12.264,13.631,14.623,24.491,20.677,20.608,20.608,20.608,20.175,19.242,20.303,25.149,25.149,25.149,25.149,25.149,25.504,18.631,18.631,18.631,-9.6872,-12.866,-14.32,-18.652,-18.206,-19.326,-19.326,-19.326,-7.2423,-7.7469,-7.8798,-12.413,-12.413,-12.413,-12.413,-12.413,-13.339,-4.3019,-4.3019,-4.3019,4.1964,5.5906,6.2275,4.9889,4.4704,6.6697,6.6697,6.6697,-3.1904,9.8676,10.13,-2.8317,-2.8317,-2.8317,-2.8317,-2.8317,17.246,3.0889,3.0889,3.0889,-0.4269,-2.2187,-2.67,0.4942,-1.317,-2.4938,-2.4938,-2.4938,1.6747,-5.0767,-6.2685,2.98,2.98,2.98,2.98,2.98,-0.70552,5.5778,5.5778,5.5778
5.8139,7.8202,9.4826,9.4826,10.751,12.601,12.601,12.601,15.901,15.901,15.901,2.355,2.355,2.5598,3.2633,3.2633,1.473,2.6635,1.4608,3.2172,2.3361,1.5147,1.2646,1.2646,3.4573,3.3596,3.3596,3.3596,3.1722,3.1722,3.1722,20.074,20.074,19.709,17.451,17.451,20.08,19.901,18.907,18.667,-10.487,-10.967,-12.049,-12.049,-16.429,-16.796,-16.796,-16.796,-20.653,-20.653,-20.653,-19.351,-19.351,-18.162,-18.485,-18.485,-13.96,-19.412,-14.916,-15.83,6.289,6.7769,7.5165,7.5165,10.235,9.8609,9.8609,9.8609,12.284,12.284,12.284,11.158,11.158,10.319,12.554,12.554,6.5542,14.508,15.017,14.307,-7.551,-8.5616,-9.5982,-9.5982,-11.838,-11.85,-11.85,-11.85,-15.761,-15.761,-15.761,-8.2624,-8.2624,-8.4458,-6.7285,-6.7285,-5.8765,-6.1672,-7.563,-5.9232,6.4491,8.8361,10.635,10.635,11.902,12.645,12.645,12.645,16.454,16.454,16.454,1.9802,1.9802,2.3464,2.6947,2.6947,1.3948,1.5282,0.94378,2.771,0.83236,-0.2488,-0.16451,-0.16451,2.1113,5.4898,5.4898,5.4898,4.3789,4.3789,4.3789,21.319,21.319,20.399,18.919,18.919,20.066,22.18,20.165,19.592,-10.903,-11.816,-13.647,-13.647,-18.577,-20.11,-20.11,-20.11,-24.063,-24.063,-24.063,-18.769,-18.769,-16.679,-18.03,-18.03,-11.563,-19.32,-15.897,-15.985,9.1097,9.9584,11.308,11.308,15.03,13.86,13.86,13.86,17.228,17.228,17.228,12.969,12.969,11.761,12.693,12.693,7.5695,13.803,17.098,15.206,-10.68,-12.291,-13.834,-13.834,-16.759,-15.119,-15.119,-15.119,-20.272,-20.272,-20.272,-8.8396,-8.8396,-9.166,-5.5574,-5.5574,-6.6433,-3.5933,-6.5585,-4.646,6.7882,9.1862,10.819,10.819,12.016,11.042,11.042,11.042,14.93,14.93,14.93,1.338,1.338,2.0606,2.0909,2.0909,1.5469,0.81766,0.17592,2.4804,3.0003,2.3461,2.8105,2.8105,6.0765,10.985,10.985,10.985,10.954,10.954,10.954,23.088,23.088,21.663,20.53,20.53,20.2,23.537,21.97,20.637,-14.795,-16.376,-18.4,-18.4,-24.596,-23.77,-23.77,-23.77,-29.939,-29.939,-29.939,-17.684,-17.684,-15.708,-16.439,-16.439,-10.212,-16.888,-15.996,-15.278,12.074,13.233,14.609,14.609,19.187,14.93,14.93,14.93,20.503,20.503,20.503,12.352,12.352,11.854,9.7541,9.7541,8.3321,9.5856,15.563,12.906,-12.531,-14.237,-15.668,-15.668,-18.879,-14.161,-14.161,-14.161,-20.506,-20.506,-20.506,-7.064,-7.064,-8.1141,-2.2628,-2.2628,-6.5213,0.51432,-2.7779,-1.3427,3.5227,5.6819,6.8706,6.8706,7.1644,5.681,5.681,5.681,9.0182,9.0182,9.0182,-0.7681,-0.7681,0.19942,0.88544,0.88544,0.31155,-0.0089994,-1.3179,1.4188,9.5098,9.1352,10.175,10.175,14.816,19.061,19.061,19.061,20.355,20.355,20.355,25.424,25.424,23.836,21.868,21.868,21.551,23.823,23.73,21.751,-16.758,-18.143,-20.004,-20.004,-26.027,-22.662,-22.662,-22.662,-28.917,-28.917,-28.917,-14.123,-14.123,-12.833,-12.445,-12.445,-8.2323,-11.607,-13.214,-11.966,11.47,12.154,13.092,13.092,16.731,10.443,10.443,10.443,15.707,15.707,15.707,9.4759,9.4759,9.8726,5.6077,5.6077,8.2365,4.4675,11.368,8.6968,-8.4002,-9.6232,-10.415,-10.415,-12.189,-6.2911,-6.2911,-6.2911,-11.898,-11.898,-11.898,-2.1615,-2.1615,-3.6074,2.1105,2.1105,-3.6114,4.8553,3.004,3.5509,0.91001,3.0573,4.1023,4.1023,3.7415,2.9955,2.9955,2.9955,4.8911,4.8911,4.8911,-0.40765,-0.40765,0.62925,2.0689,2.0689,0.86376,1.8948,-0.29373,2.9754,14.328,14.005,15.054,15.054,20.171,22.49,22.49,22.49,25.579,25.579,25.579,24.837,24.837,23.433,20.719,20.719,21.474,21.344,22.611,20.15,-13.15,-14.196,-15.451,-15.451,-19.951,-14.978,-14.978,-14.978,-19.642,-19.642,-19.642,-8.5297,-8.5297,-8.1444,-7.1359,-7.1359,-5.721,-5.5457,-8.0024,-6.9924,6.2121,6.4926,6.7811,6.7811,8.6251,1.9429,1.9429,1.9429,5.4243,5.4243,5.4243,6.2221,6.2221,7.1179,2.2203,2.2203,7.7861,1.0123,6.5261,4.7217,-1.7237,-2.8776,-3.3049,-3.3049,-3.6246,1.2763,1.2763,1.2763,-2.0744,-2.0744,-2.0744,1.6208,1.6208,0.29745,4.5504,4.5504,-0.63928,6.4334,7.0968,6.274
5.2712,4.8777,6.3313,14.283,14.283,20.141,20.141,20.141,20.141,20.141,20.141,15.635,15.635,15.635,15.635,15.635,15.635,15.635,1.9338,3.3953,2.4316,2.5666,2.3372,-0.83169,-0.83169,-1.5846,-1.5846,-1.5846,-1.5846,-1.5846,-1.5846,6.1049,6.1049,6.1049,6.1049,6.1049,6.1049,6.1049,20.237,18.987,-9.9937,-9.9408,-10.759,-13.753,-13.753,-17.975,-17.975,-17.975,-17.975,-17.975,-17.975,-23.219,-23.219,-23.219,-23.219,-23.219,-23.219,-23.219,-16.481,-17.453,6.2936,6.3048,6.5766,7.6811,7.6811,10.068,10.068,10.068,10.068,10.068,10.068,13.256,13.256,13.256,13.256,13.256,13.256,13.256,9.7922,15.512,-7.3786,-7.2493,-7.9598,-11.565,-11.565,-14.738,-14.738,-14.738,-14.738,-14.738,-14.738,-16.141,-16.141,-16.141,-16.141,-16.141,-16.141,-16.141,-6.2059,-6.7472,5.8058,5.4763,6.8928,15.908,15.908,21.61,21.61,21.61,21.61,21.61,21.61,14.178,14.178,14.178,14.178,14.178,14.178,14.178,1.6701,2.8009,1.1219,1.3259,1.9004,-2.3153,-2.3153,-1.3061,-1.3061,-1.3061,-1.3061,-1.3061,-1.3061,10.873,10.873,10.873,10.873,10.873,10.873,10.873,20.816,20.449,-10.49,-10.48,-12.364,-16.485,-16.485,-22.948,-22.948,-22.948,-22.948,-22.948,-22.948,-25.936,-25.936,-25.936,-25.936,-25.936,-25.936,-25.936,-14.956,-18.336,8.8665,8.806,9.865,12.982,12.982,17.136,17.136,17.136,17.136,17.136,17.136,15.697,15.697,15.697,15.697,15.697,15.697,15.697,10.763,16.563,-10.127,-9.9793,-11.071,-17.408,-17.408,-21.455,-21.455,-21.455,-21.455,-21.455,-21.455,-17.23,-17.23,-17.23,-17.23,-17.23,-17.23,-17.23,-6.2817,-5.2963,6.0563,5.6556,6.7922,15.699,15.699,20.565,20.565,20.565,20.565,20.565,20.565,11.37,11.37,11.37,11.37,11.37,11.37,11.37,1.4542,2.3133,3.239,3.3892,4.718,2.2976,2.2976,5.5736,5.5736,5.5736,5.5736,5.5736,5.5736,17.167,17.167,17.167,17.167,17.167,17.167,17.167,21.596,21.898,-14.193,-13.766,-16.254,-23.312,-23.312,-31.12,-31.12,-31.12,-31.12,-31.12,-31.12,-26.998,-26.998,-26.998,-26.998,-26.998,-26.998,-26.998,-13.506,-17.631,11.573,11.067,12.41,17.712,17.712,22.007,22.007,22.007,22.007,22.007,22.007,14.265,14.265,14.265,14.265,14.265,14.265,14.265,9.9275,13.825,-11.656,-11.197,-12.138,-19.573,-19.573,-22.898,-22.898,-22.898,-22.898,-22.898,-22.898,-14.071,-14.071,-14.071,-14.071,-14.071,-14.071,-14.071,-4.6326,-1.6004,3.0794,2.7246,3.225,10.134,10.134,13.025,13.025,13.025,13.025,13.025,13.025,5.5615,5.5615,5.5615,5.5615,5.5615,5.5615,5.5615,0.16988,1.0726,9.2162,9.0348,11.086,12.549,12.549,17.742,17.742,17.742,17.742,17.742,17.742,24.118,24.118,24.118,24.118,24.118,24.118,24.118,22.83,23.121,-15.869,-14.9,-17.157,-25.759,-25.759,-31.976,-31.976,-31.976,-31.976,-31.976,-31.976,-21.477,-21.477,-21.477,-21.477,-21.477,-21.477,-21.477,-10.284,-13.616,10.852,9.9022,10.701,15.58,15.58,17.171,17.171,17.171,17.171,17.171,17.171,6.8206,6.8206,6.8206,6.8206,6.8206,6.8206,6.8206,7.6488,8.8238,-7.7198,-7.0866,-7.1644,-12.404,-12.404,-12.682,-12.682,-12.682,-12.682,-12.682,-12.682,-4.8786,-4.8786,-4.8786,-4.8786,-4.8786,-4.8786,-4.8786,-0.68285,3.7179,0.79081,0.79212,0.59662,5.9412,5.9412,7.5915,7.5915,7.5915,7.5915,7.5915,7.5915,3.5166,3.5166,3.5166,3.5166,3.5166,3.5166,3.5166,1.1228,2.6433,13.577,12.878,15.509,18.954,18.954,24.818,24.818,24.818,24.818,24.818,24.818,25.045,25.045,25.045,25.045,25.045,25.045,25.045,21.942,21.205,-12.217,-11.05,-12.52,-19.572,-19.572,-22.666,-22.666,-22.666,-22.666,-22.666,-22.666,-9.9714,-9.9714,-9.9714,-9.9714,-9.9714,-9.9714,-9.9714,-6.2628,-7.555,5.7845,4.7836,4.6585,6.894,6.894,5.0931,5.0931,5.0931,5.0931,5.0931,5.0931,-2.8726,-2.8726,-2.8726,-2.8726,-2.8726,-2.8726,-2.8726,5.5606,4.2395,-1.4739,-1.1873,-0.25205,-3.1058,-3.1058,-1.1164,-1.1164,-1.1164,-1.1164,-1.1164,-1.1164,1.9777,1.9777,1.9777,1.9777,1.9777,1.9777,1.9777,2.2322,6.4988
3.6349,7.7504,8.6724,8.6724,12.819,12.819,12.819,15.637,15.637,20.415,20.415,20.415,19.743,19.743,19.743,19.743,1.5474,1.5474,1.5474,2.7365,2.4881,2.129,1.9107,1.9107,2.2956,2.2956,2.2956,2.8659,2.8659,-1.6464,-1.6464,-1.6464,1.6977,1.6977,1.6977,1.6977,19.815,19.815,19.815,18.839,-8.8902,-11.795,-12.218,-12.218,-16.085,-16.085,-16.085,-18.823,-18.823,-19.351,-19.351,-19.351,-22.552,-22.552,-22.552,-22.552,-13.517,-13.517,-13.517,-14.582,5.7185,6.6311,7.5279,7.5279,9.6892,9.6892,9.6892,11.132,11.132,11.418,11.418,11.418,12.843,12.843,12.843,12.843,7.1493,7.1493,7.1493,11.452,-6.5297,-8.9553,-9.2348,-9.2348,-11.898,-11.898,-11.898,-13.664,-13.664,-17.264,-17.264,-17.264,-17.37,-17.37,-17.37,-17.37,-5.2151,-5.2151,-5.2151,-4.6915,4.0267,8.7445,9.5505,9.5505,13.452,13.452,13.452,15.612,15.612,21.186,21.186,21.186,19.283,19.283,19.283,19.283,1.5197,1.5197,1.5197,2.0527,1.6747,0.73385,0.98189,0.98189,2.7114,2.7114,2.7114,5.5352,5.5352,-0.46474,-0.46474,-0.46474,5.6115,5.6115,5.6115,5.6115,19.825,19.825,19.825,19.918,-9.5268,-12.645,-13.985,-13.985,-19.136,-19.136,-19.136,-23.083,-23.083,-23.683,-23.683,-23.683,-27.079,-27.079,-27.079,-27.079,-11.671,-11.671,-11.671,-13.829,8.1155,10.035,11.364,11.364,14.364,14.364,14.364,15.984,15.984,17.237,17.237,17.237,17.494,17.494,17.494,17.494,8.505,8.505,8.505,11.285,-8.9293,-12.815,-13.141,-13.141,-16.173,-16.173,-16.173,-17.439,-17.439,-22.642,-22.642,-22.642,-20.803,-20.803,-20.803,-20.803,-5.8856,-5.8856,-5.8856,-2.9223,4.0181,8.6938,9.5194,9.5194,12.475,12.475,12.475,13.819,13.819,19.328,19.328,19.328,16.134,16.134,16.134,16.134,1.6127,1.6127,1.6127,1.9261,3.6547,4.1446,4.146,4.146,7.7831,7.7831,7.7831,12.053,12.053,7.0848,7.0848,7.0848,13.499,13.499,13.499,13.499,19.939,19.939,19.939,20.256,-12.385,-17.279,-18.671,-18.671,-24.307,-24.307,-24.307,-27.923,-27.923,-30.213,-30.213,-30.213,-30.257,-30.257,-30.257,-30.257,-10.207,-10.207,-10.207,-11.935,10.107,13.335,14.541,14.541,17.111,17.111,17.111,17.71,17.71,20.297,20.297,20.297,17.227,17.227,17.227,17.227,8.5685,8.5685,8.5685,8.6626,-9.8402,-14.359,-14.657,-14.657,-16.578,-16.578,-16.578,-16.624,-16.624,-22.482,-22.482,-22.482,-17.924,-17.924,-17.924,-17.924,-5.0879,-5.0879,-5.0879,-0.0037069,1.2084,4.6931,5.3833,5.3833,6.9913,6.9913,6.9913,7.6617,7.6617,11.657,11.657,11.657,8.6547,8.6547,8.6547,8.6547,0.48356,0.48356,0.48356,1.2645,8.9791,11.505,11.706,11.706,17.179,17.179,17.179,21.444,21.444,18.973,18.973,18.973,23.363,23.363,23.363,23.363,21.131,21.131,21.131,20.621,-13.464,-18.46,-20.163,-20.163,-25.062,-25.062,-25.062,-27.017,-27.017,-29.194,-29.194,-29.194,-25.701,-25.701,-25.701,-25.701,-8.0921,-8.0921,-8.0921,-8.4477,9.1596,11.584,12.783,12.783,13.676,13.676,13.676,12.726,12.726,14.391,14.391,14.391,9.0301,9.0301,9.0301,9.0301,7.797,7.797,7.797,5.3852,-5.9647,-8.9098,-9.0744,-9.0744,-8.9137,-8.9137,-8.9137,-7.7216,-7.7216,-11.832,-11.832,-11.832,-6.7169,-6.7169,-6.7169,-6.7169,-1.8645,-1.8645,-1.8645,3.7763,-0.81951,1.8585,2.4725,2.4725,3.7107,3.7107,3.7107,4.162,4.162,7.3068,7.3068,7.3068,5.5732,5.5732,5.5732,5.5732,1.2272,1.2272,1.2272,2.998,12.884,16.316,16.611,16.611,21.703,21.703,21.703,25.572,25.572,24.021,24.021,24.021,25.654,25.654,25.654,25.654,20.756,20.756,20.756,18.913,-9.9201,-13.298,-15.278,-15.278,-17.929,-17.929,-17.929,-18.272,-18.272,-18.463,-18.463,-18.463,-13.428,-13.428,-13.428,-13.428,-5.2367,-5.2367,-5.2367,-4.4406,4.3794,4.8939,6.1209,6.1209,5.0162,5.0162,5.0162,2.8417,2.8417,2.567,2.567,2.567,-2.5097,-2.5097,-2.5097,-2.5097,6.726,6.726,6.726,3.0068,-0.025331,-1.5039,-1.6578,-1.6578,-0.53833,-0.53833,-0.53833,1.172,1.172,-1.5491,-1.5491,-1.5491,1.816,1.816,1.816,1.816,1.0257,1.0257,1.0257,5.6121
3.7125,6.7257,8.7903,13.551,23.064,23.064,23.064,23.064,23.064,23.064,5.5402,5.5402,5.5402,1.4246,2.9096,2.9096,2.9096,2.9096,0.9181,0.9181,2.4486,2.3847,2.1184,0.64791,-5.2943,-5.2943,-5.2943,-5.2943,-5.2943,-5.2943,16.071,16.071,16.071,20.551,19.473,19.473,19.473,19.473,20.523,20.523,-8.8327,-11.16,-12.516,-14.684,-16.943,-16.943,-16.943,-16.943,-16.943,-16.943,-16.693,-16.693,-16.693,-15.705,-18.759,-18.759,-18.759,-18.759,-14.639,-14.639,5.6502,6.9664,7.7454,8.9114,6.9518,6.9518,6.9518,6.9518,6.9518,6.9518,7.3883,7.3883,7.3883,8.7517,12.841,12.841,12.841,12.841,12.275,12.275,-6.454,-8.2713,-9.4447,-11.796,-14.904,-14.904,-14.904,-14.904,-14.904,-14.904,-8.5134,-8.5134,-8.5134,-6.6315,-7.7726,-7.7726,-7.7726,-7.7726,-8.0026,-8.0026,4.1805,7.3993,9.5126,14.725,25.767,25.767,25.767,25.767,25.767,25.767,5.2199,5.2199,5.2199,1.2986,2.6509,2.6509,2.6509,2.6509,0.38068,0.38068,1.5418,1.1701,1.0662,-0.67251,-6.903,-6.903,-6.903,-6.903,-6.903,-6.903,16.533,16.533,16.533,20.851,20.462,20.462,20.462,20.462,21.7,21.7,-9.4384,-11.984,-13.864,-16.671,-22.121,-22.121,-22.121,-22.121,-22.121,-22.121,-13.929,-13.929,-13.929,-14.033,-18.494,-18.494,-18.494,-18.494,-14.976,-14.976,8.0013,9.8326,11.179,13.298,15.997,15.997,15.997,15.997,15.997,15.997,8.1782,8.1782,8.1782,10.467,14.496,14.496,14.496,14.496,14.839,14.839,-8.8971,-11.384,-13.011,-16.634,-24.878,-24.878,-24.878,-24.878,-24.878,-24.878,-9.7162,-9.7162,-9.7162,-7.4632,-7.8445,-7.8445,-7.8445,-7.8445,-7.7539,-7.7539,4.2542,7.4511,9.6817,14.582,24.949,24.949,24.949,24.949,24.949,24.949,4.9373,4.9373,4.9373,1.0598,2.073,2.073,2.073,2.073,-0.25563,-0.25563,3.4139,3.7426,3.8267,3.6938,1.0772,1.0772,1.0772,1.0772,1.0772,1.0772,17.573,17.573,17.573,21.728,22.252,22.252,22.252,22.252,23.287,23.287,-12.244,-15.807,-18.195,-22.755,-33.109,-33.109,-33.109,-33.109,-33.109,-33.109,-12.692,-12.692,-12.692,-13.1,-17.801,-17.801,-17.801,-17.801,-15.108,-15.108,9.9352,12.396,14.14,17.25,24.133,24.133,24.133,24.133,24.133,24.133,9.2384,9.2384,9.2384,10.89,13.195,13.195,13.195,13.195,14.833,14.833,-9.8632,-12.651,-14.653,-18.51,-28.705,-28.705,-28.705,-28.705,-28.705,-28.705,-10.074,-10.074,-10.074,-6.5058,-5.2728,-5.2728,-5.2728,-5.2728,-5.1877,-5.1877,1.4976,4.0772,5.7819,9.358,16.008,16.008,16.008,16.008,16.008,16.008,2.6019,2.6019,2.6019,-0.61649,0.43384,0.43384,0.43384,0.43384,-2.1547,-2.1547,8.6708,10.119,11.111,13.18,16.381,16.381,16.381,16.381,16.381,16.381,20.376,20.376,20.376,23.555,24.138,24.138,24.138,24.138,25.296,25.296,-13.302,-17.076,-19.658,-24.443,-36.455,-36.455,-36.455,-36.455,-36.455,-36.455,-10.49,-10.49,-10.49,-10.603,-14.33,-14.33,-14.33,-14.33,-12.404,-12.404,8.981,11.001,12.494,14.75,21.111,21.111,21.111,21.111,21.111,21.111,8.9602,8.9602,8.9602,9.5796,9.696,9.696,9.696,9.696,11.69,11.69,-6.0498,-8.0041,-9.3703,-11.551,-18.102,-18.102,-18.102,-18.102,-18.102,-18.102,-6.7909,-6.7909,-6.7909,-2.4972,-0.37755,-0.37755,-0.37755,-0.37755,0.68039,0.68039,-0.3527,1.8331,3.0222,5.8505,8.8087,8.8087,8.8087,8.8087,8.8087,8.8087,2.134,2.134,2.134,-0.062605,1.1862,1.1862,1.1862,1.1862,-1.3409,-1.3409,12.394,14.271,15.782,18.648,26.084,26.084,26.084,26.084,26.084,26.084,21.427,21.427,21.427,23.187,23.251,23.251,23.251,23.251,24.244,24.244,-9.7886,-12.731,-14.847,-18.249,-27.242,-27.242,-27.242,-27.242,-27.242,-27.242,-7.2963,-7.2963,-7.2963,-7.0049,-8.743,-8.743,-8.743,-8.743,-7.5198,-7.5198,4.3153,5.2513,6.083,6.5339,8.0318,8.0318,8.0318,8.0318,8.0318,8.0318,8.3886,8.3886,8.3886,7.8604,5.6356,5.6356,5.6356,5.6356,7.6534,7.6534,-0.38787,-1.5945,-2.221,-3.089,-4.2026,-4.2026,-4.2026,-4.2026,-4.2026,-4.2026,-3.7769,-3.7769,-3.7769,0.82542,3.4302,3.4302,3.4302,3.4302,5.0308,5.0308
6.1875,6.0202,6.1518,13.85,14.381,14.381,14.381,14.47,14.47,19.335,19.335,19.335,20.456,20.456,20.456,20.456,4.2257,4.2257,2.0891,2.3572,1.3955,1.9067,4.0657,1.107,3.3578,3.3578,3.3578,3.1276,3.1276,-1.4506,-1.4506,-1.4506,1.276,1.276,1.276,1.276,16.159,16.159,19.737,18.995,-9.7058,-9.9113,-12.819,-15.375,-18.972,-18.972,-18.972,-18.777,-18.777,-17.16,-17.16,-17.16,-21.767,-21.767,-21.767,-21.767,-8.4676,-8.4676,-16.884,-12.927,5.1558,5.8052,6.5944,9.3728,11.6,11.6,11.6,11.301,11.301,10.133,10.133,10.133,12.874,12.874,12.874,12.874,1.0969,1.0969,11.557,8.5512,-7.3291,-7.3442,-9.3973,-12.167,-13.726,-13.726,-13.726,-13.377,-13.377,-14.814,-14.814,-14.814,-16.23,-16.23,-16.23,-16.23,-6.6381,-6.6381,-4.1426,-5.1835,7.1239,6.8972,6.4937,14.655,15.692,15.692,15.692,14.253,14.253,20.673,20.673,20.673,20.287,20.287,20.287,20.287,6.0473,6.0473,0.91716,2.3989,-0.013958,0.78672,4.6102,0.50419,3.5554,3.5554,3.5554,5.0916,5.0916,-1.738,-1.738,-1.738,4.6722,4.6722,4.6722,4.6722,13.213,13.213,21.412,19.028,-10.573,-11.267,-14.418,-17.742,-23.401,-23.401,-23.401,-22.148,-22.148,-20.946,-20.946,-20.946,-26.345,-26.345,-26.345,-26.345,-5.5732,-5.5732,-15.05,-11.956,8.3826,9.3317,10.315,13.854,17.944,17.944,17.944,15.862,15.862,16.008,16.008,16.008,17.996,17.996,17.996,17.996,5.799,5.799,9.3799,10.319,-11.057,-10.979,-13.017,-16.654,-19.634,-19.634,-19.634,-16.824,-16.824,-20.873,-20.873,-20.873,-20.339,-20.339,-20.339,-20.339,-12.431,-12.431,-1.2216,-5.6984,7.3738,6.9627,5.7536,14.456,15.014,15.014,15.014,12.43,12.43,19.966,19.966,19.966,17.42,17.42,17.42,17.42,7.3603,7.3603,0.59877,2.4788,2.5304,3.4969,8.3459,4.8466,9.2827,9.2827,9.2827,11.689,11.689,4.2219,4.2219,4.2219,12.94,12.94,12.94,12.94,13.116,13.116,21.548,19.317,-14.851,-15.557,-17.877,-23.719,-30.46,-30.46,-30.46,-27.137,-27.137,-28.251,-28.251,-28.251,-31.071,-31.071,-31.071,-31.071,-8.36,-8.36,-11.474,-11.007,11.723,12.542,13.153,17.745,22.354,22.354,22.354,17.76,17.76,20.523,20.523,20.523,18.886,18.886,18.886,18.886,13.499,13.499,5.0438,9.9707,-13.026,-12.613,-13.929,-18.461,-21.105,-21.105,-21.105,-16.005,-16.005,-22.613,-22.613,-22.613,-18.207,-18.207,-18.207,-18.207,-17.183,-17.183,2.2261,-4.2353,3.8936,3.3465,1.6851,9.5202,9.0666,9.0666,9.0666,6.191,6.191,13.363,13.363,13.363,9.8248,9.8248,9.8248,9.8248,4.7463,4.7463,0.33947,1.3484,9.3441,10.154,14.938,13.853,19.369,19.369,19.369,21.669,21.669,15.352,15.352,15.352,23.798,23.798,23.798,23.798,17.68,17.68,20.996,20.607,-16.755,-17.048,-17.823,-25.368,-31.398,-31.398,-31.398,-26.225,-26.225,-29.476,-29.476,-29.476,-28.599,-28.599,-28.599,-28.599,-11.078,-11.078,-6.7386,-8.9546,10.923,11.368,11.311,15.391,18.726,18.726,18.726,12.297,12.297,16.86,16.86,16.86,11.574,11.574,11.574,11.574,18.066,18.066,1.4363,8.5046,-8.5218,-7.8724,-8.4321,-11.876,-12.822,-12.822,-12.822,-6.7159,-6.7159,-13.898,-13.898,-13.898,-6.9612,-6.9612,-6.9612,-6.9612,-14.826,-14.826,5.1797,-0.55415,1.3567,0.61458,-1.017,5.8258,5.1757,5.1757,5.1757,2.7991,2.7991,8.8677,8.8677,8.8677,6.1793,6.1793,6.1793,6.1793,2.8753,2.8753,2.5643,2.3073,13.993,14.928,18.949,19.439,24.829,24.829,24.829,25.582,25.582,21.749,21.749,21.749,27.365,27.365,27.365,27.365,21.281,21.281,18.54,19.939,-12.693,-12.898,-12.023,-19.298,-23.817,-23.817,-23.817,-17.258,-17.258,-21.831,-21.831,-21.831,-17.564,-17.564,-17.564,-17.564,-10.49,-10.49,-2.626,-5.5809,5.2204,5.4875,4.8525,7.3018,9.0843,9.0843,9.0843,2.187,2.187,6.8923,6.8923,6.8923,-0.39637,-0.39637,-0.39637,-0.39637,17.899,17.899,0.4017,6.303,-1.7731,-0.86794,-1.045,-3.251,-3.34,-3.34,-3.34,2.1998,2.1998,-3.9728,-3.9728,-3.9728,2.5783,2.5783,2.5783,2.5783,-9.2496,-9.2496,5.5484,2.6581
5.0574,9.4995,9.7025,11.147,17.975,17.975,17.975,12.594,12.594,5.5387,5.5387,1.861,1.861,1.861,1.861,2.6986,2.875,2.875,2.875,2.4163,2.1609,1.2685,1.7466,0.94826,-4.752,-4.752,-4.752,4.4204,4.4204,13.056,13.056,20.016,20.016,20.016,20.016,20.023,17.258,17.258,17.258,18.31,-9.4348,-12.171,-12.997,-13.103,-12.684,-12.684,-12.684,-18.106,-18.106,-13.64,-13.64,-15.013,-15.013,-15.013,-15.013,-18.934,-9.1602,-9.1602,-9.1602,-10.627,5.9348,7.5624,7.6394,8.0761,5.2736,5.2736,5.2736,10.096,10.096,5.5852,5.5852,8.5193,8.5193,8.5193,8.5193,12.698,4.6613,4.6613,4.6613,9.2116,-7.0604,-9.6,-9.584,-10.463,-12.138,-12.138,-12.138,-11.845,-11.845,-7.7077,-7.7077,-7.1263,-7.1263,-7.1263,-7.1263,-6.8891,-6.8431,-6.8431,-6.8431,-9.2917,5.7217,10.685,10.65,12.231,19.997,19.997,19.997,12.325,12.325,5.7593,5.7593,1.8483,1.8483,1.8483,1.8483,2.2912,3.6979,3.6979,3.6979,2.5565,0.85837,-0.85758,0.39535,-0.74288,-6.3645,-6.3645,-6.3645,7.1314,7.1314,13.021,13.021,20.197,20.197,20.197,20.197,21.344,16.158,16.158,16.158,18.603,-9.9994,-12.912,-14.368,-14.338,-16.03,-16.03,-16.03,-21.127,-21.127,-11.505,-11.505,-13.753,-13.753,-13.753,-13.753,-18.908,-8.6208,-8.6208,-8.6208,-11.785,8.5203,10.971,11.452,11.801,11.705,11.705,11.705,13.588,13.588,7.4208,7.4208,11.082,11.082,11.082,11.082,13.94,9.7082,9.7082,9.7082,14.761,-9.928,-13.771,-13.647,-14.758,-19.731,-19.731,-19.731,-14.549,-14.549,-10.081,-10.081,-8.4584,-8.4584,-8.4584,-8.4584,-6.4412,-10.371,-10.371,-10.371,-11.571,5.929,11.046,10.612,12.315,19.687,19.687,19.687,10.273,10.273,5.8639,5.8639,1.5405,1.5405,1.5405,1.5405,1.7324,3.882,3.882,3.882,1.8131,2.9857,2.1927,3.9671,2.7645,-0.83918,-0.83918,-0.83918,12.702,12.702,14.02,14.02,21.376,21.376,21.376,21.376,22.922,17.242,17.242,17.242,20.851,-13.602,-18.338,-19.627,-19.819,-24.306,-24.306,-24.306,-23.381,-23.381,-11.511,-11.511,-13.587,-13.587,-13.587,-13.587,-17.613,-10.824,-10.824,-10.824,-14.176,11.098,14.857,15.028,15.579,18.128,18.128,18.128,13.397,13.397,9.7486,9.7486,12.352,12.352,12.352,12.352,11.773,14.381,14.381,14.381,18.055,-11.34,-16.016,-15.349,-16.731,-23.14,-23.14,-23.14,-12.633,-12.633,-11.466,-11.466,-7.7279,-7.7279,-7.7279,-7.7279,-3.4352,-11.629,-11.629,-11.629,-10.427,2.886,7.04,6.3808,7.9972,12.954,12.954,12.954,5.0609,5.0609,3.645,3.645,-0.48574,-0.48574,-0.48574,-0.48574,0.36239,1.3165,1.3165,1.3165,-1.2038,8.9474,10.218,12.014,11.09,11.144,11.144,11.144,20.066,20.066,17.34,17.34,23.801,23.801,23.801,23.801,24.322,21.217,21.217,21.217,24.873,-15.249,-20.935,-21.441,-22.05,-27.615,-27.615,-27.615,-20.676,-20.676,-10.695,-10.695,-11.661,-11.661,-11.661,-11.661,-13.636,-11.884,-11.884,-11.884,-13.911,10.339,13.872,13.254,14.137,16.723,16.723,16.723,7.8283,7.8283,10.674,10.674,11.409,11.409,11.409,11.409,7.8811,16.007,16.007,16.007,16.975,-7.3038,-10.86,-9.6953,-11.123,-15.351,-15.351,-15.351,-4.6243,-4.6243,-8.9969,-8.9969,-3.3773,-3.3773,-3.3773,-3.3773,1.2263,-7.5179,-7.5179,-7.5179,-3.8154,0.69324,4.0697,3.0984,4.7009,7.6637,7.6637,7.6637,2.9313,2.9313,2.9625,2.9625,-0.33243,-0.33243,-0.33243,-0.33243,1.4917,0.32786,0.32786,0.32786,-1.859,13.19,15.569,17.342,16.604,18.961,18.961,18.961,22.337,22.337,19.082,19.082,23.908,23.908,23.908,23.908,22.868,23.188,23.188,23.188,25.814,-11.738,-16.625,-16.1,-17.071,-21.099,-21.099,-21.099,-12.045,-12.045,-8.0704,-8.0704,-8.0246,-8.0246,-8.0246,-8.0246,-7.7502,-9.7622,-9.7622,-9.7622,-9.9675,5.4316,7.4615,5.9014,7.0783,7.3874,7.3874,7.3874,-0.72682,-0.72682,10.2,10.2,9.2155,9.2155,9.2155,9.2155,4.0065,14.276,14.276,14.276,12.563,-1.2291,-3.4553,-1.7057,-3.2106,-4.8114,-4.8114,-4.8114,2.1465,2.1465,-6.0301,-6.0301,0.72258,0.72258,0.72258,0.72258,4.2975,-2.2083,-2.2083,-2.2083,2.8545
3.7791,8.2421,10.29,10.29,14.368,14.368,13.468,14.774,15.461,15.461,9.8747,18.601,19.375,19.375,19.375,19.375,19.375,4.274,4.274,3.6033,2.3574,3.5424,1.4806,1.4806,1.2873,1.2873,3.7136,3.1496,1.2042,1.2042,10.749,0.2978,1.8825,1.8825,1.8825,1.8825,1.8825,17.133,17.133,18,-8.8452,-14.937,-13.159,-13.159,-17.025,-17.025,-18.778,-19.181,-17.184,-17.184,-20.596,-18.938,-22.388,-22.388,-22.388,-22.388,-22.388,-9.1714,-9.1714,-16.603,5.584,8.5666,7.98,7.98,8.824,8.824,10.861,11.017,9.5637,9.5637,10.132,11.186,13.165,13.165,13.165,13.165,13.165,2.3702,2.3702,14.796,-6.4931,-10.356,-10.054,-10.054,-12.488,-12.488,-12.947,-14.52,-12.967,-12.967,-11.061,-15.521,-17.162,-17.162,-17.162,-17.162,-17.162,-7.1132,-7.1132,-6.7278,4.2725,9.8388,11.503,11.503,15.373,15.373,13.754,15.128,15.778,15.778,8.5648,19.545,19.32,19.32,19.32,19.32,19.32,5.7477,5.7477,3.2126,1.3991,1.5385,-0.26816,-0.26816,1.1581,1.1581,5.0935,4.1657,2.2082,2.2082,13.602,0.9603,5.3013,5.3013,5.3013,5.3013,5.3013,14.879,14.879,19.065,-9.4071,-16.695,-14.433,-14.433,-20.591,-20.591,-22.614,-21.524,-20.051,-20.051,-19.487,-22.61,-27.764,-27.764,-27.764,-27.764,-27.764,-7.3753,-7.3753,-17.424,7.9583,13.613,11.811,11.811,15.091,15.091,16.227,15.008,13.804,13.804,9.9952,16.549,19.102,19.102,19.102,19.102,19.102,7.5695,7.5695,16.073,-9.02,-16.077,-14.473,-14.473,-18.401,-18.401,-17.273,-18.359,-16.918,-16.918,-11.096,-20.862,-21.635,-21.635,-21.635,-21.635,-21.635,-12.205,-12.205,-5.6757,4.2742,9.9441,11.546,11.546,14.648,14.648,12.527,13.754,14.409,14.409,6.9887,18.316,16.656,16.656,16.656,16.656,16.656,6.5408,6.5408,2.8333,3.3622,5.5578,3.2072,3.2072,7.1421,7.1421,11.057,9.9501,7.6746,7.6746,16.658,7.3572,13.573,13.573,13.573,13.573,13.573,15.456,15.456,20.467,-12.256,-23.001,-19.741,-19.741,-27.929,-27.929,-28.126,-26.166,-24.186,-24.186,-17.295,-29.031,-33.575,-33.575,-33.575,-33.575,-33.575,-10.201,-10.201,-16.881,9.9475,18.517,15.433,15.433,20.058,20.058,18.949,17.49,15.449,15.449,7.7959,20.005,21.183,21.183,21.183,21.183,21.183,14.456,14.456,13.698,-9.9453,-18.697,-16.296,-16.296,-20.366,-20.366,-17.44,-18.417,-16.67,-16.67,-9.1345,-21.499,-20.125,-20.125,-20.125,-20.125,-20.125,-15.656,-15.656,-2.3172,1.4982,5.2337,7.2824,7.2824,7.9721,7.9721,6.2973,8.3655,8.4837,8.4837,3.6134,11.764,9.2751,9.2751,9.2751,9.2751,9.2751,3.6739,3.6739,1.4944,8.6657,14.626,11.295,11.295,18.589,18.589,21.094,18.531,16.972,16.972,20.218,17.777,24.294,24.294,24.294,24.294,24.294,20.14,20.14,22.012,-13.388,-25.351,-21.667,-21.667,-29.361,-29.361,-27.431,-25.031,-22.862,-22.862,-12.13,-29.042,-30.699,-30.699,-30.699,-30.699,-30.699,-12.369,-12.369,-13.262,9.0981,17.045,13.746,13.746,16.613,16.613,13.852,13.27,10.385,10.385,3.4958,15.622,13.681,13.681,13.681,13.681,13.681,17.975,17.975,8.9751,-6.1823,-12.521,-10.625,-10.625,-11.549,-11.549,-8.3517,-10.7,-8.1735,-8.1735,-3.9351,-12.565,-9.0611,-9.0611,-9.0611,-9.0611,-9.0611,-12.297,-12.297,2.9795,-0.50009,1.6972,4.1764,4.1764,3.2397,3.2397,2.3992,4.811,5.4548,5.4548,3.098,7.5731,5.1577,5.1577,5.1577,5.1577,5.1577,1.9438,1.9438,2.8188,12.571,20.458,16.577,16.577,24.772,24.772,25.62,23.131,20.55,20.55,20.383,23.438,28.18,28.18,28.18,28.18,28.18,23.267,23.267,20.586,-9.9182,-19.946,-16.596,-16.596,-20.97,-20.97,-18.079,-16.481,-13.923,-13.923,-5.0509,-20.556,-18.281,-18.281,-18.281,-18.281,-18.281,-11.059,-11.059,-7.5581,4.413,9.2509,6.6008,6.6008,6.0475,6.0475,3.3254,4.264,0.98571,0.98571,-0.78299,5.3632,0.69712,0.69712,0.69712,0.69712,0.69712,17.25,17.25,4.382,-0.33304,-3.6558,-2.861,-2.861,-0.89,-0.89,1.2917,-2.0082,-0.15366,-0.15366,-0.54816,-2.8736,1.4168,1.4168,1.4168,1.4168,1.4168,-6.7393,-6.7393,6.0674
5.596,9.7996,10.854,18.641,18.641,18.641,18.641,18.641,18.641,5.8556,5.8556,5.8556,5.0601,4.1157,4.1157,3.5634,3.5634,3.5634,2.9466,2.9384,3.5578,1.0319,1.641,-3.2322,-3.2322,-3.2322,-3.2322,-3.2322,-3.2322,11.926,11.926,11.926,13.86,14.072,14.072,16.902,16.902,16.902,19.388,18.741,-12.163,-12.011,-13.6,-14.911,-14.911,-14.911,-14.911,-14.911,-14.911,-13.1,-13.1,-13.1,-12.949,-13.171,-13.171,-16.389,-16.389,-16.389,-17.356,-14.037,7.3066,7.4439,8.3622,7.3251,7.3251,7.3251,7.3251,7.3251,7.3251,5.9565,5.9565,5.9565,4.9891,9.4837,9.4837,14.031,14.031,14.031,12.959,12.552,-8.2222,-9.5984,-10.529,-12.86,-12.86,-12.86,-12.86,-12.86,-12.86,-8.1116,-8.1116,-8.1116,-8.0057,-9.8641,-9.8641,-6.9203,-6.9203,-6.9203,-5.905,-4.8917,6.5178,10.731,11.672,20.847,20.847,20.847,20.847,20.847,20.847,5.9519,5.9519,5.9519,5.5639,4.1182,4.1182,3.0734,3.0734,3.0734,2.3345,2.4815,1.9142,-0.56934,0.52492,-5.4445,-5.4445,-5.4445,-5.4445,-5.4445,-5.4445,12.199,12.199,12.199,13.214,14.498,14.498,17.979,17.979,17.979,20.769,19.56,-13.021,-13.085,-15.178,-18.059,-18.059,-18.059,-18.059,-18.059,-18.059,-11.637,-11.637,-11.637,-11.264,-13.893,-13.893,-16.266,-16.266,-16.266,-17.302,-13.968,10.793,10.941,12.158,13.941,13.941,13.941,13.941,13.941,13.941,8.1632,8.1632,8.1632,7.6596,13.471,13.471,14.586,14.586,14.586,13.546,13.238,-12.056,-13.531,-14.518,-20.642,-20.642,-20.642,-20.642,-20.642,-20.642,-10.367,-10.367,-10.367,-10.869,-11.71,-11.71,-5.7044,-5.7044,-5.7044,-4.5342,-3.5421,6.7746,10.964,11.819,20.762,20.762,20.762,20.762,20.762,20.762,5.8215,5.8215,5.8215,5.5842,3.4383,3.4383,2.6411,2.6411,2.6411,1.9341,2.3873,4.7017,2.4475,3.9259,0.30143,0.30143,0.30143,0.30143,0.30143,0.30143,13.693,13.693,13.693,14.52,17.246,17.246,19.386,19.386,19.386,21.87,20.086,-17.663,-18.221,-20.437,-26.996,-26.996,-26.996,-26.996,-26.996,-26.996,-12.141,-12.141,-12.141,-11.92,-16.155,-16.155,-15.653,-15.653,-15.653,-15.713,-12.905,14.322,14.622,15.729,20.571,20.571,20.571,20.571,20.571,20.571,10.485,10.485,10.485,10.683,16.028,16.028,12.424,12.424,12.424,10.749,11.08,-14.056,-15.605,-16.457,-24.26,-24.26,-24.26,-24.26,-24.26,-24.26,-11.362,-11.362,-11.362,-12.159,-10.894,-10.894,-2.5219,-2.5219,-2.5219,-1.2383,-0.57483,3.1743,6.7751,7.4216,13.976,13.976,13.976,13.976,13.976,13.976,3.2433,3.2433,3.2433,2.9186,0.33048,0.33048,1.4239,1.4239,1.4239,0.8326,1.5336,11.786,10.585,12.03,12.755,12.755,12.755,12.755,12.755,12.755,17.465,17.465,17.465,18.507,21.875,21.875,20.853,20.853,20.853,22.87,20.854,-19.524,-20.725,-22.102,-30.732,-30.732,-30.732,-30.732,-30.732,-30.732,-11.318,-11.318,-11.318,-11.58,-15.367,-15.367,-12.416,-12.416,-12.416,-11.764,-9.8208,13.305,13.64,13.877,19.064,19.064,19.064,19.064,19.064,19.064,10.829,10.829,10.829,11.694,14.362,14.362,8.3275,8.3275,8.3275,6.5447,7.4934,-9.3173,-10.321,-10.59,-16.353,-16.353,-16.353,-16.353,-16.353,-16.353,-8.0793,-8.0793,-8.0793,-8.6588,-4.8611,-4.8611,2.2681,2.2681,2.2681,3.4061,3.8389,0.50942,3.4436,4.2419,8.5548,8.5548,8.5548,8.5548,8.5548,8.5548,2.2844,2.2844,2.2844,1.6216,-0.85871,-0.85871,2.7327,2.7327,2.7327,2.4378,3.2017,16.573,16.306,17.233,20.992,20.992,20.992,20.992,20.992,20.992,19.511,19.511,19.511,20.835,23.674,23.674,19.617,19.617,19.617,21.042,19.225,-15.201,-16.572,-16.913,-24.317,-24.317,-24.317,-24.317,-24.317,-24.317,-8.5371,-8.5371,-8.5371,-8.5971,-10.478,-10.478,-7.2875,-7.2875,-7.2875,-6.5285,-5.579,7.2676,7.3988,6.8324,9.3401,9.3401,9.3401,9.3401,9.3401,9.3401,9.7746,9.7746,9.7746,10.321,9.5267,9.5267,4.3138,4.3138,4.3138,3.2091,4.3253,-2.1736,-2.6482,-2.8106,-5.4361,-5.4361,-5.4361,-5.4361,-5.4361,-5.4361,-4.3745,-4.3745,-4.3745,-4.0379,1.7154,1.7154,5.0854,5.0854,5.0854,5.6163,6.2161
